-0.016179
0.0034324
0.00536408
0.00777829
-0.00598141
-0.00129225
0.00264687
-0.0095731
-0.0148849
-0.0126796
-0.00609323
-0.00891152
0.0112889
0.00821766
-0.00175545
0.00257635
-0.00530891
0.00840499
0.018715
0.0148332
-0.00559684
0.00843534
0.0105605
0.0112661
0.0102321
0.00479743
0.0126352
0.00998745
0.0192673
0.0232361
0.0160405
0.00873745
-0.0115808
0.00585013
0.00967003
0.0075409
-0.00916589
0.0031678
0.00995643
0.0105388
0.00908776
0.00531176
0.0156726
0.0143959
0.0222332
0.0188646
0.0141788
0.00728405
-0.0162225
0.0123409
0.0155581
0.00577086
-0.00581683
0.00246581
-0.0013858
-0.00349047
0.00158601
0.00299913
0.00937215
0.0129007
0.0149783
0.0146138
0.0128623
0.00366402
-0.0231492
0.00400382
0.00811008
-0.00589789
-0.0193522
-0.00226326
0.00111172
-0.00884067
-0.00128845
0.00310206
0.00433139
0.00655051
0.00807046
0.00696711
0.0101294
0.00559101
-0.0186167
-0.00490912
0.00298467
-0.00724098
-0.0216812
-0.0186324
-0.0112196
-0.00918056
-0.00459978
-0.00194244
-0.00600112
0.00280377
-0.00369768
-0.00408533
-0.00656525
-0.002038
-0.00796631
0.00551107
0.0052266
0.00303559
-0.0142517
-0.0157904
-0.014828
-0.0129162
-0.0185523
-0.00503534
-0.00651861
-0.00281406
-0.00644897
-0.00901704
-0.00894406
-0.00214579
-0.000921062
0.00393398
0.00319534
0.000428214
-0.00895397
-0.00967847
-0.00854655
-0.0130339
-0.0109665
-0.00543672
-0.00930714
-0.00775381
-0.00321701
-0.00526029
-0.00392209
-0.00166522
-0.00228488
0.00570596
-0.00143652
-0.00509319
-0.00774669
-0.00284633
0.000284463
-0.00115477
-0.000851117
-0.00726048
-0.00232945
-0.00181485
-0.00424706
-0.00480181
-0.000582576
-0.0122673
-0.000505362
0.00785248
0.00171141
0.000734291
-0.00197567
0.00302372
0.00241408
0.00624228
-0.000594442
-0.00311783
-0.00271022
-0.00194587
-0.00448715
-0.00317261
0.00300484
-0.0110106
-0.00522907
0.00351158
0.00123297
-0.00114249
0.000400056
0.00249446
0.00452086
0.00600317
0.00256739
-0.000728932
0.00142375
0.00144041
-0.0055816
0.00281236
0.00346758
-0.0060373
-0.00388303
-0.00148222
-0.00348393
-0.000749739
-0.00279618
0.00241803
0.00348065
-0.00329105
-0.00208955
-0.00579902
0.00272236
-0.000105479
-0.00499607
0.00415814
0.00221457
-0.00914757
-0.00385861
0.0034639
-0.00621782
-0.00606325
-0.0040704
0.00373931
0.00239766
-0.00926817
-0.00731881
-0.00989334
-0.00362775
-0.00959423
-0.000850685
0.00342075
-0.00329804
-0.0117056
-0.00584897
0.00756031
-0.00638897
-0.00493819
-0.00718676
0.0016273
-0.00356874
-0.0152558
-0.0115805
-0.00861279
-0.00363477
-0.00507614
-0.000114233
0.00434798
0.000396432
-0.00694343
-0.0156887
0.00358149
-0.00191797
-0.00469052
-0.00673826
-0.00366007
-0.00143767
-0.0141655
-0.0115839
-0.0112824
-0.0087694
-0.00673069
-0.00227468
0.00242897
-0.00058215
-0.00806753
-0.00744695
0.00477899
-5.52659e-05
0.00406213
-0.00840808
-0.0094104
-0.00587441
-0.00915029
-0.0045119
-0.0112214
-0.00439802
-0.00104636
0.0030194
0.00677932
0.00149689
-0.0146229
-0.00902506
0.0017069
-0.00403878
0.00175041
-0.0165715
-0.0144934
-0.00832995
-0.0166511
-0.0101022
-0.0137318
-0.00965263
-0.00636831
0.0027233
0.00746779
0.000111951
-0.0120632
-0.0134065
0.000182895
-0.00531666
-0.00819769
-0.0174955
-0.0159942
-0.00808432
-0.0153492
-0.00639218
-0.00504319
-0.00377981
-0.00407932
2.09384e-05
-0.0036789
-0.0019298
-0.00697134
-0.0125652
0.00303627
-0.000605989
-0.00846903
-0.0113555
-0.0185699
-0.0115031
-0.00944045
0.00121069
-0.000236172
-0.00212576
-0.000805066
-0.00524006
-0.00486933
-0.00380397
-0.00863915
-0.0120568
0.00473158
0.000495536
-6.21997e-05
-0.0103915
-0.0125939
-0.00554389
-0.00994587
-0.000577486
0.00198059
0.00141591
0.00377319
0.00115499
-0.00674344
-0.0126648
-0.0106248
-0.0136592
-0.000827679
-0.00323588
-0.00255965
-0.00952787
-0.00883019
-0.00746239
-0.00777095
0.00132846
0.00713972
0.00469929
-0.00589126
0.00572218
-0.00702226
-0.0146352
-0.0135816
-0.0129575
-0.00278635
-0.00966506
-0.00417979
-0.00329452
-0.00890935
-0.00492072
-0.0111767
0.00194576
-0.00174847
-0.00444113
-0.00964637
0.00632445
-0.0072045
-0.00300375
-0.0106533
-0.0137341
-0.00158722
-0.0121414
-0.00488923
-0.00683279
-0.00895797
-0.0115247
-0.00661311
-0.00253204
-0.0103504
-0.0121363
-0.00250048
0.00540872
0.00174784
0.000405601
-0.0130001
-0.0156363
-0.0084902
-0.0186781
-0.00432613
-0.0088806
-0.0120232
-0.0137575
-0.0107623
-0.00227367
-0.00844177
-0.00913442
-0.00862175
-0.00131891
0.00305151
-0.00554275
-0.0146022
-0.018031
-0.00184265
-0.0146838
-0.00318909
-0.00759666
-0.00625431
-0.00809455
-0.00715014
-0.00221647
-0.00613967
-0.00656195
-0.0101952
0.00533181
-9.01185e-05
-0.00688414
-0.0148154
-0.0174938
-0.00357761
-0.00704403
-0.00882744
-0.00464709
-0.00524002
-0.00968858
-0.0067562
-0.00220556
-0.0041726
-0.00700632
-0.00128259
0.0050316
0.00332585
-0.00873668
-0.0158166
-0.0193037
-0.00952071
-0.00492577
-0.0128053
-0.00159609
-0.00550563
-0.0108793
-0.0118176
-0.00352513
-0.00333097
-0.0028574
-0.00317609
0.00214631
0.00432296
-0.0100789
-0.0130539
-0.0220581
-0.0132468
-0.011147
-0.0122947
0.0035155
-0.00284732
-0.00524464
-0.0119399
-0.00368647
-0.00285894
-0.00128081
-0.00555757
-0.00360866
0.00237898
-0.00874937
-0.0144436
-0.0287215
-0.0135279
-0.0120248
-0.00858501
-0.00434778
-0.00715494
-0.00231417
-0.00735752
-0.00171361
-0.000509572
0.00603379
-0.0100822
-0.00789362
0.0010465
-0.00212145
-0.0114356
-0.0317633
-0.00975271
-0.0103135
-0.010922
-0.00467033
-0.00525962
-0.000194744
-0.00492888
-0.000967295
-0.00347744
0.00312181
-0.00800325
-0.0061135
-0.00771322
-0.00188885
-0.0156952
-0.0301731
-0.00558268
-0.00645224
-0.0125387
-0.00308464
0.000926024
0.000749555
0.00583766
0.00899137
0.00566394
0.00424657
-0.00367577
-0.00140029
-0.00625237
-0.00114736
-0.00716151
-0.037181
-0.00903162
-0.0098896
-0.0167869
-0.014569
-0.0102904
-0.0111965
-0.00490524
-0.000564556
-0.00325775
-0.0105617
-0.00831798
-0.00457661
-0.00481888
-0.00517061
-0.0112086
-0.00887503
-0.000383725
0.00767712
0.00808221
0.00274436
0.00819459
0.00848976
-0.00731458
-0.0149017
0.00165383
0.0124114
-0.00225854
0.00761636
0.00436134
0.000310542
-0.00140379
-0.00655318
0.00491563
0.00525011
0.000577273
-0.00581787
-0.000309892
0.00644392
-0.00149097
-0.00326834
-0.00488408
0.00146083
-0.00278198
0.00479391
0.000806731
-0.00215041
-0.006503
-0.00924632
-0.00247545
-0.000423533
-0.00206761
-0.00261005
-0.000570833
0.00856924
0.00868536
0.00251937
0.00562954
0.00939017
0.0125592
0.0154224
0.00547553
-0.00970059
0.000864282
-0.00879152
-0.00225567
-0.00154278
-0.00300011
-0.00397049
-0.00796591
-0.0039855
0.0102799
0.00460497
0.00820404
0.0104844
0.012436
0.00800074
0.00312764
-0.0037578
-0.00661285
-0.0205813
-0.00904691
-0.0029485
-0.00476329
-0.0127252
-0.00733879
0.00387331
-0.00274473
-0.00348867
0.000944758
0.00235366
0.0116995
0.0157663
0.00779579
-0.000511785
-0.00637059
-0.00919708
-0.00301567
-0.00717208
-0.00502693
-0.0151324
-0.0218924
-0.0100725
-0.00677505
-0.00495219
0.0105786
0.00131027
0.00359691
0.00257862
-0.00167768
-0.0127378
-0.00562051
0.00271819
0.00808329
0.00738632
0.00723877
-0.00922069
-0.0214401
-0.0194108
-0.0201476
-0.015705
0.00535109
-0.00203571
-0.00981003
-0.00420576
0.00172536
-0.01482
-0.0099781
0.0171662
0.0166441
0.00897792
0.0106202
0.00202541
-0.0158065
-0.00920466
-0.0122033
-0.00739912
-0.0030692
-0.00628419
-0.00572384
-0.00407435
-0.00616424
-0.00731524
-0.0100668
0.0126917
0.0189042
0.00595837
0.00945951
0.00449981
3.81134e-05
0.00700078
0.00809911
-0.00208949
-0.0107968
-0.00427048
-0.00832129
0.00425658
0.00147989
-0.0027558
-0.0086438
0.0085868
0.0162462
0.00680615
0.00854811
-0.00198907
0.00459223
0.00172764
0.00637162
-0.00044816
-0.0047204
-0.00870708
-0.00449205
0.000504885
-0.00293097
-0.00154554
-0.00964408
0.0054225
-0.00404655
-0.000245806
0.00509971
0.000810931
0.00845159
0.00766732
0.00662194
-0.00047189
0.000990787
0.00541699
0.0117088
-6.02646e-05
0.000543783
0.00129288
0.000103551
0.00647936
-0.00650516
-0.00328091
0.00964303
0.00717209
0.0114846
0.012134
0.000120343
-0.0048967
-0.00547995
0.0107746
0.0191388
0.00354652
0.0112868
0.0102244
-0.00224386
0.00137465
-0.00613911
0.00223032
0.0087284
0.00492835
0.00814963
0.00362924
-0.0090318
-0.0136054
-0.0121254
0.00725865
0.00550443
0.0094299
0.0101894
-0.00074253
-0.00357521
0.00133156
0.00476078
-7.93146e-05
0.0125685
0.00734018
-9.76074e-05
-0.00235628
-0.00725555
-0.0246808
-0.00317347
0.00353844
0.00730561
0.00679704
0.00347597
0.00694469
-0.00681527
0.00493815
0.00738767
0.00772783
0.0200786
0.0113061
-0.0100001
-0.000751705
-0.00614739
-0.0126402
-0.00475364
-0.0095803
-0.00470343
-0.00466131
0.00226235
-0.000225618
-0.00749952
0.0121075
0.00644942
0.0109764
0.0154078
-0.00176556
-0.000526821
0.0025724
-0.0112602
-0.00696973
-0.00611512
-0.000888741
0.00297796
0.00361647
0.00482517
-0.00229007
-0.00275051
0.00807131
0.00559868
0.00673462
0.0114558
-0.00238954
0.00455702
0.00590343
-0.00399288
0.000230933
-0.00352621
-0.00219704
0.00506639
0.0113702
0.012158
0.0115866
0.00379457
0.00330026
0.00806534
0.000515719
0.0039139
-0.0104004
0.00158897
0.00616676
-0.000455551
0.00200866
0.00522711
0.00122289
0.00198862
0.0100444
0.00834518
0.00403072
-0.00479482
0.010024
0.00842983
0.00686806
-0.00529184
-0.00610472
-0.00112047
0.00774038
0.000542544
0.00478502
0.0044499
0.00647016
0.00381086
0.0138995
0.00907028
0.0062893
0.0010345
0.00225896
0.00732416
0.0045554
-0.000681979
-0.010673
-0.00538804
-0.00108992
0.00482393
0.00432979
0.00391257
0.00942374
0.005405
0.012202
0.0061608
-0.00564198
0.00200603
-0.00461834
0.00675794
0.00104802
-0.00486586
-0.00673144
-0.00137681
-0.00208805
0.00243621
0.00539584
0.0215275
0.0160257
0.00562338
0.00549083
0.00425067
-0.00291491
0.00216991
-0.00130125
0.00365547
0.000297553
0.00251325
-0.00164369
0.00582118
0.00648959
0.00528745
0.00921236
0.0139685
0.00877136
0.000840853
0.013406
-0.00516642
-0.00366231
-0.000813352
0.00714524
0.0064369
-0.00155079
0.000934028
0.00492055
0.0063181
0.0034019
0.00342406
0.000993281
0.0077631
0.00823247
0.00481288
0.0120802
0.00746278
0.00785329
-0.00651392
-0.00423299
0.00040334
0.00163162
0.00224629
0.000510503
0.00838451
0.00831504
0.00351233
0.00425477
0.00987252
0.00852375
0.00921303
0.00947801
0.012218
0.000421521
-0.001965
-0.0110176
0.00276136
0.00141903
0.000181691
0.00572512
0.0063329
0.0076574
0.0123399
0.0109781
0.00976604
0.00639584
0.0028879
0.0142895
0.0148633
0.00085956
-0.00926899
-0.0036815
-0.00223717
0.00272458
0.00158072
-0.000653266
0.010545
0.0115996
0.00724106
0.00805754
0.00646172
0.000557663
-0.000123362
0.00197162
-0.00168992
-0.0124572
-0.0085511
-0.00382756
-0.0126977
-0.00397074
-0.00558926
0.0041973
0.00784121
0.005392
-0.00247244
0.000249626
0.00461154
0.00176059
4.8721e-05
0.00114867
0.00119614
-0.0133784
-0.000771746
-0.0117054
-0.00933639
0.00237131
0.000251485
0.0111413
0.00341227
0.00442131
0.00117199
0.00126145
0.00459899
0.00287231
0.00220135
0.00533445
0.00451156
-0.00827005
0.00276863
-0.017394
-0.00989866
0.00165319
-0.00223687
0.010488
0.0145382
0.0154416
0.00521915
-0.00330316
-0.00100136
0.0016713
0.00540437
0.00899176
-0.000710694
0.00250403
0.00373159
-0.0202589
-0.0107293
-0.00483141
-0.00601871
0.0139479
0.0147204
0.00876149
0.00528689
-0.00234267
-0.00294052
0.00588951
0.000396226
-0.00241481
-0.00831354
-5.74898e-06
-0.0079843
-0.0231424
-0.0138149
-0.0096909
-0.00931571
0.00290898
0.00853767
-0.0011587
0.00953358
0.00499072
-0.00678905
-0.00139138
0.00200463
0.000717008
-0.0025257
-0.00979313
-0.012099
-0.0376113
-0.0150958
-0.0118918
-0.0100953
-0.00644611
-0.00702593
-0.0117687
-0.00319575
-0.0122013
-0.0107588
-0.00679266
-0.00464932
0.00491704
0.00251013
-0.0104139
-0.00569419
-0.00805496
-0.00633375
-0.00340496
-0.00169612
0.00538421
0.00251778
-0.00665773
-0.00773833
-0.00585454
-0.0118656
-0.00247857
-0.00827083
-0.0110101
-0.0108335
-0.0180697
-0.00313195
-0.00769375
-0.0001875
-0.012727
-0.00418791
-0.0056575
-0.00963009
-0.0134404
-0.00763813
0.00196709
-0.00909418
-0.00958463
-0.0122025
-0.00449968
-0.00987009
-0.0104303
-0.00994273
-0.00522998
-0.0070469
-0.0084921
0.00263132
-0.00106826
-0.000812132
-0.00213461
-0.00185136
0.00290406
0.00605605
0.00548375
-0.00071369
0.00332864
-0.00126869
-0.0193939
0.000347277
0.00531776
0.00277595
-0.0135705
-0.00408055
0.000287574
-0.00623805
-0.00360656
0.00612374
0.013353
0.0130784
-1.07822e-06
0.00415148
0.000829348
-0.00125608
-0.0121314
0.00197639
-0.00263058
-0.000428132
0.000777228
-0.00116549
-0.00198504
0.00136926
0.0151143
0.00589778
-0.0039762
0.00192293
0.000872482
0.0104205
0.00961603
0.0136916
-0.00141963
0.00246803
-0.00754106
-0.00839617
0.00791139
0.0187142
0.00869847
-0.0063762
-0.00255264
0.00337925
0.0127624
0.0118897
0.00322106
0.00392213
0.0166218
0.0182438
0.0100674
0.0141765
0.00915519
0.00783185
0.0156956
0.0199046
0.00760936
-0.00691364
-0.00950323
0.00907292
0.014033
0.0191655
0.0109851
-0.00354982
1.25044e-05
0.0132693
0.00388772
0.00463665
0.0165181
0.0157761
0.0154511
0.0106933
0.000219493
-0.0162376
-0.0025558
0.0125888
0.0138741
0.0133119
0.0110856
0.00185645
0.00100418
-0.000415685
0.00169936
-0.00136446
0.0106993
0.00861771
0.00598142
0.0126553
0.00632852
0.0033824
0.00526364
-0.00294145
0.00200685
0.0131554
0.0130445
0.00399461
0.00725397
0.00796836
-1.68531e-05
0.00251152
0.0057191
0.00447072
0.00553887
0.00940514
0.00536115
0.0121697
0.00422216
0.00255102
0.012255
0.00741849
0.00383608
-0.000211654
-0.00460134
-0.0106364
-0.00475009
0.00553163
0.0084212
0.00131377
0.00182735
0.00867039
0.00848892
0.0118868
0.015594
0.00640246
0.00388285
0.00515912
0.0126925
0.0082112
0.00178191
-0.00250545
-0.00103492
0.01057
0.00465063
-0.000880155
0.00455854
0.0136933
0.0142606
0.0173372
0.0181102
0.01117
0.0114215
0.00840556
0.00685894
-0.00316619
0.0009885
0.0110161
0.0094676
0.0137958
0.0116623
0.00500491
0.013624
0.0142877
0.0136039
0.0138395
0.00516021
-0.00183726
-0.000208532
-0.00695516
0.0085541
0.0066949
-0.00137564
0.0101703
0.00648497
0.0068294
0.0154476
0.00973928
0.00999457
0.0119787
0.0145001
0.00847636
-0.00263414
0.00416465
-0.0114821
-0.00392805
0.00249862
0.00755874
0.00508981
-0.00236381
0.00938893
0.000165793
0.0150033
0.0107849
0.0141914
0.0083294
0.00567679
-0.00810393
-0.000593325
0.00712897
-0.00507768
-0.00567716
-0.00808288
0.00202456
-0.00568191
-0.0104175
-0.00865185
-0.00595541
0.0118245
0.000642579
0.0078779
0.00868753
-0.000780534
-0.00361239
-0.00111244
0.00197277
-0.00022673
0.00673961
0.00289486
0.00668291
-0.000957406
-0.00419819
-0.00555625
0.00319884
0.00129525
-0.000563661
0.0102468
0.0100364
-0.000392364
0.00193999
0.000629574
0.00240704
0.00454801
0.0128034
0.00610111
0.00206592
-0.000808333
0.00481638
0.00866992
0.00801222
-0.00517093
0.00910903
0.0126166
0.0160812
0.00215803
0.00624465
0.0037604
-0.00164199
0.0080999
0.0148601
0.000184626
-0.00872881
-0.0006499
0.00666176
0.00220986
0.0106885
0.00983996
0.00698396
0.00324085
0.000630333
-0.0039601
0.0076259
0.0173517
0.0105767
0.0133751
0.0152875
0.00281586
0.00531361
0.0117814
0.00624451
0.00659331
0.0171038
0.0133301
-0.00419167
0.00277099
-0.00416447
-0.010104
0.00583325
0.0093773
0.0136828
0.00969777
0.00299924
0.00448339
0.0044475
0.00902647
0.00030241
-0.00205348
0.0126582
0.0132885
0.00218924
0.00367023
0.00268773
-0.000334349
0.0112492
0.00218898
-0.00418738
0.000152449
0.0073619
0.005868
0.000114298
0.00499068
0.00111702
0.00166066
0.00683129
0.0019775
0.00864442
0.00557992
0.00510289
0.00580045
0.00582417
0.00191059
-0.00105861
0.00248001
0.00485641
-0.00107514
0.00173705
0.00758893
0.00315201
0.00414442
0.011834
-0.00709932
0.00172804
0.00596736
0.0079914
0.00114066
-0.00719592
-0.00173484
-0.00810658
-0.010831
4.87248e-07
0.0008796
0.0132966
0.0120127
0.0145598
0.00217187
0.00720929
-0.0078321
-0.00493043
0.00619817
0.0083025
0.00587452
0.00658002
0.00465322
-0.00624506
-0.000868725
-0.000987581
0.00988834
0.00939323
0.0099895
0.00748412
-0.00301347
0.000501054
-0.0158486
-0.00336941
0.000786064
0.0023403
0.00562718
0.00709279
0.0020423
0.00650602
0.00455823
0.00274607
-0.000781562
0.00137113
0.00609772
0.00636421
-0.00104848
-0.00557118
0.00197361
-0.00140848
0.00151175
-0.00453511
-0.0034988
0.00666058
0.00957281
0.00543643
-0.00506279
-0.00604004
-0.0108291
-0.00423557
-0.00969112
-0.0104515
-0.00830516
-0.0150317
0.00464743
-0.000752451
-0.00341441
-0.0107331
-0.0106958
0.0017666
0.00580087
-0.0102777
-0.00751303
-0.00875322
-0.0126861
-0.00861483
-0.0140046
-0.015603
-0.0145535
-0.00658344
0.0022729
-0.0016754
0.00313424
-0.00363352
-0.00802246
-0.00642702
-0.00633489
-0.000705454
-0.00662538
-0.00526241
-0.00624405
0.000324926
-0.00445405
-0.0102617
-0.00384127
0.0151083
-0.00228746
-0.0107083
-0.00324067
-0.00807547
-0.00941633
-0.00328427
0.0037176
0.000613087
-0.00195092
-0.0041552
-0.010564
-0.00642409
-0.00170601
-0.00785932
0.010961
0.02587
-0.0109926
-0.01587
-0.00684383
-0.00567707
-1.05207e-05
0.00465584
0.00346064
0.00867243
0.0108899
0.00487975
0.000184914
-0.00503108
-0.0031103
-0.00309542
0.00117472
0.00742853
-0.0134394
-0.0145121
-0.00299815
-0.00425136
0.00528722
0.00537275
-0.000767685
0.00789318
0.00723988
-0.000866867
-0.00279047
0.00467522
0.0082372
-0.00470912
-0.00317038
-0.00943628
-0.0222606
-0.00416753
-0.0138504
-0.00911898
-0.00802977
-0.00361471
-0.0113661
-0.00344745
-0.0145554
-0.0198372
-0.01252
-0.00527485
0.0100938
0.00485562
-0.00373176
-0.0141407
0.00837175
-0.00922106
-0.0152291
-0.00752626
-0.000198264
0.0198209
-0.00224669
-0.010863
0.00128605
-0.0010127
-0.00224984
0.00882614
-0.00583803
-0.0153939
0.00365707
0.00884146
-0.00724381
-0.00297359
-0.0187207
-0.00841823
-0.00876681
-0.000395734
-0.00549224
-0.0148951
-0.00255173
-0.00206898
-0.00845654
-0.00675909
-0.00805299
-0.0184496
-0.0024213
0.00616875
-0.00325331
-0.00225267
-0.00624729
0.00250882
0.000954979
0.00740466
-0.00141534
0.00205368
0.00940989
0.00587157
0.00770239
0.00165597
-0.00129171
-0.0056259
-0.013701
0.00161016
-0.00153147
-0.00903852
-0.0056388
0.0012603
-0.00251222
0.0050299
0.00017521
0.00845703
0.0141128
0.0184392
0.0035764
0.00417432
0.00186387
-0.00694445
-0.0134235
0.00410613
0.00409376
-0.00572221
0.0046805
0.0143033
0.0113183
0.0277197
0.0198475
0.0108745
-0.000600971
0.00818088
0.00605339
0.00577173
-0.0130081
-0.000770113
-0.00861855
-0.00271331
-0.00310216
0.000809831
0.0125553
0.0266016
0.0295888
0.0278467
0.0133316
-0.00124848
0.00804803
0.00336136
0.0039436
0.00493292
-4.30302e-05
0.0171746
0.0137437
0.0115126
0.00586359
0.0138601
0.00785432
0.0142733
0.00281914
-0.00920572
-0.0153673
-0.00327197
0.00601918
0.014585
0.00757583
0.000571279
-0.000320358
0.00160206
0.00531677
0.00443274
0.0148382
0.00255551
-0.00621024
-0.0148646
-0.0291365
-0.0261611
-0.0108744
0.00763152
0.0206838
0.0104877
0.00378739
-0.0101292
-0.00936892
0.00133205
0.00152044
0.0111817
0.00434987
-0.00156109
-0.0199005
-0.0122343
-0.0139103
-0.0125113
0.00177771
0.00206848
0.00452247
0.00541518
0.00645109
-0.00783225
-0.000714422
0.00410384
0.00114998
-0.0026609
0.0110038
0.00857295
-0.0092581
-0.00145352
-0.00495719
-0.0137415
0.000370154
-0.000361665
-0.00295553
-6.94462e-06
-0.00338559
0.00452422
-0.00597313
-0.00215145
0.00565272
0.00724376
0.0100733
-0.000398274
-0.0102986
-0.00821738
-0.00476867
-0.000873464
0.00701647
0.0121963
0.00707326
-0.000150589
0.00314835
0.0100649
0.00584542
0.0115924
0.0194097
0.0212887
0.00929391
0.00800334
0.00363223
-0.00406598
0.0073754
0.0196361
0.0205429
0.0190559
0.0226752
0.00824951
0.00216246
0.00284221
0.0143132
0.0215276
0.0187479
0.0205925
0.0112868
0.00194893
0.0158788
0.0159202
0.0200827
0.0221006
0.00784259
0.00740078
0.0150521
0.00391124
0.00921814
0.0126084
0.0181035
0.0202699
0.0113782
0.0121036
0.00697545
0.00915856
0.017227
0.0232368
0.0176516
0.0185135
0.0138564
0.0216038
-0.000668182
0.013652
0.0083043
0.00845048
0.0165312
0.00288026
0.0101419
0.0138131
0.0074839
0.0038058
0.0135156
0.00944785
0.00643369
0.00354536
0.0108797
0.0117075
0.00405082
0.00304087
-0.000883209
0.00352823
-0.00200906
-0.0124926
-0.00640766
0.00656937
0.00724778
-0.000370188
-0.00581208
0.00344005
0.00614146
0.000464799
-0.00179186
-0.00665098
0.00106001
-0.000673561
0.00351026
0.00200151
0.000332108
0.00186325
0.000947349
0.0232166
0.00708792
-0.00657489
0.00174555
0.010792
0.00103716
-0.00598063
-0.00284157
-0.00646729
0.0015789
0.0115079
0.00903153
0.0122774
0.00558427
0.0101865
0.0118163
0.0163108
0.00103776
0.00485084
0.0154544
0.00321654
-0.00701788
-0.00411639
0.0105366
0.00834845
0.00534933
0.00870283
0.00483301
0.0115997
0.00981051
0.0115823
0.002035
0.0180818
0.0032016
0.00435034
0.00798624
-0.0083003
-0.00932538
0.00505676
0.0175772
0.0170539
0.00910686
0.00622695
0.00919033
0.0148803
0.0166948
0.0100031
0.0100663
0.0286877
0.00881141
0.00267326
-0.00156811
0.00148802
-0.00446892
0.0152637
0.0260391
0.0154202
0.00496303
0.00350976
0.00715293
0.00937265
0.00512684
0.00676616
0.0118278
0.0284742
0.012069
0.00740796
-0.00269276
-0.00315083
-0.00499377
0.00669349
0.00125304
-0.00838268
-0.00267911
0.00921745
0.0136174
0.00969582
0.00505955
0.00319334
0.00831021
0.0250939
-0.000747939
-0.00494584
0.00395182
-0.00128872
-0.00872789
-0.00684627
-0.00983944
0.00288951
0.000101891
0.0122649
0.00798488
-0.00207228
0.0020179
-0.000115842
-0.00681811
0.00583959
-0.00611211
-0.00854458
0.00735853
0.00858236
-0.00844949
-0.0187691
0.000490026
0.000702655
0.00736418
0.00896487
-0.00252592
0.0104661
0.01291
0.0156848
0.00220344
-0.000723411
0.00800872
0.000664321
0.0102217
0.00292003
5.50993e-05
-0.00954974
0.00378716
0.00192527
0.00971164
0.0042341
0.0114389
0.0184223
0.0169507
0.0140144
-0.0011277
0.00870463
-0.00505245
0.00229905
0.00185037
-0.00174341
-0.0020258
0.00162286
0.00546572
0.0093632
0.011731
0.00580517
0.00657257
0.00459031
0.0109891
0.00500646
-0.00219029
0.000184639
0.00702146
0.0065369
0.00511397
-0.00498033
-0.0052659
0.00370848
0.0176342
0.0162095
-0.00217185
-0.00734503
-0.0114755
-0.00555571
-0.00268045
-0.0109532
-0.00523688
0.00207878
0.0107088
0.00738812
-0.00153851
0.00509401
0.0051289
0.0089424
-0.000143467
-0.00217788
0.00334875
-0.00748748
-0.0122662
-0.00914111
-0.00698322
-0.00903834
-0.00241191
0.00875898
0.0151985
0.00856845
0.0093482
0.00468419
0.00439847
-0.00985332
-0.0101151
0.0010921
-0.00461304
-0.0118385
-0.00235661
0.00384654
-0.00139463
-0.00646482
0.00596201
0.0224237
0.0060358
-0.00170658
0.00698407
0.00638427
0.000904929
-0.00305858
-0.00155117
0.0071632
-0.00779308
-0.0219683
-0.015359
-0.00615229
0.00658845
-0.000477728
0.00793769
0.0177604
0.00950872
-0.00701657
-0.00363885
-0.00188772
-0.00418036
-0.00375898
0.00196222
4.47617e-06
0.00669276
-0.000954635
-0.000846348
-0.0027568
0.00421882
0.00471892
0.00878918
0.0217037
0.00282514
-0.010292
-0.00568661
-0.00255031
-0.000606645
-0.00159966
0.000756895
-8.01595e-05
-0.000184195
0.000432278
-0.00659848
0.00375221
0.00644124
-0.00129481
-0.0046158
0.00189415
-0.00743704
-0.0134812
-0.0105418
-0.012094
-0.0215446
-0.0153904
-0.0167348
-0.0108157
-0.0160015
-0.0211759
-0.0156032
-0.00849583
0.00425956
-5.21372e-05
-0.00120489
0.00102165
-0.000168335
-0.00882611
-0.0182264
-0.0213864
-0.0140841
-0.0104852
-0.0162553
-0.0229964
-0.0205202
-0.0168377
-0.0121757
-0.00404146
0.000518282
0.00101042
0.00691902
0.0151962
0.0182586
0.0259713
0.00744203
0.00798743
0.000435092
-0.00534889
-0.00566241
-0.00973621
-0.00259462
-0.000437675
-0.000394729
0.00588747
0.0135716
0.0189578
0.0281183
0.0353482
0.0191683
0.0197992
0.0068516
0.00439286
0.00385407
0.0139531
-0.00196391
0.00243258
0.0129765
0.0124948
0.0140997
0.00913571
0.0128619
0.0185837
0.0191133
0.0246727
0.0238806
0.0173676
0.014447
0.00459567
-0.00296287
0.00722184
0.00692801
0.0061295
0.0122676
0.0189009
0.0171168
0.0107464
0.00985362
0.00405573
0.00995454
0.032991
0.0244163
0.0110177
0.00552807
0.0228037
0.0204005
0.0260268
0.0167198
0.0129387
0.00442733
0.00530115
0.00633029
0.0007641
0.00335547
-0.00025504
0.0183223
0.0194533
0.0335012
0.0147809
0.00141813
0.0213011
0.0276402
0.0338331
0.0178514
-0.000609672
-0.0019414
0.000514517
-0.017528
-0.00666509
0.00363752
0.0152601
0.0165509
0.0337236
0.01832
0.00769723
0.00624033
-0.00112985
-0.00557338
-0.00268136
-0.00855672
-0.00553671
-0.00874005
-0.0030089
-0.015461
-0.00887269
0.00366624
0.000187311
0.00624186
0.0291919
0.00976039
0.00104938
-0.00892238
-0.0177084
-0.0231663
-0.0294168
-0.020012
-0.0060836
-0.00495021
-0.00647589
0.000341276
-0.0107504
-0.00502703
0.00750081
0.0190834
0.0374794
0.0179269
0.00735101
-0.0163561
-0.0174922
-0.0169621
-0.0200431
0.00145828
-0.00166592
-0.00458131
-0.0106061
-0.0136409
-0.0228484
-0.006608
0.00252369
0.0137273
0.0335971
0.0362677
0.0220339
-0.00742343
-0.0250623
-0.0254321
-0.0220004
-0.0129161
-0.0152272
-0.0170576
-0.0170235
-0.0261514
-0.0270672
-0.0191165
0.00696201
0.016891
0.0275856
0.0411835
0.0297858
0.0147459
-0.0072698
-0.00638444
-0.0049749
0.00419952
-0.00163193
-0.0108564
-0.00713165
-0.00730142
-0.00865028
0.00555275
0.0204776
0.0264934
0.0385997
0.0124596
0.0121765
0.00445345
-0.00557311
0.00200457
-0.00300767
0.014865
0.0149829
0.00647503
0.00050082
-0.00556148
-0.00382658
0.00254914
0.0101368
0.0168717
0.0209601
0.025857
0.0108196
0.0192056
0.00904894
0.00904566
0.0166233
0.0130751
0.0102379
0.0140504
0.00340611
0.00554168
0.00177565
0.00951082
0.000173419
0.00338553
0.0173095
0.0347188
0.0295071
0.0175077
0.00910822
0.00194345
0.00631616
0.0065127
0.0153472
-0.000975052
0.00237591
0.00314843
0.000327502
-0.00207193
0.00786887
0.0103741
0.0316783
0.0323502
0.0240105
0.0169568
0.00754862
-0.001384
0.00597641
0.0127152
0.0134478
0.0185795
0.0094558
0.00678832
0.00246674
0.0045396
0.00452209
0.0136479
0.0304819
0.0142074
0.00201941
-0.0108438
-0.00369345
-0.00282665
-0.000827547
0.000972234
-0.00145739
0.00905463
-0.000301591
0.00705442
0.0123511
0.0085562
0.0123358
0.0226827
0.0383858
0.0330036
0.003425
-0.0075331
0.00108891
-0.00224596
-0.00354172
-0.00430314
-0.00346644
0.00329205
-0.000496435
0.00421583
0.00991762
-0.00147278
0.00653137
0.0245945
0.0342826
0.0256443
0.000440292
-0.00312014
-0.0135269
-0.0161854
-0.0147726
-0.0111897
-0.00792061
0.00115085
-0.00141225
-0.00237376
0.00359896
0.00368745
-0.00224958
0.00915534
0.0327726
0.0204914
-0.00556743
-0.00744065
-0.0133206
-0.0122851
-0.0117459
-0.0117734
-0.0109001
-0.00117942
0.000686247
0.00648951
0.00913308
0.00254908
0.00274489
0.0162982
0.0333892
0.0156432
-0.00369433
-0.00911691
0.00122216
-0.0088848
-0.00291212
0.0129263
-0.00109643
0.000676412
-0.00210381
0.00806766
0.0135085
0.00595484
0.00485222
0.0257445
0.0354486
0.0220789
0.00934232
0.00173111
-0.00701023
-0.0122074
-0.02244
-0.0025151
-0.0102341
-0.0139905
-0.0115938
0.00474689
0.00847984
0.00194023
-0.00337763
0.0212504
0.0386199
0.0264402
0.0136123
0.0105143
-0.000767906
-0.00999415
-0.0134838
-0.0171568
-0.0120064
-0.0108791
-0.00496134
-0.00838704
-0.00922058
-0.00206813
0.0108039
0.012272
0.0290593
0.0282681
0.0195781
0.0138413
0.00228502
-0.0068256
-0.00358055
-0.00367024
-0.00750422
-0.00428407
0.000193069
-0.0144081
-0.00336402
-0.0024708
0.0043586
0.0149369
0.0198324
0.0363066
0.01636
0.00672574
0.00574521
-0.000874928
-0.00535684
-0.00729136
-0.00844623
0.00537737
0.010037
0.00854431
0.0067694
0.00852718
0.00934865
0.0172709
0.0246951
0.0230988
0.0140139
-0.00194656
-0.00121406
-0.0167426
-0.0118304
-0.00925983
-0.0131381
-0.00670807
0.000502972
-0.00504159
-0.0064173
-0.00148892
0.00173664
0.0135552
0.0211763
0.0254866
0.0213557
0.00317416
-0.00766592
-0.011444
-0.0228517
-0.00760709
-0.00786422
-0.0111436
-0.0141223
-0.0175542
-0.00863015
-0.00963787
-0.00745863
-0.000351454
0.0154359
0.0228982
0.0225487
-0.00594992
-0.00154793
0.00526462
-0.00644741
-0.00164161
-0.00252352
-0.000209856
-0.00924764
-0.00759552
-0.00839075
0.000802619
0.00440128
0.0144245
0.0220733
0.0273262
0.0213631
0.0103682
0.0023438
-0.00573041
-0.0173556
-0.00555296
0.00218662
-0.0101655
-0.0173624
-0.0177269
-0.0111058
-0.00691636
-0.00818041
0.00570273
0.0242436
0.0269264
0.0169868
0.000720199
0.00594762
0.00225328
0.00032453
-0.00406966
-0.0019213
-0.00828492
-0.0207622
-0.00726198
-0.00216091
-0.00549585
-0.000473959
0.00789019
0.0249644
0.036455
0.0134822
0.00945765
0.00919286
0.0124307
0.00442047
0.00266987
-0.00386063
0.00438202
-0.00123859
0.00864401
0.0164048
0.0122481
0.0117893
0.00837417
0.0271874
0.0266349
0.01366
0.0134484
0.0125177
0.0140501
0.00920733
0.0122052
0.0025814
-0.00172888
0.00582501
0.0108805
0.010217
0.0116398
0.0150856
0.0150101
0.0213115
0.0282079
0.0169846
0.0070625
0.00135578
-0.00201665
0.00545869
0.0142612
0.00790919
0.00780969
0.00607079
0.0123372
0.0121001
0.0227569
0.0217635
0.0266203
0.030774
-0.02287
-0.0175628
-0.0194249
-0.0099383
-0.00903094
-0.00561876
-0.00519839
-0.0163478
-0.0162996
-0.012948
-0.00845313
-0.00177527
0.00421661
0.00453545
-0.0016618
-0.0139552
-0.00238251
0.0149565
0.00894228
0.0128362
0.011732
0.00480233
-0.00665245
-0.00580675
-0.0107228
-0.00812279
-0.0064717
0.00280563
0.0189533
0.0142372
0.0163586
-0.00160823
-0.00816909
0.0095305
0.00312006
0.00108306
-0.00221995
0.00217478
-0.00727581
-0.00343931
-0.0142017
-0.0122145
-0.00158022
-0.00382841
0.00197251
0.014065
0.0173191
-0.0104201
-0.000337851
0.0147615
0.0100876
0.00194607
-0.0152382
-0.0105405
-0.0138735
-0.00766562
-0.00701024
-0.00364271
0.00413398
0.000797434
-0.00112438
-0.00282968
0.000232731
-0.0102834
0.00150323
0.0081386
0.00227144
0.00265454
-0.00140154
-0.00266761
-0.0169895
-0.00993271
-0.00181957
-0.0047028
0.00496721
-0.00359342
-0.00382969
2.82486e-05
3.69621e-05
-0.0154445
-0.00567436
0.00285284
-0.00401845
-0.000360986
-0.00234068
0.00217852
-0.00919655
-0.0216086
-0.00244055
0.00663084
0.0125642
0.00540147
0.00391714
-0.00197276
0.00665519
-0.000840079
-0.02253
-0.0123772
-0.0178959
-0.0316117
-0.0232279
-0.0238131
-0.0259249
-0.0183812
-0.00955452
-0.0129661
-0.0190996
-0.0248168
-0.0147229
-0.0126259
-0.00237452
-0.0120907
-0.0210402
-0.0155634
-0.0237791
-0.0338607
-0.033336
-0.0280863
-0.0233389
-0.0211586
-0.0130256
-0.0209583
-0.0192042
-0.024061
-0.0164245
0.00212072
0.00315281
-0.00907644
-0.016639
-0.0105604
-0.0184656
-0.0250292
-0.0282812
-0.0188262
-0.0126718
-0.0104972
-0.0100298
-0.0140151
-0.010584
-0.0149339
-0.0113899
0.000298454
0.00923706
-0.00494456
-0.00896576
-0.00742487
-0.0155464
-0.0199062
-0.0313364
-0.0259348
-0.0229931
-0.0180553
-0.0113419
-0.0184877
-0.018707
-0.0198272
-0.0222493
-0.00999057
0.00530378
-0.00637947
-0.00395713
-0.0019905
-0.00270007
-0.00265575
0.00251207
-0.00232924
-0.0154
-0.00718152
-0.00820001
-0.0123864
-0.0178677
-0.0156227
0.00254741
0.000822177
0.00816972
-0.00394024
-0.0264307
-0.0180916
-0.00761432
-0.00797051
-0.00307962
-0.00901028
-0.00450674
0.00195588
-0.00423
-0.00453627
-0.0161828
-0.013779
-0.0140861
-0.0121375
-0.00611396
-0.0185897
-0.027319
-0.00510483
-0.00164133
0.000963824
0.0036778
0.00220135
0.00410663
-0.00210806
0.00217413
0.00208698
-0.0026375
-0.00852873
-0.0174682
-0.0124066
-0.000231296
-0.008053
-0.00984289
-0.00426541
-0.010333
-0.00293033
0.00302676
-0.00332272
-0.00196092
0.00295129
-0.00118641
-0.00242073
0.00159415
-0.0125858
-0.0128787
-0.0111561
-0.002298
-0.0124703
-0.00897992
-0.0067898
-0.0185162
-0.00605715
-0.00839755
-0.00620165
-0.00508585
0.000126988
0.0178188
0.00698186
0.0013067
0.00273563
0.00264018
-0.00308908
-0.0022575
-0.00814499
-0.0168927
-0.00944319
-0.014196
-0.00654149
-0.0106076
-0.0036622
-0.00475565
0.00708398
0.0194456
0.00729347
0.00427742
0.00274236
-0.00492935
-0.0041666
0.0037268
0.00129393
-0.0192811
-0.0230054
-0.0220532
-0.00559755
0.00409642
0.00551383
-0.00111142
-0.00208684
0.000185437
-0.00573786
-0.00178581
-0.00726264
-0.0126883
-0.0114297
0.00139456
-0.00165437
-0.0114432
-0.0105105
-0.01499
-0.0115708
-0.00720502
-0.0125248
-0.0091506
-0.00351485
-0.000581386
-0.0104178
-0.0200441
-0.0258544
-0.0165886
-0.0156816
-0.0123395
-0.0148157
-0.00498552
0.00052143
-0.00757813
-0.0113738
-0.0155017
-0.0113386
-0.00389254
-0.00734942
-0.00445794
-0.0148877
-0.0164917
-0.0177263
-0.0132073
-0.0102956
0.00169964
-0.00133651
-0.0156713
-0.0113348
-0.0189087
-0.0194117
-0.0209051
-0.0157636
-0.0146383
-0.0187191
-0.0143175
-0.0187934
-0.0111786
-0.0102739
-0.0115587
-0.00852703
0.00932218
-0.00790232
-0.0216272
-0.00907948
-0.0141042
-0.0288979
-0.0316695
-0.022209
-0.0175093
-0.021418
-0.0161476
-0.0168753
-0.014077
-0.0104996
-0.0029726
-0.00765856
0.0111179
0.000552352
-0.0103815
-0.00177203
-0.0088612
-0.0172271
-0.0235951
-0.0132884
-0.017478
-0.0158927
-0.0138968
-0.0164791
-0.0118819
-0.0103692
0.000138569
0.0145969
0.0209004
-0.00181224
-0.0123198
0.00118387
0.00101257
-0.00973319
-0.0113493
-0.0030701
-0.00764507
-0.0198177
-0.0164662
-0.0167617
-0.0134499
-0.00726699
0.00257444
0.00939138
0.0112074
0.00266293
0.000549071
0.00679015
0.0081227
-0.00233423
-0.000493703
-0.00289248
-0.00474554
-0.00290704
-0.00344534
0.00564258
0.000405381
-0.00592957
0.00388938
0.00521766
0.0202945
0.0135906
-0.00658499
-0.00196112
-0.00609968
-0.00880366
-0.0117773
-0.00839648
-0.0121168
-0.0086567
-0.0102731
-0.0115426
-0.00790294
-0.00878136
-0.0074752
-0.00238875
0.0123661
0.00374912
0.00607553
0.000492623
-0.0184412
-0.0173275
-0.0164626
-0.0134915
-0.020093
-0.00896373
-0.00860843
-0.00640308
-0.0140938
-0.0114933
-0.009735
-0.00195296
0.00925343
0.0010696
0.00996705
0.0123875
-0.0138161
-0.0180282
-0.0212045
-0.0164075
-0.0128864
-0.000831845
-0.00867776
-0.00701235
-0.0125475
-0.00413744
-0.00385843
0.0104198
0.0242456
0.0180571
0.0089918
0.0138007
0.00285865
-0.00844793
-0.00722841
-0.0113387
-0.0138652
-0.00468173
-0.0135427
-0.0150881
-0.0111049
-0.00614302
0.00170145
0.00137124
0.0113757
0.0134929
0.012073
0.0168435
0.00604001
0.000937789
-0.00238465
1.87587e-05
-0.00142477
-0.00336486
-0.000877749
-0.00422816
-0.0032268
-0.00441073
-0.00582561
0.00652852
0.0161672
0.0117468
0.0167044
0.011825
0.00140889
0.00238406
0.00782191
0.0124893
0.00931259
0.000663898
0.00454482
0.00860028
0.00692015
0.00728696
0.0161286
0.0145592
0.0160718
0.0142478
0.0211479
0.0167258
0.0166221
0.0260138
0.021975
0.018679
0.0210633
0.0147644
0.00705844
0.0110597
0.0124547
0.0124456
0.0259913
0.0284267
0.0318232
0.0236416
0.0345633
0.0363404
0.0326926
0.026367
0.0258576
0.0280275
0.0217228
0.0226094
0.0153087
0.0117903
0.0165885
0.0231502
0.0213608
0.0213525
0.0349543
0.0290059
0.0159618
-0.00915435
-0.0227361
0.00531425
0.00770971
0.0018032
0.00031213
0.00217779
-0.00570225
-0.00156565
0.00365764
0.0153116
0.0105767
0.0121584
0.0183666
0.00954747
0.00232725
-0.0097558
-0.0027703
0.00269849
0.00433149
-0.00514357
-0.00216772
0.00450452
-0.00290017
-0.00393457
-0.00547074
0.00395493
0.0121576
0.00399756
0.0116976
0.0148707
0.0140151
0.00212809
-0.00278423
0.00332747
0.0183785
0.0112663
0.0162518
0.0139972
0.00899884
0.00396202
0.00420952
0.00200138
0.00862784
0.0114398
0.0121797
0.0185883
0.0157515
0.00572255
0.0109431
0.0117888
0.0160069
0.0115006
0.00853672
0.0167035
0.0152512
0.00925346
0.013802
0.00545652
0.0089116
0.0169671
0.0122818
0.0243128
0.0155788
0.00923413
-0.00132203
0.00193737
0.0126424
0.0142425
0.00468182
0.0103564
0.0172177
0.0189221
0.0293188
0.0117986
0.0160226
0.00940327
0.00145497
0.00275442
0.0154654
0.0123568
0.00791665
0.0110642
0.00848809
0.0109068
0.0191398
0.0214345
0.0238911
0.026315
0.0442724
0.0298131
0.0262126
0.0169176
0.0156114
0.00810957
0.0136649
0.00692588
-0.00220337
-0.00821843
-0.00675048
0.00921358
0.0125086
0.0155369
0.00930906
-0.000996723
0.00896171
0.00915057
0.00780994
0.00366754
0.00404615
0.00434848
0.0133256
-0.0012321
-0.00129678
-0.000964382
-0.00617916
0.0052718
0.00762466
0.00390422
0.0122477
-0.00656821
-0.0129494
-0.012919
-0.020447
-0.0124642
-0.00902236
0.00262944
-0.00494844
-0.018619
0.00502107
0.00556057
0.00944681
0.0223246
0.00861386
0.00120554
0.0129812
0.00302337
-0.00212012
0.00687243
-0.0124274
-0.0129049
-0.00886733
-0.000233209
0.0142211
-0.00302132
0.00400414
0.000917023
0.000198141
0.0095395
0.00336265
0.00247676
0.0106277
0.00497839
0.00781893
-0.00537336
-0.0105434
-0.0106712
-0.0187162
-0.00295426
0.0255866
0.00701676
-0.000884385
-0.00887033
0.00121465
0.00620941
-0.00457597
0.00850502
0.00291311
0.00574629
-0.00286653
-0.00215749
0.000814903
0.00157272
-0.00538393
0.0122062
0.0195123
0.00351576
0.00204296
-0.0018023
-0.0116903
0.00101643
0.00828255
0.00864867
0.0005965
0.0112845
0.0163615
0.0157284
0.00749828
0.00150629
0.000237237
0.00453603
0.00634309
0.0169636
0.00728406
-0.000267417
-3.70459e-05
0.00537228
0.0113298
0.0126121
0.00959526
0.0124405
0.0140083
0.00614857
0.0147751
0.00877201
0.00217544
0.0152412
0.00604637
0.018253
-0.00311374
0.0024323
0.00414332
0.0117973
0.0110765
0.0126343
0.0117296
0.00463165
0.0096209
0.00609553
0.00433205
-0.000833218
0.00477626
0.0179205
0.013081
0.00720818
0.00614007
0.00402647
0.00827704
0.00702351
0.0057787
0.00113672
0.01207
0.0120401
0.0126285
0.00934871
0.0110618
0.00491676
0.0041235
0.0214646
0.0133692
0.0148483
0.0023513
0.00523552
-0.00211796
0.00108513
0.00288445
0.0123036
0.0124555
0.00649857
0.0152167
0.00639939
0.0129023
0.00899167
0.00608297
0.0170242
0.011883
0.0128888
0.00869593
0.00655607
0.00969681
0.00632595
-0.00388286
-0.00677107
0.000863633
-0.00487895
0.0115524
0.0058592
0.00954403
-0.00227108
0.00235074
0.0054445
0.0151672
0.015578
0.00390337
0.00665363
0.0170538
0.0210613
0.00209395
0.0024603
0.000115793
0.000833624
0.000177595
0.00176526
0.00775861
0.00484727
-0.00572755
0.00132442
0.0161382
0.0224141
0.00509032
0.00314427
0.00391172
0.0194505
0.0108166
0.000284245
0.0134863
0.00458157
0.00414169
-0.00235656
-0.00434395
-0.000314945
-0.00295937
0.00468579
0.00239007
-0.00251891
0.00737046
8.17684e-05
0.00883123
0.0189877
0.0141539
0.00320158
0.00820319
0.0128077
0.0106284
0.00532692
-0.00201268
-0.00678957
0.00429877
0.00421464
0.00458793
0.00939802
0.00621014
0.00282876
-0.00464548
-0.00169085
0.0114028
0.0170576
0.0163057
0.0182267
0.00631098
-0.000277209
-0.0025167
-0.00347571
0.0105172
0.00297827
0.0209091
0.0105544
-0.00178874
0.00329937
0.00910025
0.00277598
0.00236738
0.0117758
0.0222771
0.021181
0.00926403
0.0125983
0.00667629
0.00991345
0.0193348
0.0091525
0.016255
0.00538353
0.00560323
0.00405829
0.015533
0.0161579
0.0118325
0.0105019
0.0194437
0.0173943
0.0224477
0.0126047
0.0149927
0.0113515
0.00539735
0.0142037
0.0257858
0.00671699
0.0114863
-8.67071e-05
0.0138331
0.0136191
0.00998016
0.00702305
0.0186272
0.0242451
0.020275
0.0151425
0.0120735
0.00282188
0.00492458
0.0139383
0.0167144
-0.0050359
0.000499718
-0.00383076
0.0010611
-0.000291098
-0.000899905
-0.00199651
0.0100265
0.0196721
0.00179249
0.0114098
-0.00566601
-0.00579321
-0.0129454
-0.00073577
0.0262985
-0.00226337
-0.0126833
-0.00184896
0.00270932
-0.00257396
0.00120731
-0.00363465
0.00393303
0.0169933
0.0121987
0.00262186
-0.00462728
-0.00637046
-0.01333
-0.00688752
0.0198955
0.00852059
-0.00343365
-0.0123761
-0.00568664
-0.00468694
-0.0012752
0.00161512
0.00530365
0.0163415
0.0241402
0.00914931
0.00109
0.00396715
0.0132023
0.0127567
0.0111864
0.00220871
0.0102582
-0.00161674
-0.00369422
-0.00662629
-0.0130066
-0.0142132
-0.00643406
-0.00120301
0.00853328
0.00499085
0.0144474
0.00852905
-0.00150221
0.0137404
0.00278863
0.0171565
0.012172
-0.000763888
0.0127678
0.000819615
-0.000142714
-0.00283842
0.00223745
0.00117458
-0.00173801
-0.00878196
-0.00463856
0.0063126
0.0100207
0.0117079
-0.00619478
0.0011127
-0.00119006
-0.0129329
-0.00399636
0.00786428
-0.000474574
0.00529637
-0.00165158
0.00269509
-0.00471088
-0.0124148
-0.0054587
0.00208671
-0.00529988
0.00314216
0.0112943
0.012639
0.00680815
0.00360589
0.00155387
0.00691137
0.00637528
-0.00167738
0.00711398
0.00394717
-0.0049033
-0.0108221
-0.00566039
0.00349001
0.00745064
0.00984554
0.00755903
0.0024257
0.0130248
0.00514709
0.0027713
-0.0148307
-0.0146259
-0.00928008
0.000796512
-0.00143338
0.00195561
-0.00574407
-0.00855272
-0.00546849
0.0062248
0.00791669
0.00749906
-0.00564583
-0.0155704
0.000616773
-0.00828027
-0.0106883
-0.00744913
0.00119739
-0.0153293
-0.00539516
-0.00708123
-0.00276843
-0.0036778
0.00343978
0.000765922
-0.0131734
0.00667939
-0.0112733
-0.00704492
-5.81955e-05
-0.00676335
-0.0081372
-0.0025416
-0.00151004
-0.00816437
0.00104417
-0.00390505
-0.00709747
-0.00473395
-0.0030008
-0.000621449
0.000462011
0.00165303
-0.0153502
-0.00921394
0.00340952
0.00616654
0.00149461
0.00740172
0.0101236
0.00228879
-0.00123823
-0.00252743
-0.00915614
-0.00987681
-0.00727659
-0.00491416
0.00338725
0.00322726
-0.0138327
-0.00590352
0.0135488
0.014501
-0.00119877
-0.00258024
0.0106059
0.00483662
0.00587817
0.0086402
-0.00474855
-0.00134218
0.00531589
-0.00452806
-0.00332795
0.00894926
-0.0105727
0.00376932
0.000695353
0.00643195
0.00598041
0.0037752
-0.000732942
0.00167989
0.00687098
0.0106406
-0.00296525
-0.00830136
0.00507907
0.000505894
-0.00838313
0.00654943
0.00977505
0.00963643
-0.0080821
0.00124709
0.00454093
0.00875048
0.0063492
0.00178038
-0.000533616
0.0200909
0.0125175
0.0102307
0.00310115
0.0140366
0.00657443
0.0136213
0.00796591
-3.29432e-05
-0.0135928
-0.013472
0.00302679
0.010613
0.0102094
-0.0021549
-0.00559369
0.0059486
0.00581343
0.0164184
0.0130205
0.0166716
0.00935538
0.0011498
0.00114068
0.00287354
-0.000729027
0.000468597
0.00478728
0.00433865
0.00806557
0.00366857
-0.0116476
-0.0117843
0.0039302
0.0111335
0.00923428
0.00381386
0.00836265
-0.0175114
-0.014317
-0.00206834
-0.0037198
0.0120329
0.00744562
-0.00469478
-0.00209821
0.00598589
0.000244958
0.000833818
0.0132339
-2.87451e-05
-0.00456702
0.00220856
0.0139696
-0.00252931
-0.00777362
-0.0023966
-0.00392406
0.00592532
-0.000467105
-0.00153166
-0.0117683
0.0010551
0.000857565
0.00523602
0.00404726
-0.00182868
-0.0063848
-0.0131763
0.00197875
0.000879961
-0.0077327
-0.00664602
-0.00954036
-0.00674229
0.00229141
-0.00527757
-0.00583582
-0.00737637
0.00321298
-0.000744688
0.00468261
0.00399653
-0.00134136
-0.00923494
-0.00156881
0.00518572
-0.00516781
-0.000852116
-0.00548434
-0.0102354
-0.00257139
-0.00318344
-0.00239969
-0.00769605
0.0035623
0.00627506
0.00502858
0.00296049
-0.000679686
-0.00371461
0.00179537
-0.00418487
0.00439666
0.00883891
-0.00520112
-0.00447915
0.00107047
0.00157677
0.00520707
0.00177628
0.00402206
0.00620242
0.00675433
0.00931639
0.00743518
-0.00416694
0.00533304
-0.00384623
0.000895549
-0.00227504
-0.00373135
-0.00601526
0.00541527
0.00506729
0.00558587
0.00333533
-0.000912008
0.000128458
0.00401774
0.0111174
0.000356967
-0.00443174
-0.000685642
-0.000799137
-0.00640083
-0.00104985
-0.00448404
0.00162056
-0.00278885
-0.00562302
-0.00381258
-0.00309316
-0.00547292
-0.00466279
-0.00186723
-0.00420956
-0.00230595
-0.0105112
-0.00441714
-0.000648769
2.70635e-05
0.00155145
0.00449597
0.0032366
-0.0122598
-0.0054419
-0.000828139
-0.0098842
-0.0133295
-0.00498187
-0.000587396
-0.00451598
0.00523772
0.00557774
0.00514711
-0.000656112
8.7948e-05
-0.00487088
0.00324765
0.00753009
-0.00506764
-0.00613286
-0.0132358
-0.014312
-0.00011749
-0.00108262
0.0070492
0.00430215
-0.00259886
0.00710446
0.0117366
0.00858561
9.87085e-05
-0.005891
0.00111728
0.00962659
0.00136402
0.00789615
-0.00570582
-0.0127224
-0.00285105
0.00250197
-0.00421885
-0.00424933
-0.00365188
-0.00415435
0.00681769
0.00109364
0.0104628
-0.000835357
0.00493136
0.00507495
0.0117458
0.000935412
0.0038119
0.00600131
-0.000293727
-0.00313277
-0.0037584
-0.00271253
0.00391211
0.00564564
0.00565397
-0.00537619
-0.00853008
-0.00559295
-0.00647893
0.00450631
0.00681128
-0.00273488
0.00445599
0.0111395
0.00633489
-0.00465881
-0.0105666
-0.0023574
-0.0038644
-0.00372775
-0.00699555
-0.00234555
-0.003779
-0.00416634
-0.00193849
0.00202685
-0.000761029
-0.000364226
0.00621823
0.0116784
0.00902225
-0.00509038
-0.00905596
-0.0096449
-0.0100456
0.00150898
-0.00165011
0.00100181
-0.00491063
-0.00522758
0.00287443
0.0111629
-0.00500274
-0.00463578
0.00865098
0.0172364
0.00940508
0.0100095
0.000824562
-0.0107713
-0.00791328
0.0013445
0.00637803
-0.00813175
-0.00899606
-0.00164191
-0.00147983
-0.00650026
-0.00762154
-0.00532331
0.0035465
0.0179335
0.00810253
0.0121493
0.00550897
0.00205521
0.0132499
0.0172272
0.0105613
0.0019673
0.00278135
0.00542454
-0.00426026
-0.00366981
0.00644879
0.000850275
0.00355217
0.00901439
0.00943381
0.00986749
0.0167833
0.00905789
0.00930131
0.0153377
0.0157832
-0.00430805
-0.00278417
-0.00442495
-0.00466761
-0.00264802
0.00167691
-0.00338072
-0.00435869
-0.00205522
0.00569597
0.00639198
0.00640165
-0.0060138
-0.00272393
-0.000343344
-0.00347231
-0.00357828
-0.0191595
-0.00300351
-0.00134753
-0.00197432
0.00137118
-0.00592478
-0.00686527
-0.0111294
-0.00738542
0.00499312
-0.00430982
-0.00639961
-0.00463808
-0.010153
-0.00987041
0.00451433
-0.0160554
0.00339508
0.00156734
-0.00185752
-0.00535739
-0.00603896
-0.0023196
-0.00854444
0.00662852
0.00914356
0.00722787
-0.00313763
-0.00127091
-0.00665238
-0.00525983
0.00369955
-0.00649593
-0.00598457
-0.00110254
0.00583386
-0.00365977
-0.0123046
-0.0164347
-0.00590837
0.00270583
-0.00048968
0.00516856
0.00796612
-0.00220917
-0.00551061
-0.00014621
-0.00390666
-0.00433675
-0.00594991
-0.00380657
0.0121158
0.0109621
-0.00179544
-0.0119162
-0.00183358
0.00562794
-0.0011122
-0.00182781
-0.00191921
-0.00209557
0.00622224
0.00467286
-0.00630955
-0.0110829
-0.00521
-0.00362343
0.00829566
0.010159
-0.000559927
0.000966532
-0.00501551
0.003549
-0.000874428
-0.00644064
-0.0119838
-0.017815
-0.0176537
-0.00570974
-0.00446048
-0.00585453
-0.0130466
-0.00653435
-0.00528616
0.00155672
0.00532958
-0.000478894
0.00107381
0.00024547
0.000222359
-0.00467215
-0.011712
-0.00062865
-0.00804882
-0.015721
-0.0151775
-0.00306701
0.00170893
0.00211763
-0.00284725
-0.0201696
-0.0113405
0.00238033
0.00807423
-0.000393471
-0.00286409
-0.00840287
-0.0115649
0.0024659
0.00347566
-0.0104023
-0.000324535
0.00251557
-0.00288353
0.00501121
0.0027578
-0.0163737
-0.0179372
0.000620801
-0.00813907
0.00221504
0.000513122
-0.00239898
-0.0186744
-0.00997806
-0.00304811
-0.0176519
-0.00346417
-0.0125437
-0.00299157
0.00565883
0.00385767
-0.0153957
-0.0057932
-0.0123463
-0.0123789
-0.00196089
-0.00447112
-0.00447839
-0.0127576
-0.00305758
-0.00111121
-0.0137411
-0.0089638
-0.0147276
-0.0142407
0.000123029
0.0102233
-0.0014145
0.00565379
0.00693061
-0.0078633
-0.00703157
-0.00409282
-0.0181046
-0.0211246
-0.0118554
-0.00688335
-0.00747413
-0.00978955
-0.0141333
-0.00537208
0.002855
0.00814646
0.00139059
0.00594542
0.0125556
0.00782871
-0.000282763
0.00367854
-0.00954334
-0.0195783
-0.00299815
-0.0143563
-0.00785113
-0.0115313
-0.00822533
-0.00577404
-0.00476577
-0.00272355
0.00300705
0.00192823
0.00346019
0.000241176
-0.00723291
-0.00937536
-0.00783349
-0.0288304
-0.00420629
-0.00485024
-0.00792646
0.00173147
-0.00151782
-0.00517178
-0.01686
-0.00494312
0.00182162
0.00109072
-0.00966744
-0.0118017
-0.0182871
-0.0140521
-0.0121348
-0.0331937
-0.0223126
0.000713365
0.00233792
-0.00446016
-0.00470856
-0.0121552
-0.0218837
-0.0153838
-0.00382039
0.00656757
-0.00856435
-0.023347
-0.0287143
-0.00984921
-0.00304159
-0.00946189
0.000229673
0.00699246
0.00173305
-0.00842157
-0.00785641
-0.0159617
-0.0115873
-0.0102575
-0.0115994
-0.0101847
-0.00465581
-0.0171075
-0.0218318
-0.00860423
0.0070818
-0.000633839
0.00392894
-0.000996358
-0.00294659
-0.00288559
-0.00925469
-0.00734053
-0.0167884
-0.00265351
-0.00759337
-0.0129406
-0.0057358
-0.0112711
-0.0157719
-0.00992273
0.00695526
-0.00358095
-0.00256483
0.000266045
0.00428097
-0.00225492
-0.00194164
0.000309181
-0.0131976
0.00247483
-0.00197607
-0.00346864
-0.0149936
-0.00329383
-0.00536699
-0.00587062
0.00360765
0.00144795
-0.0109159
-0.01028
0.000182308
0.00489206
0.00379616
-0.00218952
-0.00686133
-0.00855658
0.0011517
-3.5116e-05
-0.00931215
-0.00366694
0.00258283
-0.00184605
0.00304588
0.00257832
-0.00358438
-0.00937986
-0.00355892
0.00610622
-0.00543138
-0.00927442
-0.0106115
-0.0197116
-0.00895206
-0.00469127
-0.00769353
-0.00973131
-0.0015996
0.000993405
-0.000626702
0.00896905
-0.000956601
-0.0020279
-0.00494637
-0.00691605
-0.006234
-0.00453107
-0.0167125
-0.0163501
-0.0160041
-0.00980987
-0.00172455
-0.00641227
-0.00204519
0.00508966
0.0025285
0.0137169
0.00369236
-0.00270048
-0.00401082
-0.00800366
-0.0141013
-0.00126217
-0.0071731
-0.0124162
-0.0116068
-0.0145744
-0.00791563
-0.00183218
-0.00183398
-0.00399279
0.0010733
0.0108284
0.00381347
-0.00669518
-0.00311669
-0.00930743
-0.0114926
-0.00285008
-0.00587592
-0.00228601
-0.0148395
-0.0154532
-0.0158912
-0.0117701
-0.00447204
-0.0106591
-0.00963248
0.00372839
0.00949572
-0.00496894
-0.00450115
0.00222256
0.00376845
0.000131341
-0.000793241
0.00259841
-0.0144338
-0.0132047
-0.0127538
-0.0150512
-0.00956735
-0.0081031
-0.00773728
-0.00166987
0.00628483
0.00426039
-0.00272405
-0.00611921
0.00384703
-0.00270377
-0.000451384
0.000598715
-0.0109307
-0.0159296
-0.0102655
-0.0163755
-0.00728072
1.55724e-05
0.00106963
-0.00014983
-0.000956542
0.00374874
0.00098942
-0.00308491
-0.00491527
-0.0038938
-0.00018826
0.00534607
-0.00266991
-0.0109839
-0.00417068
-0.0146915
-0.00482706
0.00355583
-0.0035467
-0.00892125
-0.00361058
0.00220844
-0.00730087
-0.00844019
-0.000580738
0.0038277
0.00885476
0.0046213
0.00932817
0.000518212
0.00372981
-0.00689911
-0.00653347
-0.0098085
-0.00702808
-0.00342979
0.0101026
0.00306738
-0.0181584
-0.0100763
-0.00958664
-0.00852566
-0.00233746
0.00498969
0.00903209
-0.000727099
0.00168967
0.00245212
-0.00938031
-0.00856337
-0.00709633
-0.00106427
0.00601652
-0.0048371
-0.0199823
-0.00758307
-0.0071133
-0.00559984
-0.00392566
0.00378982
0.000725315
-0.0109872
0.00544541
0.0112628
-0.000799146
-0.00995413
-0.00717668
-0.00327134
-0.000905902
-0.00528709
-0.0228777
-0.00663511
-0.00820459
-0.00468014
0.00479728
0.0122594
0.00267203
-0.00503971
0.00687419
0.00869164
0.00153113
-0.00380887
-0.00809178
-0.00733418
-0.0117176
-0.00862319
-0.0155567
-0.00798161
-0.00456813
-0.00383284
-0.000326991
-0.00841052
0.000260416
-0.00144663
0.00463726
0.00983039
0.00577997
0.00260854
-0.00540875
-0.000848428
-0.00793017
-0.00297988
-0.00896322
0.00246602
0.00602108
0.00260021
-0.0069683
-0.00723918
0.00614918
-0.000411308
-0.000494869
0.00625423
0.00846933
0.00768105
0.00468016
-0.00280456
0.00421484
0.00783882
-0.00248873
-0.00357871
0.000939995
0.00132551
0.00508714
-0.00210508
0.00137599
0.000761758
-0.00180979
0.0024861
0.00819146
0.00441197
0.00214603
-0.00695016
-0.00618459
-0.00126256
-0.00440584
-0.00833537
-0.0073036
-0.00156412
-0.000387673
-0.00490883
-0.000332277
-0.00262616
0.000463829
-0.00237613
0.00293784
0.00701855
-0.000802121
-0.00372601
-0.0177931
-0.0112873
-0.0169772
-0.00786902
0.00177035
0.000968577
-0.000264085
-0.0019721
-0.00159111
-0.000438793
0.00462261
0.0015014
0.0116735
0.0160918
0.00970207
-0.000562768
-0.0189734
-0.015098
-0.024018
-0.00681879
0.00873384
0.00541155
0.00961833
0.011461
0.00361784
-0.00400735
-0.00133584
-0.000449169
0.000611264
0.00900294
0.00870454
-0.00157405
-0.0103275
-0.0105792
-0.0233
-0.0113473
-0.000311374
0.00381405
0.00480489
0.0121323
0.00288209
0.00122994
-0.00377934
0.00433131
0.00362704
-0.0013389
0.00450181
-0.000516695
-0.00283135
-0.000797694
-0.0107259
-0.00791936
-0.000710162
0.00677442
-0.000574926
0.00839652
0.00708885
0.00585386
-0.00486355
-0.00514084
0.0147774
0.00944703
-0.000175338
0.00226384
-0.00305132
-0.00914981
-0.010413
-0.0034942
-9.70853e-05
-0.000688362
-2.22655e-05
-0.00460649
0.00428571
0.00518518
-0.0107926
-0.00778492
0.00312627
0.00163816
0.00225857
-0.00790137
-0.000315033
-0.0015744
-0.0190008
-0.00726906
-0.00830278
0.00459266
0.00606226
-0.00607631
-0.017162
0.00589011
-0.011691
-0.00159478
0.00939273
-0.00786545
-0.00489539
-0.0175375
-0.00276786
-0.00059735
-0.0191223
0.0127421
0.00374024
-0.00374315
0.00775913
0.00595544
-0.00395298
-0.0117148
-0.00862028
-0.00796643
-0.00556869
-0.00412231
-0.0038885
-0.00328648
0.00451021
0.00051472
-0.0235712
0.0166933
0.0126397
0.0146773
0.0249628
0.023795
0.00855192
0.0114538
0.00294959
0.000991081
0.00423851
0.0128104
0.00908988
0.00727992
0.0179655
0.0123529
-0.0171948
0.0110272
0.0110956
0.00684314
0.0110446
0.0239997
0.0138366
0.010283
0.00875548
-0.00116396
0.00876843
0.0104191
0.00811661
0.00774144
0.0139133
0.0124283
-0.00866707
0.0122269
0.0165971
0.0166988
0.00961437
0.0174763
0.0124685
0.0118094
0.0105043
0.00469753
0.00152554
0.00555574
0.00319109
0.00173122
0.0135392
0.00842171
-0.00912808
0.00291202
0.0125258
0.00836096
0.00542227
0.00136325
0.00103731
0.00617481
0.000853243
0.00266404
0.000511923
-0.00524469
-0.00428876
-0.00793423
0.00279407
0.00896973
-0.0168921
-0.00584913
0.000113977
-0.00278625
-0.00369725
-0.00340565
-0.00221426
-0.00291699
-0.00953835
-0.00622981
-0.0142001
-0.0117542
-0.010614
-0.0179352
-0.0075643
0.00812525
-0.0159422
0.00153741
0.00237109
-0.00177298
-0.00610503
-0.00364847
-0.0082772
-0.00376628
-0.00403927
-0.0172128
-0.0254803
-0.000155775
-0.00961325
-0.0151354
-0.00896672
-0.00281183
-0.0156249
-0.00361842
-0.00309013
-0.0023382
0.00229804
-0.00260342
-0.00862087
-0.00976502
-0.00188549
-0.00960337
-0.0159609
-0.00703694
-0.00598855
-0.0067275
0.00023968
-0.000299562
-0.0135042
-0.00254976
-0.000489696
-0.00112632
0.00133961
0.00528133
-0.0106917
-0.0149617
-0.00511995
-0.00979642
-0.0104829
-0.00624256
-0.000771121
-0.00829942
-0.00629029
0.00492107
-0.00909715
-0.00818588
-0.00094879
0.00252312
0.00292886
-0.00400148
-0.0151963
-0.00330735
-0.00431348
-0.00686291
-0.00534413
-0.00744382
0.00575226
0.00230689
-0.00562668
0.00200732
-0.00402563
-0.00683722
0.00634082
0.00321736
0.000525732
-0.00386602
-0.0094805
0.00395808
-0.00453551
-0.00510105
-0.00475499
-0.00475454
0.00284092
-0.00105384
-0.0022997
-0.00314321
-0.011699
0.00105906
0.00432059
0.000109583
-0.00355661
-0.00473881
-0.009096
-0.00478056
-0.004836
-0.0166337
-0.0082782
-0.00780906
-0.0106254
0.00182793
-0.00328358
-0.00058535
-0.0157499
-0.000252695
0.00373814
-0.00202487
-0.0110983
-0.00634209
-0.0132874
-0.0108739
-0.0103447
-0.0178917
-0.00622573
-0.0128478
-0.0103525
0.00340365
-0.00410012
0.00152427
-0.00931021
0.000536109
0.000588049
0.00155909
-0.00281548
-0.00642481
-0.0134632
-0.0113515
-0.00464439
-0.00795539
-0.00625511
-0.0118638
-0.00805732
0.00372087
-0.00519271
-0.00639705
-0.00942999
-0.00525891
-0.00701725
-0.00795128
-0.00896907
-0.00615244
-0.0163205
-0.00872842
-0.00465252
-0.00997806
-0.00350504
-0.00581638
-0.00934339
-0.0013794
0.000190596
-0.00402545
-0.00998161
-0.000433148
0.00181089
-0.00510841
-0.00401098
0.00106352
-0.014188
-0.00909019
-0.00791693
-0.00760784
-0.00320349
-0.011149
-0.00652219
0.00185008
0.000533405
0.000842385
-0.0192449
-0.00297994
0.000151395
-0.00650693
-0.0053384
-0.00210117
-0.0130607
-0.0104966
-0.00960417
-0.0131863
-0.014257
-0.0150788
-0.0016773
0.000763495
0.000504824
0.00755823
-0.0129213
-0.00361336
-0.00109343
-0.0031035
0.00191368
-0.00564492
-0.0101686
-0.00763273
-0.00821596
-0.0152171
-0.00890653
-0.00877194
-0.00630619
-0.0141808
-0.00798611
0.00216581
-0.0163971
-0.00842481
-0.00383146
-0.00459555
0.000386231
-0.00283263
-0.0089641
-0.00591059
-0.00269001
-0.00988685
-0.012147
-0.00985295
-0.0050518
-0.0179453
-0.00712299
0.000723236
-0.0245998
0.000704774
-0.00105641
-0.00561711
0.00073307
0.00186079
-0.00422482
-0.00528481
-0.00232571
-0.00835945
-0.0159139
-0.0106021
-0.00876693
-0.0138534
-0.0041823
-0.00114042
-0.0234526
-0.000999322
-0.00557591
-0.00913285
-0.00279736
0.00364867
-0.0036846
-0.00531738
-0.00400687
-0.00392752
-0.0073652
-0.0162028
-0.0113311
-0.00770439
-0.00500879
-0.000833482
-0.0259049
-0.00930489
-0.00324581
-0.00437843
-0.0049196
0.00680176
0.00098316
-0.00608262
-0.00324875
0.00247068
-0.00366397
-0.0114612
-0.0141781
-0.0115833
-0.0114404
-0.00483865
-0.0282796
-0.00821505
-0.00804534
-0.00954238
-0.0100728
0.000300312
0.00273836
-0.00593587
-0.00605307
0.00498132
-0.00404149
-0.0144569
-0.00738842
-0.0138213
-0.00929151
-0.000939523
-0.0201302
-0.00469581
-0.0096043
-0.0107653
-0.00476336
-0.00629732
-0.00862108
-0.00821605
-0.0120505
-0.00370687
-0.0120023
-0.00567645
-0.00751937
-0.0157784
-0.00512406
0.00192001
-0.0154522
-0.00827302
-0.00910907
-0.00683729
-0.000715256
-0.00709698
-0.00790731
-0.00719061
-0.0165691
-0.0118428
-0.0063774
-0.00552611
-0.0132025
-0.0172077
-0.00639249
-0.000551463
-0.0149456
-0.00597459
-0.0135911
-0.0100542
0.00019044
-0.00728385
-0.00709461
-0.0112402
-0.0138577
-0.0113627
-0.00830506
-0.00363477
-0.00969901
-0.0177446
-0.0119334
-0.00500481
-0.0197697
-0.00615761
-0.00560525
-0.0113766
-0.00404127
-0.0142042
-0.0140336
-0.00831324
-0.00938772
-0.00268184
0.000821489
-0.000841599
-0.00760905
-0.00971241
-0.016307
-0.00617106
-0.0250125
-0.00492132
0.000480501
-0.00670471
0.00599094
-0.00230337
-0.00598456
-0.00704412
-0.00183996
-0.00175861
0.00210785
0.00404325
-0.00600251
-0.0128236
-0.0105711
-0.00560439
-0.0238695
-0.013579
-0.00498866
-0.00831515
0.00516376
0.00548854
-0.00281177
-0.00810908
0.000321083
-0.000669993
0.00437165
0.00505779
0.00227889
-0.00536117
-0.00542294
-0.000423398
-0.0208814
-0.0114495
0.00193109
0.00347004
0.00683442
-0.00258237
0.00104902
0.00024146
0.00589065
-0.00107848
0.00797567
0.00737205
0.00210039
0.00438535
-0.000321274
-0.00877514
-0.0203096
-0.00570706
-0.00241204
0.000874506
0.00169834
-0.00650263
0.0057657
0.00847547
0.00116058
-0.000717562
-0.00141345
0.00630447
0.00358371
-0.0061218
0.0017345
0.00276245
-0.0199849
-0.0168614
-0.0134377
-0.0047299
-0.00357003
-0.00132323
-0.00194881
-0.000832215
-0.00654677
-0.00343121
-0.00425391
-0.00690638
-0.012035
-0.014046
-0.00595526
-0.000931164
-0.0168137
0.00917907
0.00181219
-0.00699941
0.00900316
0.0166853
0.00123467
0.000347723
0.016694
0.0115941
-0.0067178
0.00345262
-0.00292182
-0.00289682
-0.00116467
-0.00446369
-0.0178635
0.00446786
-5.10498e-05
0.00232597
0.0137853
0.0185426
0.0126234
0.0252938
0.0139994
0.000487687
-0.00591645
0.00229925
-0.00468495
-0.00619412
0.00016202
-0.00502207
-0.0197792
0.00462026
0.00288279
0.0015359
-0.00134956
0.0126928
0.0120961
0.0146242
0.0222685
-0.00105559
-0.00348565
0.00673772
0.0044562
0.00821156
0.000762944
-0.000722904
-0.00980602
-0.00520126
0.00552584
0.0125264
0.00360369
0.013322
0.0106813
0.0183316
0.0137969
-0.000764687
0.00116044
0.0111464
0.00424397
-0.00294929
0.000179046
0.00463335
0.00328663
-0.00594624
0.0074946
0.0136791
0.0232173
0.016093
0.00692094
0.0119616
0.00233576
0.00539702
0.00613192
0.00526445
-0.000850974
-0.0061636
0.00310147
0.00867241
0.00244756
0.000781175
0.00462089
-0.000650456
0.00115552
0.0103833
0.00659368
0.00706293
-0.00158257
-0.00782295
-0.0117335
-0.00522605
-0.00843953
-0.0172891
-0.00731702
-0.00206616
-0.00593859
0.00652687
0.00572501
-0.00310922
-0.00489308
0.00236749
0.00203698
0.00307784
-0.0137266
-0.0183152
-0.0246117
0.000137176
-0.00562262
-0.0107062
-0.0128673
-0.0156662
-0.00955115
0.0043749
0.0121584
-0.00628723
-0.0031095
0.00333127
0.00133117
-0.00594039
-0.00961934
-0.0137105
-0.0161672
-0.00186443
0.0019334
-0.00260805
-0.00993068
-0.00560275
-0.000511977
0.00624559
0.0172065
0.00320192
0.00853963
0.00836041
-0.000838239
-0.000164238
0.000319846
-0.00128254
-0.00522611
-0.00218814
0.00399523
0.00650718
-0.0023941
-0.00381118
-0.00107901
0.00693668
0.0131844
0.00634901
0.00230204
-0.000486643
-0.00307695
0.00245985
-0.00490317
-0.000587614
-0.00279501
0.000564623
0.0114347
0.0134493
0.00069297
0.00208258
-0.000987284
-0.00205165
0.00757592
0.00815104
-0.000933515
-0.011684
-0.00284789
0.0074755
-0.00474574
-0.00275384
-0.00215382
0.00832677
0.01378
0.0104569
-0.00509011
-0.00122246
0.00940698
0.000788836
0.00994279
0.01121
-0.00320375
-0.0114407
-0.00257897
0.00760358
0.00186592
-0.00953064
0.000267099
0.00460197
-0.0025456
-0.000633202
-0.00676518
-0.00448582
-0.00344586
0.00772
0.0094613
0.00836756
0.00187939
-0.00358905
-0.000300582
0.00738801
0.00685138
-0.00526985
0.00695158
-0.00405727
-0.0066815
-0.0026211
-0.00703498
0.00217794
-0.00296127
0.00814836
-0.00428199
0.00258609
0.00701529
0.00374775
0.00223362
0.0016127
0.00677198
-7.72491e-05
-0.00295528
-0.0186071
-0.00850572
-0.00370632
-0.0107389
-0.00234803
0.0026877
0.00661647
0.000682605
0.00296302
0.00803877
0.00867485
0.00260996
0.0020452
0.00444426
-0.00778822
-0.00828539
-0.00794829
-0.00789061
0.000404657
-0.00287747
-0.001906
-0.000849861
0.00535356
0.0115528
0.0115658
0.00598564
0.0123443
-3.2749e-05
-0.00159755
-0.0118333
-0.0144741
-0.00577404
-0.0130161
-0.00722071
0.00600027
0.00214741
0.00313982
-0.00956359
-0.000696977
0.00593432
0.00447199
-0.000354073
0.012466
-0.00175974
-0.00822304
-0.0174165
-0.0173061
-0.0176345
-0.0222279
-0.0104449
0.00351681
0.00328453
-0.00183277
-0.00732821
-0.000504406
0.00602164
0.00802827
0.00459431
0.00856869
0.0022778
-0.0118539
-0.00431894
-0.0119289
-0.0091073
-0.0081584
0.00704293
0.00686992
0.00406447
0.00447343
0.00279311
-0.0015893
0.00532172
-0.00047386
0.00497555
0.00934539
-0.00149526
-0.0114759
-0.0110251
-0.0171865
-0.00668407
0.000164311
0.006124
-0.000739277
0.00378847
0.000502565
-0.0139293
0.00148498
0.00177605
0.00452422
0.00670281
0.00529808
0.00596929
0.00149526
-0.00893166
-0.0126835
-0.00119439
-0.00180472
0.000592229
-0.00338275
0.00425591
-0.00464884
-0.0114379
0.00839255
0.000838162
0.0108385
0.00971009
0.00679201
0.0073568
0.00577676
-0.00184984
0.00333883
-0.00785368
-0.00628539
0.00291049
0.000588356
-0.00912937
-0.0205264
-0.018753
-0.00130658
0.00697657
0.0147311
0.00899862
0.00440259
0.00127799
-0.0063798
-0.00842051
-0.00459016
-0.00649126
-0.00826723
0.000987482
-0.00476556
-0.00407453
-0.00735318
-0.00994186
-0.00464128
-0.00101285
0.00762667
0.00350082
0.0035606
-0.00233428
-0.00402274
-0.00514953
-0.000182943
-0.00211105
-0.00624693
-0.00151248
-0.014377
-0.00802645
-0.00532496
-0.00459592
-0.00461203
-0.0120523
-0.0150644
-0.004524
-0.000219259
-0.00345901
-0.00266399
-0.0078913
0.000850935
-0.00172018
-0.00676152
0.000195616
-0.0207768
-0.0132376
-0.0119809
-0.0195212
0.00715035
-0.00372566
-0.000610964
0.00162506
0.00630036
0.00396394
-0.0033442
-0.0177654
-0.00238906
0.00404083
-0.0051567
-0.00363226
-0.0183507
-0.012593
-0.00960214
-0.0139345
0.00251804
0.00193994
0.0150308
0.0155061
0.00452291
0.00696981
-0.00235066
-0.0030262
0.00618328
0.00889636
0.00477968
-0.000171452
-0.00528183
-0.00268179
-0.00290539
-0.0100541
0.00154817
0.00536519
0.00631894
0.012552
0.00416184
-0.00230873
-0.000917637
-0.000533914
0.00697828
0.0121917
0.00348162
0.000618636
0.00651527
-0.0063675
0.00186214
-0.0170462
0.00241878
0.0176325
0.00903658
0.0156021
0.00859105
0.00550624
-0.00129941
0.00193343
0.00594206
0.0157383
0.0085826
-0.00686586
0.000987387
-0.0117896
-3.10477e-06
-0.00664545
-0.00231356
0.014736
0.00516551
0.00496739
0.0091209
0.00927516
0.000703763
0.00470886
0.00663307
0.0114773
0.00720147
-0.00667383
-0.00237953
-0.00330777
-0.00254356
-0.00647978
0.00560071
0.0145657
-0.00150336
-0.000990092
0.00218519
0.00831794
0.00166045
-0.00328257
-0.00212555
0.00569819
0.00169382
-0.000170112
-0.00485874
-0.00606883
-0.0136747
-0.0117063
-0.00750366
-0.000114263
0.00567729
-0.00267822
-0.00447384
0.0147496
0.0021957
-0.00327083
-0.00924565
-0.00441287
-0.00872312
-0.00983971
-0.0125906
-0.0123734
-0.0136055
-0.0214596
-0.00995829
-0.0014443
0.00199128
0.00632292
0.0125592
0.0129346
0.00256506
-0.00374473
0.00246002
0.00481131
-0.00300899
-0.0137495
-0.0165562
-0.0108389
-0.0136501
-0.0180615
-0.00234207
-0.00254783
-0.0029629
0.00568693
0.0195632
0.00999797
0.00583622
0.0315402
0.0101259
-0.00274088
-0.00121213
0.000587434
-0.00460653
-0.0159834
-0.0136912
-0.00525655
0.00192772
-0.00178394
0.000471874
-0.00368717
0.0133977
0.0100499
0.0217738
0.0178385
0.00555472
-0.00238979
-0.00967664
-0.00649264
-0.0109786
-0.0177171
-0.0176682
-0.0104922
0.00307311
0.000791758
-0.0018617
0.00104764
0.00781904
0.00803997
0.0146951
0.0169547
0.00277009
-0.00164814
-0.00164116
-0.000678008
-0.00705376
-0.011502
-0.0146398
-0.00609187
0.00335988
0.00525296
0.00902117
0.0066103
0.011351
0.00934147
0.0154118
0.00564938
-0.00606153
0.012107
0.0188517
0.00960325
-0.00578726
-0.00540812
-0.000957706
0.00054371
0.00221216
0.00369524
0.00183457
0.0142763
0.016988
0.00739669
0.0116843
0.000993273
-0.00396918
0.00504692
0.00917486
-0.00033818
-0.00457237
-0.0085546
-0.00398928
0.00368429
0.0113193
0.00637369
0.00901252
0.00412795
0.00994272
0.0131096
0.0127717
-0.00380973
-0.00918112
-0.00991245
-0.00448562
-0.00893096
-0.0045966
-0.010144
-0.005667
-0.00308774
0.0082936
0.0123739
0.0162787
0.00958747
0.0167096
0.0182168
0.0141573
-0.000626745
-0.00252635
-0.00225496
-0.00220206
-0.00677259
0.000254977
-0.014453
-0.0196895
-0.000515907
0.00191577
0.0106692
0.0165887
0.0149711
0.0128621
0.00863668
-0.000709423
-0.00676322
0.00626908
0.00470652
0.00318074
0.000979137
0.00461749
-0.00337753
-0.0028289
0.00314782
0.00222797
0.00903009
0.00950765
0.0157283
0.00929639
0.00558903
0.00542652
0.00298843
0.00855391
0.00143407
-0.001431
0.00550452
0.0038663
-0.0036777
-0.00328374
-0.00455111
0.00534705
0.0117254
0.00773152
0.00732064
0.000883292
0.00194688
0.00705595
0.000558547
0.00276959
-0.00729315
0.00339107
0.00171696
0.00398875
0.00108769
0.00316572
0.00205615
0.00759244
0.00329622
0.00283472
0.0072561
-0.0108291
-0.00243817
0.00430436
-0.00773111
-0.00867506
-0.00677381
-0.00154707
-0.00323141
-0.0062021
-0.00753261
-0.00371376
-0.00134962
0.0133293
0.000625721
-0.000725673
-0.00414472
-0.00997294
0.000175582
0.00315471
0.000493322
-0.00653336
-0.000635396
-0.00714912
-0.00826567
-0.00329193
-0.00912952
-0.00756512
0.00541232
0.012008
0.00349673
-0.00808136
0.00173638
0.00818871
0.00266383
-0.00208798
0.00191542
0.000565742
0.00649462
0.00108435
-0.00737565
-0.00162192
-0.0109186
-0.00139791
0.00231637
0.00823792
0.000220356
-0.00537578
0.00356111
-0.00139366
-0.001635
-0.00246621
-0.0031586
0.00135292
0.00439878
-0.00484052
-0.00267549
-0.00265192
-0.00849069
-0.00576799
-0.000379005
0.0144509
0.0110937
0.00592727
0.0105696
0.000777141
0.00502279
0.0112365
0.00368259
0.00100929
-0.0126198
-0.00785031
-0.0101127
-0.0161468
-0.00917741
-0.00416717
-0.0020808
0.0103891
0.00565018
0.00903058
0.0078096
0.00306521
0.000588046
0.00136495
-0.0107043
-0.00103961
-0.00244061
-0.0117257
-0.00638338
-0.00771743
-0.00561411
-0.0110117
-0.00658209
0.00493055
0.0104661
0.000252087
-0.000153647
0.00801146
0.00760796
0.0052175
-0.00470518
-0.000610911
-0.00610477
-0.0102063
-0.0105953
-0.00826229
-0.00167744
-0.0118312
-0.0078724
0.00444
0.0152738
-0.00426506
0.00220317
0.00469511
0.0102476
0.0030619
-0.00855326
-0.00296777
-0.00888638
-0.0034805
0.0113903
0.0094288
0.00959849
0.0019179
0.00178146
0.00475317
0.00341831
-0.00523232
0.00179246
0.00288847
-0.000534097
-0.00139166
-0.0156441
-0.00237469
-0.00548831
-0.000941937
0.00775563
0.00284976
0.00854633
-0.0035779
-0.0107237
0.00888273
0.00240543
0.00131054
0.00991024
0.0123635
-0.000196789
-0.00670908
-0.00820044
-0.00414198
-0.00408067
0.00191911
0.00106037
0.00216364
0.0111956
-0.0019358
-0.0125013
0.0109511
-0.00492174
0.00689635
0.0138749
0.0172882
0.00435992
-0.00165811
-0.00274031
0.00246806
-0.00640175
-0.00498777
0.000339498
-0.000879744
-0.00519952
-0.0129555
-0.0214471
0.00226988
-0.000668863
0.0125189
0.0198124
0.0116903
0.00173481
-0.00101706
-0.00282847
0.00338439
0.00564492
0.00411598
-0.000637392
-0.00418976
-0.00640713
-0.00602804
-0.0116842
-0.00582105
-0.00552211
0.0121028
0.00961972
0.000112377
0.00361485
-0.00572138
-0.00169655
0.000579159
-0.00379847
0.00573991
0.00344068
-0.0121134
-0.0108982
-0.00496257
0.00629684
-0.00930068
-0.0134205
-0.00292455
-0.00126108
-0.00518302
0.000477118
-0.00796463
-0.00711586
-0.00347717
-0.00181436
-0.00483975
-0.00315192
-0.0138345
-0.0098064
-0.00210326
-0.00678331
0.0156205
0.00420458
0.0108365
0.00578331
0.00649928
0.00924243
-0.00845437
-0.0195003
-0.00722158
0.00120567
0.00168879
-0.0048943
-0.015099
-0.0104473
-0.0064142
-0.0162086
0.00579241
0.00274483
0.0192314
0.0103416
0.000728114
0.000669672
-0.00502856
-0.00238998
0.00408546
0.0130891
0.00825993
-0.0060367
-0.0027365
0.00146526
5.59772e-06
-0.0141534
-0.00146947
0.00871186
0.00843209
0.00573716
0.00154555
-0.00379758
0.000408576
0.000521398
-0.00605965
0.0050617
0.00453846
-0.00285289
0.00226455
-0.00626499
-0.00102388
-0.0106907
0.0040216
0.000738511
0.000517415
0.00894251
0.00241197
-0.000681069
-0.00887732
-0.000599792
0.00850236
0.00821229
0.00286248
-0.00364387
0.00119436
-0.00950631
0.000781628
0.000881333
0.0101003
0.00297834
0.0088372
0.000595654
-0.00106589
0.00480126
0.00589549
0.00386321
0.00461776
0.0110115
0.00328238
-0.0123468
-0.00240119
-0.00411178
-0.000583028
-0.000647709
0.0141424
0.000982521
-0.00902901
0.00217273
0.000541066
0.0022873
0.00942797
-0.00237541
-0.00230287
0.00245161
-0.00763882
-0.00561164
-0.00144125
4.15326e-05
0.000509313
0.00187736
0.00938163
-0.00271203
0.00387422
0.00501746
0.000449242
0.00930006
0.0136319
0.00681682
-0.00292608
-0.00643783
-0.00172684
-0.00673115
-0.00654392
0.00153911
0.00321464
-7.51306e-05
0.0125886
-0.0012916
-0.00346273
0.00538917
0.00582757
0.0114207
0.00600925
-0.00385312
0.00308065
-0.00402859
-0.00714691
-0.0203006
-0.016431
-0.00526534
-0.0083121
-0.0162972
0.00218486
-0.00583131
-0.0035745
0.0214333
0.0358722
0.039065
0.0185355
0.0340433
0.0173791
-0.00204667
-0.00698196
0.0108148
-0.0122974
-0.0190912
-0.00398446
0.00969842
0.0114322
-0.00573156
-0.00607714
0.000462169
0.0140523
0.0171566
0.0136854
0.0161392
0.01721
0.00233283
-0.0159645
-0.00176565
-0.00798434
-0.0214163
0.00318531
0.0113674
0.0047374
0.00781484
0.000336765
0.00676745
0.00795671
-0.00265744
0.00148664
-0.00297229
0.00334234
-0.00513428
-0.0174097
-0.00452824
-0.00136138
0.000895552
0.00724808
0.0118654
0.0211436
0.0167337
0.00626372
0.0148798
0.0177039
0.0137165
0.00850412
0.00485188
-0.00137618
0.000776284
0.00980628
0.014333
-0.000668779
0.00428006
0.0112524
0.0121584
0.0143252
0.0202047
0.0154494
0.0168696
0.0295457
0.0251735
0.0148566
0.00181034
0.0020213
-0.00099803
0.000155413
0.00225391
0.00282555
-0.00849422
0.000530157
0.0160744
0.0280868
0.0238261
0.024569
0.0227407
0.0267391
0.0165988
0.00933972
0.00990451
-0.0010168
-0.00963966
-0.00396381
-0.0192565
-0.0184242
-0.010954
-0.0142692
0.0010547
0.0240661
0.0231745
0.025139
0.0243418
0.0306699
0.0253382
0.0171783
0.00606579
0.00639605
0.00458252
-0.00357157
-0.0177881
-0.005257
-0.00648065
-0.00932913
0.00635665
0.013404
0.0159528
0.0183132
0.0169769
0.0213748
0.0181641
0.00949708
0.0029082
0.0130569
0.00386
-0.00377896
-0.00569786
0.00440613
-0.00416391
-0.00714881
0.00937032
0.0197055
0.0072345
0.00466257
0.0167738
0.0201775
0.0113815
0.00957676
-0.00339252
0.0135639
0.0147327
0.00188827
-0.000459948
-0.00169429
-0.0120486
-0.0209875
-0.00735397
0.00836581
-0.00115967
0.00350578
0.0151405
-0.000331954
-0.0013884
0.00655331
0.00186886
0.00291141
0.0133225
0.00735676
-0.00448049
-0.000520718
-0.00135858
0.0109601
0.0109589
-0.000491455
-0.00499639
-0.0119491
0.00506429
-0.00140208
-0.0068943
-0.0046105
-0.00608381
-0.00247688
0.00398921
0.00955921
-0.005225
-0.00649436
-0.00646405
-0.00234546
0.00333129
0.0166482
-0.0105928
-0.0148652
-0.00625837
-0.00521902
0.000792867
-0.00445486
-0.00115227
-0.00199487
0.000450708
-0.0122679
-0.0118295
-0.013205
-0.00773383
-0.0114773
0.00272232
0.0102757
-0.00964824
-0.0064784
-0.000601843
0.00160671
-0.00449152
-0.00460447
-0.0124487
-0.00500106
-0.0031659
-0.00737705
-0.00395849
-0.0139729
-0.00702171
-0.000249006
0.00290556
0.0155643
0.00353769
0.00741469
-0.00117411
-0.01297
-0.0149866
-0.00431719
-0.0110774
-0.0117666
-0.00281046
0.000208238
-0.00116244
-0.0132062
-0.00822767
-0.00010093
-0.00453375
0.0201649
0.015113
0.0113609
0.00335501
-0.0073687
-0.00401432
0.0133039
-0.0070039
-0.000553147
-0.0080967
-0.00810937
-0.0119259
-0.0221673
-0.00916243
-0.0114313
-0.00238967
0.0130151
0.010966
0.00332673
0.0027705
-0.00128412
-0.00881006
0.00114806
-0.00276872
0.000381275
-0.00955926
-0.00893396
-0.00547112
-0.0223737
-0.0100812
-0.0172183
-0.00526284
0.0187186
0.0141121
-0.00321401
-0.0037506
0.0216636
0.0169545
0.00343884
-0.00150218
0.00128675
0.000862228
0.00368564
3.47485e-05
-0.00918983
-0.00926873
-0.0199972
-0.00339902
0.0121183
-0.00546526
-0.0165886
-0.0070101
0.00420165
0.00726224
-0.00626273
-0.0142503
-0.00709205
-0.000645762
0.00259638
0.0127119
0.00498752
0.00472004
0.00508654
0.0170857
0.0116259
-0.00894137
-0.0110466
-0.00731552
-0.00500016
-0.0131396
-0.0146841
-0.00763992
-0.00354248
0.00315215
-0.00275711
-0.00141977
0.00162229
0.00695495
0.00553566
0.00254023
0.0143829
0.00162699
-0.00579072
0.00437437
0.000962364
-0.00469524
-0.0109465
-0.00912064
0.00257476
-0.00194476
-0.00720082
-0.0024733
0.00180356
0.00245013
0.00564745
-0.00113499
0.0135462
-0.00207366
-0.00331285
0.010234
0.00176723
-0.00247787
-0.0019386
-0.00310508
-0.00540807
-0.00669484
0.000123893
0.00740919
0.00511936
-0.00567756
-0.024317
-0.0129525
0.00659831
-0.000917567
-0.00362421
0.0149092
-0.00368014
0.00226144
0.00937749
0.00852138
-0.00671691
-0.00902275
0.0109191
0.0145626
0.00682113
-0.0126894
-0.0159919
0.00242536
-0.000146813
-0.00232721
0.0138024
0.00885179
0.0010096
0.0086637
0.00826041
0.00966848
0.006174
-0.0015905
0.00582946
0.00135702
-0.00514807
-0.00656886
-0.0139441
0.00455585
0.00137824
-0.0125743
-0.00355888
0.00655688
-0.00730963
0.00351775
0.00753896
-0.00230348
0.000199219
0.0026926
-0.00214221
-0.00286992
0.00199971
-0.00347084
-0.00226062
-0.000938097
0.00230202
-0.00814109
-0.00407451
0.00290478
0.00898557
0.0102285
-0.00270619
-0.00896683
0.00391005
0.0118533
0.00881177
-0.00451201
0.00256804
-0.0034658
-0.00324224
0.000370095
-0.00189557
-0.00797813
0.0174839
0.0162856
0.00665581
0.00120768
-0.000494049
0.00690622
0.0072471
0.0115523
0.00543301
-0.0104287
-0.00770135
-0.00310776
0.00395419
0.00251828
0.00658882
0.00614158
0.0090337
0.0112162
0.000984649
0.00214177
0.000835516
0.00355276
0.00236267
-0.00752967
-0.00271908
-0.0101958
-0.00928658
-0.0105096
0.00149206
0.00863095
0.00188363
-0.00375998
0.00336681
0.0143439
0.00973418
0.00554066
-0.00240546
-0.000792905
-0.000419351
0.00625364
0.0100629
-0.00610579
-0.00807266
-0.0120428
-0.00903641
0.0064216
0.0136135
0.00391155
0.00731273
0.00399525
-0.00291304
0.00190646
0.000120565
-0.00273778
-0.00438942
0.00744364
0.00133335
-0.0129257
-0.00525609
-0.0103318
-0.0128354
-0.00371656
0.0172848
0.00755818
-0.00341059
0.00603492
-0.00989556
-0.00411601
0.00574738
0.00305315
0.00341035
0.00517412
-0.00977738
-0.00902354
-0.000578071
0.00275752
-0.00665179
-0.00322798
0.0188182
0.00408195
0.00294072
0.00238999
-0.00584389
-0.00267894
0.00920384
0.00440309
-0.000648057
-0.00720419
-0.000965728
-0.00478272
0.00828684
0.00483299
-0.000574558
-0.00478634
0.00992185
0.00291048
0.00305119
-0.00432423
-0.00157446
0.00296525
0.00253329
0.0154284
0.0209717
0.00287202
-0.00339888
-0.0155434
-0.00636834
-0.0018557
-0.00102429
-0.00135005
0.00891105
0.000674284
0.00101558
0.00752638
0.0167608
0.0174038
0.0204645
0.0260922
0.0128422
0.0151315
0.014702
0.0196431
0.0115174
0.00968867
0.0243568
0.0333384
0.018705
0.0125657
0.00826424
0.0153178
0.00570058
0.0104226
0.0166565
0.0148036
0.0111321
0.0156619
0.0103291
0.0119323
0.00643476
0.00107038
0.0150714
0.0469927
0.0191546
0.0108674
0.0109198
0.0127422
0.0101319
-0.000330254
-0.00633559
-0.015917
-0.0131187
-0.0166487
-0.015236
-0.00598514
-0.00350907
0.00731668
0.0128386
0.0332116
0.0236386
0.0136743
0.0114293
0.0128301
0.0103335
0.00923487
0.013987
0.00690042
-0.00336985
-0.00235279
0.00428543
0.00642478
0.00133384
0.00657777
0.017855
0.0251097
0.0367052
0.0277304
0.0189473
0.0178319
0.0222941
0.0205445
0.0151045
0.0059069
0.00162944
0.00316025
0.0124167
0.00949491
0.00857702
0.00853756
0.0165104
0.0271205
0.0389442
0.024071
0.0228993
0.0143105
0.00943071
0.00421526
0.000165299
0.0143464
0.00314267
-0.00160611
0.00307225
-0.00293687
0.00485719
0.00557283
0.0125723
0.0224256
0.0529873
0.0362845
0.0273809
0.0224915
0.0270304
0.0208398
0.00675175
0.00665424
0.00467627
0.00575092
-0.00233922
0.00474587
-0.00320402
0.00461775
0.0135453
0.0300702
0.0444919
0.0340609
0.0193664
0.0159172
0.0236141
0.0272048
0.00418746
-0.0031619
0.00203777
0.000239135
-0.00869648
-0.00643332
-0.00171244
0.00101576
0.00255542
0.0176352
0.0459949
0.0247122
0.00846421
0.00586903
0.0115219
0.0121508
-2.24028e-05
-0.00455316
0.00939152
0.00725499
0.00470394
-0.0106497
-0.0060323
0.0058744
0.000773089
0.0208097
0.0331069
0.0111103
0.0118645
0.00562805
0.0127542
0.0112612
0.00483766
0.000285546
0.0163872
0.0061981
0.00456723
-0.007882
0.00472205
0.0093113
0.0155605
0.0283748
0.0311394
0.016214
0.00677142
0.000270172
0.0037809
-0.00740878
-0.0194424
-0.0104729
0.00536287
-0.00169023
-0.00668653
-0.0161316
-0.00894978
-0.00543823
0.0105603
0.0133266
0.0187568
0.00313927
0.00530782
-0.00331498
-0.00224972
-0.00424394
-0.00926583
-0.00947701
-0.00120471
-0.00442474
-0.0140692
-0.0215493
-0.0180659
-0.000857232
-0.00094591
0.0105171
0.0203908
0.00341069
0.00834466
-0.00509371
-0.00267521
0.00533658
0.00881002
-0.0156746
-0.0105887
-0.00524145
-0.00374954
-0.0120179
-0.0170498
-0.00548196
0.00276331
0.0203227
0.0166352
0.00600167
0.024349
0.00673348
-0.00725975
-0.00923333
0.00122547
-0.00394861
0.00313197
-0.000991482
0.000817814
-0.00461922
-0.0156016
-0.0052909
-0.00012878
0.0184045
0.0220073
0.00486341
0.0113531
0.0136888
1.04039e-05
0.00261928
0.0079438
0.00680562
0.00964645
-0.0049664
0.00596898
0.000478651
-0.0118684
-0.00450786
0.00539569
0.0153969
0.0159228
-0.000911106
-0.00321377
0.0115833
0.00600254
0.0093399
0.00913672
0.00640391
0.00942036
0.00302788
0.0135319
0.0112463
-0.00194555
-0.00679723
-0.00456685
0.0184657
0.025647
0.0109712
0.00113137
0.0140784
0.0195435
0.0203625
0.0136855
0.0182726
0.019932
0.0162592
0.0225752
0.0118561
0.000591356
-0.00288806
-0.000105159
0.0331852
0.0272104
0.0100286
-0.0055439
0.00586494
0.0043294
0.00429795
0.00108692
-0.000351843
0.00502746
0.0145992
0.0165917
0.0152656
0.00101014
-0.00226312
0.0152764
0.0345581
0.026188
0.000813804
-0.00668038
-0.00212231
-0.013705
-0.0130599
0.000560926
0.00532987
0.00759197
0.0074472
0.00906826
0.013985
0.000901139
0.0105663
0.0267567
0.0382331
0.0185918
0.00282207
-0.000556426
-0.00353376
-0.00825958
-0.00871259
0.00170951
-0.00285447
0.00335673
0.000419809
-9.99226e-05
0.00307382
0.00139171
0.00614017
0.0168711
0.0262235
0.0313843
0.0155174
0.00594425
-0.00442177
-0.0141196
-0.0200927
-0.0151257
-0.0137011
-0.00930234
-0.00596795
0.00713444
0.00452165
0.000835001
0.00318264
0.00837595
0.0098624
0.0310302
0.0113563
0.00507696
0.0038458
-0.00965444
-0.0051345
-0.000788421
-0.0067645
-0.00478155
-0.0101391
0.00983784
0.0128538
0.00757137
-0.00436414
0.00609697
0.0236789
0.0176214
0.0135767
0.0166703
0.0109592
-0.00190774
-0.0019433
-0.0115835
-0.00467514
0.0113904
0.0028535
-0.00445266
0.00369157
0.0021503
-0.00623447
0.00112914
0.0201186
0.0250857
0.0134541
0.00423526
0.00475616
0.000469956
-0.00459627
-0.00226301
-7.02935e-05
-0.00650101
-0.0111088
-0.0118793
-0.00623881
0.00651946
-0.00661848
0.0104277
0.0148955
0.0273189
0.0092898
0.00132574
-0.00309835
-0.00141074
0.00664227
-0.00213658
-0.00179797
-0.00157471
-0.0127013
-0.00732177
-0.0101387
0.00119386
0.00367446
0.0151436
0.0275307
0.0224588
0.0103322
0.0117466
0.00407656
-0.00856702
-0.00781076
-0.00393555
-0.000144068
0.00857668
-0.00401912
-0.00642748
-0.0066805
-0.0077093
0.00448284
0.0178005
0.0242433
0.0228622
0.0118224
0.00778752
-0.00290635
-0.011094
-0.010036
-0.00443778
-0.00208159
0.00708238
-0.0114198
-0.0165942
-0.00718521
-0.0142017
0.000369785
0.00598933
0.0220756
0.0216829
0.0109055
0.0133899
-0.0029995
-0.00349621
0.00439847
0.000675568
0.000447949
0.00422938
0.00557663
-0.00570367
-0.00606214
-0.00762581
0.00102739
0.00613328
0.0191162
0.0278296
0.00886551
0.00794566
0.00407278
-0.00135765
-0.00609035
-0.00920921
-0.0141531
-0.0124118
-0.00911089
-0.0164878
-0.0169716
-0.0128294
-0.0070847
-0.00342578
0.015425
0.0412554
0.012149
0.00833758
0.00773896
-0.00296249
-0.0149464
-0.0110175
-0.012728
-0.00390571
-0.00445079
-0.0173783
-0.0158465
-0.011662
0.00479666
0.00041919
0.0172559
0.0413908
0.0171203
-0.00175212
0.00748068
0.00320678
0.00603491
0.00511903
-0.00766846
-0.00468783
0.00268041
0.000496428
0.000963886
-0.00296615
0.00277031
0.00969817
0.019879
0.0236063
0.0106193
-0.000335759
-0.00391388
-0.00424815
-0.00210671
-0.00291953
-0.00232097
-0.000935754
-0.00820591
-0.0105951
-0.0179556
-0.0113811
-0.00872047
0.000419757
-0.00477431
0.00438177
0.0116461
0.0123112
0.0177524
0.00649477
0.00813774
0.0144231
0.0255799
0.021188
0.0198972
0.0245282
0.0251399
0.0141957
0.0075678
0.0147947
-0.00268236
0.00945862
0.011906
0.00595768
0.0142344
0.00694986
0.00126032
-0.00414325
0.00446686
0.0105211
0.0122686
0.0128376
0.0187518
0.0146951
0.00405935
0.0106849
0.00923636
0.000888155
0.0138029
0.0108413
0.0125641
0.011377
0.00309853
-0.00874197
-0.0166428
-0.0114004
-0.00924399
0.00191538
-0.00254445
-0.0059016
0.00665586
0.0115917
0.00243295
-0.00119319
0.0048183
0.0050058
0.00623309
-0.003735
0.00802741
-0.00146457
-3.34626e-05
-0.00132861
-0.00398836
0.00212037
0.00417508
0.00463404
0.00887518
0.0100256
-0.00710045
0.00776527
0.00911617
-0.000278167
-0.00251072
-0.00640708
-0.012881
-0.015691
-0.0118625
-0.0058826
-0.00080365
0.00460578
0.0136578
0.0169311
0.0114623
0.0189963
0.0116662
-0.00461292
-0.00494985
-0.0124212
-0.00530413
-0.0149307
-0.0177626
-0.0211195
-0.00540817
0.00106978
0.00276281
0.00940044
0.0120725
0.0144954
0.00984451
0.0171585
0.00315395
-0.0146999
-0.00966175
-0.00915211
-0.00394062
0.000622047
0.00332462
0.00685237
0.00930088
0.00996193
0.00699102
0.00385063
0.00582639
0.0105692
0.00744645
0.0123299
-0.0149079
-0.0151233
-0.00836521
-0.00273656
-0.00581057
0.00030996
0.00333056
0.00287402
0.00546509
0.00327314
0.000635474
0.000334117
-0.00338092
-0.000242187
-0.00949062
-0.0120479
-0.022471
-0.00542418
-0.00639141
0.00182731
-0.00103268
-0.000296771
-0.00416105
-0.00143373
0.0020029
-0.00254668
0.000475727
-0.00405054
-0.00518033
-0.0016151
-0.00809424
-0.0128075
-0.019491
-0.0251289
-0.014066
-0.00833608
0.00296655
0.0121467
0.00583653
0.00831107
0.00691551
0.00689704
0.00577637
0.00642869
-0.00191009
-0.00358319
-0.00693738
0.00101919
-0.0185725
-0.0234019
-0.0101766
-0.0114945
-0.0114282
-0.0050709
-0.00952586
-0.00635553
-0.0050297
0.00356845
0.00377606
0.000520125
-0.011659
-0.0137305
-0.0235396
-0.0167577
-0.0206721
-0.0342712
-0.0165373
-0.0153481
-0.0142337
-0.00476371
-0.00534592
-0.016496
-0.0142761
-0.0113261
-0.00160225
-0.00933133
-0.0249457
-0.0227586
-0.0284092
-0.0234331
-0.0267267
-0.020286
-0.0186721
-0.020063
-0.0212552
-0.0169714
-0.00494816
-0.000292299
-0.00552557
-0.00145899
-0.00572418
-0.0153748
-0.014597
-0.0189275
-0.02056
-0.0138922
-0.0169824
-0.0304199
-0.0299046
-0.0210323
-0.0187441
-0.0255526
-0.0117611
-0.00264155
0.00498312
0.0032794
-0.000638057
-0.00909545
-0.00696349
-0.0199028
-0.0161772
-0.0142561
-0.0175638
-0.0259616
-0.0229972
-0.0175026
-0.0127201
-0.0116987
0.00212107
0.00567953
0.0151502
0.00764326
0.00163512
-0.0011235
-0.00217602
-0.0130515
-0.0165168
-0.015568
-0.0253233
-0.0330828
-0.0230337
-0.00999614
-0.0027875
0.000623419
0.00858502
0.0135722
0.0195285
0.0158556
0.00836963
0.00145058
0.0010252
-0.00296529
-0.0137581
-0.0170037
-0.0215565
-0.0252681
-0.0178781
-0.0107491
-0.00248829
0.00226565
0.00622117
0.0202553
0.0243347
0.0228284
0.0125144
-0.0003062
-0.000675394
-0.00922088
-0.0186281
-0.0131213
-0.0157641
-0.0157958
-0.0135253
-0.00753239
0.0028991
0.00312001
0.00441468
0.0172341
0.0153332
0.00945986
0.00613409
-0.00169487
-0.000562933
-0.00868302
-0.0200737
-0.00515413
-0.0120438
-0.0118609
-0.00803171
-0.00688612
-0.00141263
-0.000139797
0.00142938
0.00516662
-0.000789045
-0.00332431
-0.00970818
-0.0118058
-0.00748658
-0.01062
-0.00768175
0.00284911
-0.00244687
-0.0200373
-0.00171411
0.00505187
-0.00193896
-0.002636
0.00748481
0.00135593
-0.0106174
-0.00648278
-0.0134143
-0.0170573
-0.00831793
-0.00653046
0.00350532
0.00670459
0.000633108
-0.0146401
-0.00144797
0.000345276
-0.00438845
-0.00837254
0.00592244
-0.00236905
-0.00507858
-0.00945739
-0.0145303
-0.00849366
-0.00504345
0.00123161
0.00022047
0.0107153
0.000123939
-0.0113728
0.00114743
-0.00112203
0.000195722
-0.0107116
-0.00525924
0.00548347
-0.00398496
-0.0129165
-0.00492195
0.00642702
0.0040897
0.0108797
0.00345836
0.0101244
-0.00312725
-0.0081076
0.00832804
0.00892639
0.00101726
-0.00912075
-0.0121682
0.0070818
0.00302753
-0.00206584
0.00177707
-0.00652824
-0.00883112
-0.0113107
-0.00996931
-0.00194771
-0.00301498
-0.0128405
0.00216708
-0.00285657
-0.00589052
-0.00470161
-0.00287445
-0.000813815
0.00196642
-0.00523455
-0.00472835
-0.00672321
-0.0109783
0.00163322
-0.00525707
0.0143235
-0.00111882
0.00468795
0.00317478
-0.00039067
-0.00138909
-0.00453541
0.00257206
-0.00226877
-0.00288381
-0.00562542
-0.0102017
-0.0104626
-0.00434531
0.00703094
0.00341334
0.0143444
0.00779445
0.00426713
0.0166176
0.00750303
0.00540184
0.00396486
-0.000577713
0.00731409
0.00406632
0.00143915
0.00564324
-0.00288341
-0.000452543
0.00496183
0.0133562
0.0181661
0.017271
-0.00198714
0.0101391
0.0022859
0.00378494
0.00823728
0.00673371
0.0155279
0.01972
0.00473324
0.00203886
-0.000577865
0.00233833
7.95555e-06
0.00122011
0.00797063
0.00801248
-0.00615384
-0.00156118
0.00193024
-0.00877694
-0.000128919
0.0132083
0.0131698
0.018179
0.0186214
0.00183715
-0.00207363
0.00535198
-0.00467802
-0.00238338
0.00917147
0.00143831
0.00500818
-0.000260737
-0.00534985
-0.00545631
-0.00142861
0.00387447
-0.000992557
-0.000156279
-0.0004546
-0.00730572
0.000689598
0.00329584
0.000610708
-0.00585552
-0.000781763
-0.00456918
0.00819673
0.00705593
0.00464041
0.00775268
0.000885933
-0.0147134
-0.0131817
-0.00915941
-0.00604934
-0.0104705
-0.0111419
-0.00109312
0.00409143
0.0134148
0.015985
0.0158463
0.014679
0.0173866
0.0132353
0.0191357
0.0164321
0.00508208
0.00237915
0.0051955
0.00468368
0.0168211
0.0102507
0.0142659
0.0195569
0.0135549
0.0198752
0.0330919
0.00689472
0.0212504
0.0130405
0.0121857
0.0132241
0.0150742
0.0103114
0.015374
-0.000380048
0.00616124
0.00844207
0.00974963
0.013802
0.00954013
0.00540919
0.00866123
-0.00192916
0.000455578
0.00122509
-0.00709125
-0.0155547
-0.0187734
0.00363467
0.0202471
0.0315757
0.0362744
0.0266515
0.0185839
0.011762
0.00272018
0.00961703
0.00819874
0.0201045
0.00959615
-0.00147344
-0.00690374
-0.0143889
-0.0122107
-0.0138551
0.000306504
0.023286
0.0304799
0.0161012
0.0157758
0.0142577
0.0100454
0.00141417
0.0201258
0.0134021
0.0205974
-0.00378477
-0.00547634
-0.00880911
-0.00813602
-0.0100354
-0.00447154
0.00492492
0.0108389
-0.00729618
0.00195057
-0.00372689
0.000905673
0.000164375
0.00648294
0.00794274
0.0118944
0.0111833
0.0119313
-0.00110744
0.00560393
0.00389846
0.0122069
0.0130118
0.0184124
0.000662781
0.00320153
-0.000923944
0.0169422
0.0151297
0.0176173
0.0127812
0.00789996
0.0063804
0.00506974
0.0101445
-0.000864656
-0.00958515
0.00135539
0.00266493
0.00480081
0.0067589
0.00807948
0.0147106
0.0178476
0.0260369
0.0350248
0.011774
-0.00453001
0.00914254
0.00373371
-0.00785586
-0.00329499
-0.00348637
0.000473049
0.00684376
0.010734
0.0181871
0.0303106
0.0242928
0.020994
0.0149295
0.0219615
0.00579884
-0.0123847
0.00151527
0.0135992
-0.00576581
0.00753791
0.0098875
0.00907335
0.000380569
0.0119488
0.0151104
0.0205143
0.0190716
0.0282792
0.0201576
0.018066
0.0200237
0.00826551
0.0124308
0.0100711
0.00249993
0.0071189
0.0160283
0.0132273
0.00384166
0.0091651
0.0153905
0.0202205
0.0197262
0.0140836
0.00736752
0.0186066
0.0256042
0.0130971
0.00942576
0.0173342
0.0162588
0.00283129
0.00302749
0.00118495
0.00188521
0.0114402
0.0130122
0.00697923
0.011076
0.00964833
0.00500868
0.0200846
0.0156164
0.00990686
0.00785834
0.0162096
0.0151103
0.0116629
0.0113966
0.0110777
-0.00331769
0.0131566
0.0186766
0.00809092
0.00589484
0.016156
0.0132677
0.0205101
0.0113037
0.0089568
0.0127899
0.0167046
0.0189733
0.00443263
0.00809572
0.0169138
0.00708712
0.00054184
0.0148238
0.0254972
0.0197537
0.00339651
0.0101915
0.016336
0.00460137
0.00783194
0.0110303
0.0117771
0.0198615
0.0104853
-0.010236
-0.00628937
-0.00312584
-0.00385122
0.00783713
0.0184755
0.0151572
-0.0047585
0.00114109
0.023805
0.0166136
0.00503164
-0.00471078
-0.000953863
0.00422005
0.00326916
0.00594356
0.0101594
0.015336
0.00339136
-0.0024942
0.0103725
0.000898745
0.00551661
0.00388154
0.0146117
-0.00501122
-0.00469712
-0.0134361
-0.0024877
-3.37853e-06
-0.010016
-0.00179136
0.00574997
0.00985168
0.0143753
0.0137959
0.0119609
-0.00936456
0.00240228
-0.0047878
0.00392425
0.00588122
-0.00434474
-0.00605884
-0.00839165
-0.00894621
0.00602247
-0.00391071
0.00667344
7.9603e-05
0.00799163
0.0107645
0.0085427
-0.00328041
-0.00644403
-0.00891286
0.00596614
0.00805227
-0.00672929
0.0030669
0.00695146
0.00356061
0.00991885
0.00911844
0.0144539
0.00509475
0.0143995
0.00733557
0.00760567
0.00166449
-0.00758349
-0.00994265
0.00199156
0.00383644
-0.0005296
0.0107074
0.017965
0.0151876
0.0133519
0.0157881
0.0279255
0.0217477
0.0121975
0.00517543
0.0105119
0.00433236
-0.0150594
-0.00343133
0.0155101
0.00659544
0.00473489
0.00808785
0.0049277
0.0128637
0.0103216
0.0141932
0.0227025
0.012713
0.000121517
0.000119203
0.00740855
0.00734261
-0.00765351
0.00283133
0.0215175
0.0020263
-3.75052e-05
0.00212837
0.00206152
0.00233471
0.00883953
0.00800942
0.0125523
-0.0046443
-0.00500795
-0.00176089
-0.00635127
-0.00375131
-0.0122199
-0.00150619
0.0248229
-0.0109017
-0.00353922
0.00650851
0.00948004
0.00653737
0.0181111
0.0125956
0.00919897
0.000616952
0.00325501
0.00624047
-0.00258452
-0.0084208
-0.00841039
0.00433694
0.0215972
0.0051035
-0.0030855
0.00444694
-0.00562548
0.00547861
0.00883082
0.00577701
0.0142656
0.0136694
0.00638878
-0.000995622
-0.000919589
0.00246225
0.00147802
-0.000237528
0.00603137
0.00310766
-0.00125244
-0.00372235
0.000198311
-0.00304941
0.00459754
0.0142315
0.00507415
0.00242561
0.00464213
0.00841562
0.00566119
0.00692466
-0.00118583
0.00120838
0.0102759
-0.00175713
0.00350788
0.00807147
0.00191409
-0.00087314
0.00531241
0.0160978
0.0061464
0.00836258
0.00251724
0.00211265
-0.00429993
-0.00762907
-0.0109168
-0.00652955
0.000795596
-0.00613777
-0.0101706
-0.00270888
-0.00866497
0.000183754
0.00933937
0.00817378
0.0136604
0.00973012
0.0118705
0.00541591
0.00269343
0.0113537
0.00987354
-0.00227739
-0.00291409
0.00294429
0.00691936
0.00225693
-0.0112093
-0.000530511
0.0084841
0.0102747
0.0212463
0.0191088
0.01363
0.0153361
0.0176328
0.0130309
0.0151585
0.0144378
0.0145259
-0.00370615
0.00181257
0.0013163
0.00170123
0.0154586
0.0141052
0.0140481
0.0160882
0.0139967
0.0134905
0.00768642
0.0129391
0.0178384
0.0128388
0.00697082
0.0176988
0.00676254
-0.0106813
-0.00250507
0.00538139
0.0221937
0.00351218
0.0207084
0.0217849
0.0102734
0.0015468
0.00534029
0.0203811
0.0216699
0.00706536
-0.00476554
0.0113901
0.00557446
-0.00974382
-0.00566341
-0.00710601
0.00122565
0.00681734
0.0142651
0.00553109
0.000670473
0.00341541
0.00133811
0.0149607
0.0100916
0.0141891
0.012886
0.0191153
0.0202312
0.00122049
-0.00387997
-0.00622219
-0.00157593
0.000619227
0.00413616
0.00897305
-0.00948875
-0.00307542
0.00218871
0.00549769
-0.00158338
-0.00244377
0.0056299
0.0126516
0.00430479
0.0109237
0.00684667
0.00344342
0.00222669
-0.0041059
0.00931389
0.00963667
0.00483264
0.00330651
0.00586605
0.017043
0.00821509
0.0104237
0.00128545
0.0102065
-0.0077422
-0.00521721
0.00265745
-0.000846696
0.0126825
0.00202899
0.0201756
0.0116173
0.00934429
0.0137455
0.0114293
0.0145512
0.00806898
-0.00583945
-0.0012047
0.00297668
0.00711824
0.0120872
0.00749745
-0.00342218
0.00249856
0.00604822
0.0115667
0.0160877
-0.00223943
0.00723702
0.018478
0.0139282
0.0063125
-0.00503901
-0.015208
0.0111861
-0.00502757
0.00144472
3.40324e-06
-0.00603104
-0.0207204
-0.0142764
-0.00165429
0.0150009
0.0149659
0.0159947
0.0215133
0.0142062
0.00976281
0.00100111
-0.0025204
0.00296058
0.0053663
0.00108846
0.00365977
0.000671115
-0.0136376
-0.0143938
-0.00306198
0.00209308
0.00573133
0.015416
0.0208128
0.0154628
0.0119684
0.0147216
-0.00198609
0.00195318
0.00893176
0.00544075
-0.0031373
0.00169969
-0.00939836
-0.0165566
-0.00881743
-0.00581944
0.00206029
0.00572065
-0.00211176
-0.00538976
0.00150825
-0.00861979
-0.00894576
0.00193883
0.00529949
0.0112396
0.00184305
0.00350423
-0.00412835
-0.00540142
0.00352521
0.0122375
0.0116284
0.0016008
-0.00684787
-0.00391433
-0.00225764
-0.000637811
-0.00733208
0.00459105
-0.00012063
0.0115351
0.00245063
-0.0010294
-0.00499917
-0.000426905
-0.000303915
0.00238099
0.0041789
-0.000795432
-0.0013715
0.00565
-0.00256203
-0.00743262
0.000914941
0.0142481
-0.00366848
-0.00225202
-0.00169465
-0.00516835
-0.0203246
-0.0065567
-0.0038546
-0.00434372
0.00411442
0.00404574
0.00806536
0.0186103
0.00225773
-0.003688
0.00365364
0.00146359
0.0055514
-0.0120711
-0.00983518
-0.0011594
-0.0146725
-0.0040328
0.00903758
0.0079249
-0.0011689
0.0148074
0.00367818
0.014976
0.00629648
0.00333377
0.00155352
0.00133903
0.00840703
-0.0095112
-0.00621291
0.00146007
0.00806325
0.00363412
0.0116585
0.00977954
0.00533294
0.0135887
0.0139586
0.0209248
0.0244717
0.0131553
0.012164
0.0162959
0.0180208
0.00558825
-0.00854006
0.00445102
0.0144608
0.00671965
0.00793189
0.00994329
0.00390241
0.00637898
0.01471
0.00495175
0.00832055
0.0161478
0.0142072
0.000210124
0.00688507
-0.000784702
-0.00184261
0.00755788
0.0120439
0.0131878
0.00949262
0.01014
0.00253986
0.0037938
0.0104467
0.00247142
0.00349425
0.0237865
0.0143316
0.0114743
-0.000521663
0.00345825
0.00392721
0.00985022
0.00923264
0.00522195
0.0078628
0.0103136
0.00705345
-0.00139364
0.00238724
0.00463134
0.00494439
0.00844557
0.00956133
0.0184624
0.00782412
-0.00363609
-0.00092769
0.00875086
0.00482352
0.00121499
-0.00487938
-0.0117154
0.00530801
-0.00182677
0.003159
0.0103846
0.0126059
-0.00485589
0.00235511
0.0110512
0.00467285
-0.00840353
-0.0060357
0.00757986
0.00546747
-0.000769059
0.00322057
0.00304555
0.0101759
0.00311709
-0.000253036
0.0111978
0.00891775
0.00439229
0.0070104
0.013295
-0.0067434
0.00326972
-0.00394697
-0.000788939
0.000105424
-0.0173907
-0.0128628
-0.00346865
-0.00012933
0.00584801
0.014637
0.00557833
0.00410166
0.01174
0.00165073
0.00404574
-0.000765833
-0.00611668
-0.00611999
-0.0109766
-0.0107955
0.00443812
-0.0050698
0.00666926
0.00713339
0.00665152
0.009807
0.0122529
0.00561365
0.00425769
-0.000811924
0.00278523
-0.00431984
-0.00334228
0.000741759
0.00435047
-0.00835718
-0.00309714
-0.0065008
0.00640661
0.00485963
0.00129795
0.00441186
0.00841452
0.0057806
0.000580659
0.0072477
-0.00418412
-0.000943053
0.00248288
0.00247564
0.00791256
-0.00786696
0.000278264
0.00199435
0.0133736
0.0171432
-0.00199427
-0.00173525
-0.00195457
0.00428491
-0.00501802
-0.00244358
0.00280596
0.00850322
0.0101973
0.00465905
0.00198156
-0.00168458
-0.000666164
0.00108108
0.00928739
0.0113479
-0.00615279
-0.00671906
-0.00193433
0.00743236
0.00278031
0.00601698
0.0100383
0.0149893
0.00444085
-0.000440058
0.00288359
-0.00403601
-0.00492608
-0.005392
-0.00301777
0.00241374
-0.000392478
-0.0031328
0.00186134
0.00018954
0.00180593
0.00427865
0.00928405
0.00107317
0.00832923
0.00171735
-0.0060424
0.000993957
0.0099901
0.00189684
-0.00105603
0.00945893
0.0111804
0.000529496
0.00572192
0.00701014
0.00104402
0.00198285
0.00730612
-0.000881433
0.00298123
-0.000564961
0.00239613
0.00254747
0.00359749
0.0022836
0.00992525
0.0187062
0.0125167
-0.00244474
0.00414657
0.0102894
0.00374639
-0.00105619
-0.00455154
0.00257231
0.00198101
-0.00468108
-0.00567979
-0.00784795
-0.00311366
0.00470205
-0.00453065
0.00767502
0.00567887
-0.0020967
0.00163612
0.00975864
0.000856169
-0.00256041
-0.000812456
-0.00922822
-0.000667079
-0.00372211
-0.00347731
-0.00408349
0.00280895
0.00588179
-0.00286524
0.00798406
0.00201808
0.00156428
-0.000215911
0.0100264
0.00232215
-0.00233008
0.00652249
-0.022821
-0.0125564
-0.0112931
-0.0155352
-0.00523049
-0.0021506
0.00136197
-0.00175823
0.00587947
0.00308327
0.0129624
0.00249986
0.00961491
0.009938
-0.00314427
0.00109941
-0.00276111
-0.00862649
-0.0020253
-0.0067859
-0.00816936
-0.00549098
-0.000379497
0.00388378
0.00801511
0.0104073
0.0171567
0.0208733
0.00663444
0.00507711
0.00910583
0.0133679
-0.00282091
-0.00307575
-0.00832515
-0.00849407
0.00408627
0.000123112
-0.00046532
0.00525893
0.0161011
0.0240524
0.0173088
0.0167275
0.0147947
0.0072809
0.00897022
0.021336
0.002475
-0.0050207
-0.0138321
-0.0092273
0.00983108
-0.00574177
0.00704792
0.0107786
-0.000778269
0.00895569
0.0164453
0.0182129
0.0167042
0.0136031
0.00358246
0.00700296
-0.00987899
-0.00751989
-0.000528523
-0.0116868
-0.000660626
0.000843903
0.0107633
0.00463101
0.00162379
0.0045674
0.00523634
0.00940936
0.000735698
0.012428
0.0147927
0.00686876
-0.00420673
-0.000518837
0.00375897
-0.0106619
-0.0110548
0.0037504
0.0073346
0.0117976
-0.000479896
0.00080159
0.00932108
0.0123993
-0.00276428
0.00772188
0.00660453
0.00625061
-0.019718
-0.000525491
-0.000727497
-0.00510567
-0.00842014
-0.000808074
0.00793186
0.00241057
-0.00268557
-0.00875734
0.0108668
0.0121065
0.0046459
-0.00344542
-0.0038905
-0.00282911
-0.010634
-0.00083849
-0.00250774
-0.00123445
-0.00736363
-0.00434379
0.00720999
0.00231562
-0.0107455
-0.0117642
0.0111533
0.0178659
0.00866619
-0.0094893
-0.00423417
-0.00734266
-0.00828271
-0.00397875
-0.00606134
-0.00552093
0.00103414
4.82211e-05
-5.32201e-05
0.00525627
-0.00226017
0.00180684
0.0183067
0.0145136
-0.000908048
-0.0132771
-0.0130672
-0.00266183
-0.0149963
0.00697184
-0.00935965
-0.0108732
-0.0145654
-0.00857319
0.00359009
-0.00842254
-0.00452198
0.0024439
0.0146078
0.00535473
0.0136358
0.00583156
0.00985154
0.0128553
-0.00716687
1.36582e-05
0.00225524
-0.00750726
-0.019149
-0.00930868
-0.00301453
-0.00428429
0.0039273
0.00638988
0.0158121
0.0085772
0.0140354
0.0216153
0.00253776
0.00244363
-0.00741914
-0.00350359
-0.0114025
-0.00948488
-0.017111
-0.00473191
-0.000108877
-0.00507393
-0.0032738
-0.00228542
0.00477759
0.00253805
0.0168754
0.0111239
0.00152508
-0.000978145
-0.0133505
0.000155829
-0.00791017
-0.00157194
-0.00412012
-0.00526521
-0.00599032
-0.00237724
-0.00357289
0.000202142
0.00327702
0.00275973
0.0192927
0.0167473
0.00474685
-0.0016676
-0.0228297
-0.00773147
-0.0105387
-0.0137903
-0.019722
-0.0078194
-0.00555822
-0.00911283
-0.000530402
0.00213799
0.00486418
-0.000169954
0.00105572
0.00100703
-0.00273113
-0.00348622
-0.00862095
-0.0145811
-0.00971645
-0.0204845
-0.0286467
-0.0151769
-0.01418
-0.00201666
-0.00393825
0.00360212
0.00318623
0.00671876
-0.000991447
-0.00767687
-0.0120952
-0.0113284
-0.00240255
-0.0112529
-0.0185346
-0.0145702
-0.0280867
-0.0160249
-0.0131216
-0.00844431
-0.0107876
0.00339601
0.00111571
0.00872078
0.00408181
0.00520597
-0.00270197
-0.01097
-0.000221611
-0.00756633
-0.00867473
-0.00982338
-0.0113762
-0.00238553
0.00345603
-0.00312425
-0.0053356
0.00965578
0.0103096
0.00882366
0.0070822
0.015491
0.00860774
-0.00893096
0.00410367
-0.00221967
-0.0074163
-0.0038015
0.00137699
0.00910906
0.00996821
0.010037
0.0119872
0.0131394
0.00579623
-0.000447673
0.00164019
0.0126032
0.00840414
-0.0131339
0.00950943
0.00379612
0.000448982
0.00138987
0.000449689
0.010157
0.007506
0.0137407
0.00766996
0.00911564
0.0110201
0.00216337
-0.00404362
0.0131208
0.006151
-0.00889081
0.00301435
0.00486852
0.00521241
0.00460549
0.00263258
0.00138047
-0.00472887
0.0116972
0.00923324
0.00157855
0.00786734
0.00435393
-0.00216845
0.000985036
0.00224572
0.00300914
0.00388654
-0.00345463
0.000689455
0.00356483
-0.0101855
0.000621912
-0.00771265
-0.00705833
0.00184061
-0.00235185
0.00519945
0.00737703
0.0051867
0.0014913
-0.00908542
-0.00671262
0.00141511
-2.69402e-05
-0.0058713
-0.000942467
-0.0110494
0.000443162
-0.00129476
-0.00196786
-0.0024143
-0.0111776
0.002234
0.000711215
0.00860312
0.00677168
0.00536245
0.0030289
-0.0102164
0.00559368
-0.00362725
-0.0096195
-0.00746781
-0.0111847
-0.00631679
-0.00321171
-0.00658876
-0.00773072
0.00272305
-0.00433487
0.00199161
0.0119204
0.00379727
-0.00109829
-0.00851427
-0.00242463
-0.00304746
-0.0102787
-0.00974021
-0.00426257
-0.00328769
-0.00745207
-0.0128339
-0.00423013
0.000952204
0.00231713
0.00493552
0.00792777
0.00879028
-0.00644681
-0.00694144
0.00385698
-0.00503441
-0.00337366
-0.0120519
-0.00461786
-0.00846578
-0.00576942
-0.00771994
-0.00681479
-0.00623074
-0.00362298
0.00441165
0.0115648
0.0153119
-0.00812399
-0.00463225
0.00606979
-0.00840714
