-0.00965026
0.0413537
0.0197799
0.0526286
0.0486923
0.00134312
-0.0251611
-0.0230895
-0.0133389
-0.0124998
-0.0104654
-0.0204893
-0.0121179
-0.00398962
0.0302407
0.0209441
-0.027088
0.0324572
0.0144688
0.0136534
0.0115705
-0.0305006
-0.050959
-0.00606205
0.0146921
0.0144474
0.0119396
-0.00173633
-0.0104451
0.00139386
0.0325389
0.00958763
-0.0498232
0.00188328
-0.0170144
-0.00169737
-0.0112788
-0.0448026
-0.0642846
-0.0036476
0.0332087
0.0232077
0.0298574
0.00519703
-0.0178374
-0.0233608
0.00938838
0.00224266
-0.0643884
-0.00736752
-0.0204902
0.0133876
-0.0107458
-0.0535065
-0.0525879
-0.020183
-0.000988496
-0.00787911
0.00982243
-0.0196039
-0.0546305
-0.0356292
-0.00334606
-0.0117872
-0.078491
-0.015368
-0.0498936
-0.0136277
-0.0333021
-0.0596384
-0.0699279
-0.0370538
-0.0180948
-0.022573
-0.0238718
-0.0353288
-0.0454473
-0.0317916
-0.0297558
-0.0245648
-0.077435
-0.0282097
-0.0490862
-0.0276051
-0.0601156
-0.0741697
-0.102228
-0.073693
-0.0383779
-0.0125902
-0.0184236
-0.0509809
-0.0813808
-0.0680639
-0.0407686
-0.0224807
-0.0885851
-0.0119468
-0.0379018
-0.0551074
-0.0571635
-0.0605381
-0.0860491
-0.0814176
-0.0580795
-0.0253047
-0.0156796
-0.0551441
-0.0770319
-0.0532362
-0.0376529
-0.0203995
-0.0746441
0.0242391
-0.0057341
-0.00940158
0.00471772
-0.00812276
-0.0424276
-0.0403601
-0.0288003
-0.0146874
-0.001979
-0.0348021
-0.0309462
-0.0045751
-0.00471944
-0.0165701
-0.041839
0.0328817
0.00501156
0.0340496
0.0667935
0.0538178
0.00813888
0.0108998
-0.00508206
-0.00413945
0.0178406
0.0163282
0.0292773
0.00523082
0.0306245
0.0226596
-0.0471026
0.00156305
0.00182448
0.0250834
0.0790784
0.0663337
0.0270857
0.0283559
0.00771392
0.0172789
0.0352311
0.0169245
0.0185372
-0.00222029
0.0393242
0.0276254
-0.0643886
-0.0202047
-0.0242311
0.0111897
0.0502919
0.0668521
0.0499351
0.0267732
0.0117049
-0.0047418
0.00599016
-0.00699494
0.0222531
-0.000618466
0.0199479
0.0325479
-0.0689455
-0.0081397
-0.0242053
0.0158178
0.0545918
0.0650167
0.0444795
0.021688
0.00769089
-0.000663544
-0.0107921
0.0109912
0.0365947
-0.00213123
0.00925041
0.028128
-0.0546146
0.035718
0.0163047
0.00836899
0.0377117
0.0532984
0.0348705
0.0124035
-0.000524956
-0.000218766
-0.008546
-0.00461382
0.0229542
0.0219589
0.010044
0.0192623
-0.0303671
0.0473499
0.0240247
0.00620515
0.00412375
0.0297372
0.0294266
-0.00569549
-0.00790361
-0.00850696
-0.0216808
-0.0208924
0.0286882
0.0276674
0.0144508
0.0292138
-0.043194
0.0329088
0.0283175
0.0276631
0.0165893
0.0355897
0.0248404
0.00436137
-0.000879275
-0.00920992
-0.0187617
-0.00444827
0.0475814
0.0447439
0.0279086
0.0564547
-0.044337
0.0212036
0.0362535
0.0274657
0.0287617
0.044681
0.0283844
0.0131571
0.0212473
0.00510979
-0.00341807
0.0204301
0.0603878
0.0616388
0.0484777
0.0322572
-0.019349
0.0459361
0.0480637
0.015996
0.0207952
0.0338306
0.0103992
-0.0187072
-0.0109318
0.00414147
-0.00554055
0.0205599
0.0690488
0.081972
0.0666043
0.0270359
-0.0177919
0.0244625
0.0335282
0.0185602
0.00447521
0.00393737
0.0193213
-0.0258374
-0.0475295
-0.0176675
-0.0194558
0.025421
0.0627209
0.0614291
0.0216792
0.00981587
-0.0529008
0.00394627
-0.000839216
-0.0256199
-0.0135404
0.00579945
0.00566676
-0.00119148
-0.0369113
-0.0170657
-0.0210925
-0.00705612
0.0309015
0.0305747
-0.00385655
0.00425513
-0.0851522
-0.00918801
-0.0097695
-0.0073109
-0.00116059
0.0212564
0.00151991
0.0213014
0.00435697
0.00283411
-0.0208856
-0.00640548
0.0490547
0.0268166
0.0190023
-0.00838639
-0.0922335
-0.0128904
-0.0142319
0.00761824
0.00538538
0.0156237
0.00839844
0.00966892
0.0183639
0.00980127
-3.92443e-05
0.0144611
0.0664334
0.0418024
0.0276435
-0.00366592
-0.0820918
-0.0196709
-0.0304131
-0.0165107
0.0137765
0.00931676
-0.00583134
-0.0149483
-0.0162482
0.0174884
0.00544693
0.0139723
0.058012
0.0520654
0.040587
-0.0130297
-0.0819015
-0.0129796
-0.0202487
-0.0114674
-0.000628876
-0.00965678
-0.00777557
-0.0120412
0.00100758
0.0393256
0.0214555
0.0122191
0.0225482
0.0556917
0.0216431
-0.00885181
-0.0888798
-0.0197235
-0.0278997
-0.0146508
-0.012395
-0.00157548
0.016212
-0.00494865
0.0231618
0.0455384
0.0321943
-0.0105887
0.0067923
0.0516624
-0.00489763
-0.0067445
-0.108951
-0.0305885
-0.0301368
-0.0134621
-0.011403
0.0137224
0.0243711
0.0287096
0.0152795
0.0137545
0.0239596
-0.00344215
0.00307664
0.0258104
-0.0286782
-0.0384616
-0.100752
-0.0160137
-0.00844915
-0.00626043
-0.000867721
-0.00130603
0.000433577
0.0321672
0.00612801
-0.00755549
0.00877573
-0.00460668
-0.00415255
0.0125792
-0.044837
-0.0525595
-0.087838
-0.0135828
-0.0182611
-0.0156061
-0.0104627
-0.0176956
0.0119008
0.0324639
0.0221076
0.0365043
0.0321804
0.00437321
0.0195588
0.0297282
-0.037219
-0.0339897
-0.0535992
0.00543725
-0.0221452
-0.0143129
-0.00581196
-0.0114521
0.038017
0.0361162
0.0399842
0.038423
0.0502397
0.0297727
0.0156633
0.0293797
-0.0333823
-0.023368
-0.0653678
0.00308016
-0.0188393
-0.0224401
-0.0163355
-0.0118078
0.0261107
0.0400424
0.0367484
0.0407614
0.0440608
0.0189738
-0.00352934
0.025508
-0.0211665
-0.0567188
-0.0677359
-0.0090348
-0.0215208
-0.0352814
-0.0369595
-0.0209294
0.00425023
0.0144323
0.00609144
0.0096742
0.0230411
0.0176282
0.00259287
0.0118069
-0.0193104
-0.0461571
-0.0662
-0.00784523
-0.0168593
-0.0286936
-0.0320934
-0.0165451
-0.025818
-0.0278852
-0.019196
-0.0138513
-0.0140097
-0.00225092
-0.013438
0.00504971
-0.0133935
-0.0242007
-0.0544686
-0.00864008
-0.0130696
-0.0205363
-0.0240487
-0.0164044
-0.03923
-0.0364715
-0.0303665
-0.0154424
-0.0192103
-0.0183939
-0.00822122
-0.000315028
0.00285191
-0.019609
-0.00725849
0.0138601
0.0219682
0.0309374
0.0109339
0.0222237
0.0141492
-0.0135492
-0.0309506
-0.0661738
-0.0426583
-0.0118738
-0.0299025
-0.0108816
-0.00634497
-0.040241
-0.025385
-0.00494166
0.00908044
0.00707272
0.0039839
-0.0164766
-0.0277177
-0.0361704
-0.0307656
-0.0219135
-0.00534012
-0.00239771
-0.0618178
-0.038268
-0.00357489
-0.00956322
-0.0464701
-0.00865692
0.00882591
0.0179378
0.0105238
-0.0141975
-0.0217558
-0.0278844
0.0375277
0.0647439
0.0638728
0.0408501
-0.00402841
-0.0150625
-0.0191984
-0.0140138
-0.0436526
0.0206776
-0.00170872
0.010605
-0.00849048
-0.0448472
-0.0188775
0.00909171
0.0369684
0.0571711
0.0617008
0.0208398
-0.0151439
-0.0109442
-0.02614
-0.0524093
-0.0636002
-0.0119798
-0.038972
-0.0170593
-0.0384008
-0.0506619
-0.0509293
-0.00829157
-0.0144944
-0.020404
-0.000178797
-0.00863483
-0.0151716
-0.0147286
-0.0370132
-0.0412847
-0.055737
-0.0232511
-0.02025
-0.0344082
-0.051739
-0.0796057
-0.0840297
-0.0747408
-0.0404313
-0.0072589
0.00158691
-0.044206
-0.0844036
-0.0428679
-0.0484492
-0.0389723
-0.0521964
0.0123178
0.0161132
-0.0525692
-0.0784485
-0.0772521
-0.0510605
-0.104849
-0.0674795
-0.000785147
-0.0178532
-0.0502723
-0.0558537
-0.0385846
-0.0764288
-0.0353374
-0.0389396
0.0623855
0.0287397
-0.018281
-0.041004
-0.0309637
-0.0448631
-0.0751118
-0.0499225
-0.0192837
-0.0233035
-0.040387
-0.0364463
-0.044481
-0.0554807
-0.0385702
-0.00491895
0.0166539
-0.0169843
-0.00487264
-0.0143086
-0.0146084
-0.0481481
-0.0424994
-0.0440334
-0.0156263
-0.0218182
-0.0254301
-0.00702482
-0.0240809
-0.00371363
0.00937927
-0.000161755
-0.000366893
-0.0175877
-0.00777221
0.00920745
-0.0145106
-0.0132359
-0.011837
-0.0102688
-0.0111683
-0.00281076
-0.00229301
0.0143653
0.00950846
0.0182898
0.0192038
-0.00424905
-0.00329668
-0.0115141
-0.00116892
-0.00243922
-0.000982056
0.00961864
0.0134533
-0.00557453
-0.00912866
-0.022707
-0.0223116
0.0211278
0.00304154
0.00499039
0.0429898
-0.0274205
0.0147527
0.0061686
0.00897126
0.0128697
0.00245178
0.00281304
0.0227981
0.0156984
0.0306591
-0.0149969
0.00472362
0.0417033
0.00819309
0.0165266
0.0358246
-0.00139022
0.0665514
0.0522406
0.00937183
-0.00619335
-0.0301064
-0.0184743
-0.0206744
0.00548714
0.0146262
-0.0025244
-0.00367799
0.0209402
0.0235662
0.0096958
0.0171224
0.0332448
0.0546749
0.014218
-0.0169587
-0.0597354
-0.0637573
-0.0543207
-0.0509218
-0.028542
-0.0207154
-0.0293771
-0.0158447
0.0210407
0.026159
-0.00266155
0.0333105
0.00643195
0.0261881
0.0181173
0.00531075
-0.0424161
-0.0409701
-0.0327881
-0.0407143
-0.0201835
-0.017778
-0.0301593
-0.00125854
0.0505264
0.0414026
0.0214616
0.0784357
-0.0197794
0.0274602
0.0602562
0.0119306
-0.0381415
-0.0314997
-0.027906
-0.0161723
-0.0261059
-0.0382737
-0.0371867
-0.00554805
0.0455633
0.0587747
0.0457983
0.0458211
0.00350552
0.057062
0.037642
0.000660362
-0.015636
-0.00639614
-0.0169632
-0.0390027
-0.034168
-0.0174324
-0.00956999
0.0136114
0.0741372
0.0685724
0.0309145
0.0149988
-0.00383021
0.0118066
0.0241089
0.0145784
-0.0120628
-0.014117
0.0411865
-0.0205619
-0.0212976
-0.000775199
0.00451424
0.0343588
0.077962
0.0561402
-0.00350517
0.0132515
-0.0372171
0.0168017
0.00779994
-0.0122551
-0.0105786
0.0138705
0.0246274
0.0089929
0.0105618
-0.00890285
0.00906544
0.0349343
0.0846029
0.0636661
0.000684502
0.0347237
-0.0557631
-0.0115303
0.00332124
0.0143376
0.00380176
0.0180412
0.0242383
0.0369751
0.0381011
0.0261826
0.0292664
0.0549731
0.0844567
0.0553521
0.0231863
0.0225122
-0.0520308
-0.0218483
0.00176333
0.0129047
0.00935223
0.0228377
0.0600719
0.0490484
0.0258121
0.0185788
0.0277673
0.0444563
0.0742743
0.0417875
0.00267928
-0.000141842
-0.0490965
-0.0200486
-0.0149288
-0.0064361
0.0129787
0.029009
0.0535808
0.0391415
-0.00461423
0.0268236
0.0400929
0.0543058
0.0678399
0.0379078
0.02416
0.00119858
-0.0743181
-0.0208015
0.0279211
0.0241008
0.0145985
0.0312348
0.0581847
0.0199049
0.00269268
0.025573
0.0450192
0.0535079
0.0510502
0.0468428
-0.00137812
0.011678
-0.0919267
-0.0520094
-0.0129838
-0.0103819
0.0107826
0.0303072
0.0501243
0.0170817
0.0430644
0.0448161
0.0590901
0.048791
0.063309
0.0567465
-0.00201629
0.0149778
-0.119182
-0.064809
-0.0274535
-0.0149914
0.0310744
0.0590844
0.050283
0.0454191
0.0648229
0.0579302
0.0723486
0.0649584
0.0741677
0.0514567
0.00516899
-0.0199043
-0.0799442
-0.0328202
-0.0397039
0.00736458
0.016825
0.0286924
0.0287964
0.0502556
0.0417083
0.0193888
0.0582897
0.0359278
0.0495895
0.0407788
-0.0419496
-0.0397805
-0.0719509
-0.050015
-0.0577383
0.00510448
0.0140151
0.0177646
0.0462397
0.057493
0.0588248
0.0711848
0.0752837
0.0467286
0.051533
0.0333458
-0.07088
-0.0563146
-0.103498
-0.0694841
-0.0571751
-0.00717292
0.00665281
0.0037151
0.0485366
0.0641262
0.0862118
0.0649052
0.0567646
0.0632551
0.0668915
0.0327635
-0.0510359
-0.0284578
-0.0990445
-0.0513622
-0.0436129
-0.0270906
-0.0403062
-0.00940772
0.0381631
0.042761
0.0751637
0.081679
0.0445967
0.0422741
0.0247097
0.0292473
-0.0158448
-0.0472814
-0.100011
-0.066308
-0.0353118
-0.0500053
-0.0705997
-0.0361973
0.0244676
0.0308874
0.0429909
0.0548198
0.0348399
0.0516494
0.0161944
0.00272245
-0.0317094
-0.0541095
-0.0764124
-0.0571912
-0.0475831
-0.0844862
-0.0692287
-0.035251
-0.0265054
-0.00753293
-0.0131831
-0.00346008
-0.0108852
0.00493985
0.00224108
-0.00991942
-0.0323421
-0.0286505
-0.0868229
-0.0537443
-0.0909552
-0.130872
-0.106577
-0.0841925
-0.0744198
-0.0591631
-0.0830874
-0.0462804
-0.0460231
-0.0434436
-0.0354664
-0.0552196
-0.0663781
-0.0312351
0.00970542
-0.015423
-0.0223529
0.0100108
0.00561164
0.000739302
0.0044138
-0.0409835
-0.0597379
-0.0847165
-0.0836493
-0.0539894
-0.051693
-0.0669592
-0.0350962
-0.0366715
0.013247
-0.0142244
-0.00983509
0.00201338
0.00728193
-0.0188816
-0.0164905
-0.0430195
-0.0304286
-0.0328153
-0.0266646
-0.0127949
-0.0383013
-0.069565
-0.0367708
-0.00592326
-0.0219786
-0.00972958
0.00612718
0.0168341
-2.94031e-05
-0.00591147
-0.00868711
-0.0161749
0.0433517
0.0555302
0.057685
0.0539127
-0.00492202
-0.0298292
-0.02201
-0.0127627
-0.0155722
-0.00368398
-0.0108155
-0.0143443
-0.0327209
-0.0236234
0.0197835
0.0293335
0.068222
0.0841746
0.0714896
0.0663768
0.016463
-0.00799589
-0.00866434
-0.0268686
-0.011945
-0.00238901
0.00187307
0.00941948
-0.0220371
-0.00299539
0.0175533
0.0195764
-0.00542234
0.00909994
0.0133413
0.0443385
0.00911745
-0.0284003
-0.0381408
-0.0200881
0.00867245
0.0208275
0.04815
0.039914
-0.0107454
-0.0419068
-0.0221975
-0.0397814
-0.0237587
0.0107958
0.0164505
0.00134775
-0.0386306
-0.0259127
-0.023073
0.00273816
0.0058167
0.0439345
0.0557506
0.00680554
-0.0373601
-0.04776
-0.0157023
-0.0367947
-0.0431282
-0.0268429
-0.0342975
-0.064949
-0.0478321
-0.0193848
-0.0311464
0.00191805
0.0262698
0.0499649
0.0270559
0.000993522
-0.0156929
-0.00994721
-0.00353323
-0.0610595
-0.0368612
-0.0184296
-0.0586818
-0.0672685
-0.0617805
-0.047422
0.00647119
0.0222769
0.0568313
0.0089292
-0.0123634
-0.00988969
-0.0100879
0.0083059
-0.0325236
-0.053142
-0.0251524
-0.0368295
-0.058887
-0.0657589
-0.056067
-0.0310295
0.0342337
0.06987
0.0508927
-0.000928777
0.00333907
0.00149371
0.00169938
-0.0161166
-0.0150803
-0.00445212
0.00843331
-0.0114072
-0.0181379
-0.018299
-0.0218695
-0.0123528
0.0405904
0.0370741
0.0339255
0.010041
0.0163038
-0.0034085
-0.0119474
0.000321907
0.0163581
0.0292223
0.0221391
0.0239376
-0.0131163
-0.0263506
0.0307694
0.0317086
0.0499131
0.0707046
0.0151495
0.0260131
0.0224315
-0.000638003
0.0173812
0.026051
-0.00424967
0.0398165
0.0331401
0.0478792
-0.00772978
-0.000962322
0.0307851
0.0462357
0.0630426
0.0907119
0.0477796
0.0718318
0.0538081
0.00667971
-0.0039092
-0.0182669
0.00607696
0.0193963
0.0128689
0.0261829
0.00874656
-0.0121819
-0.00766833
0.00990758
0.0171466
0.0673572
0.0837552
0.0819066
0.00533978
-0.0176349
-0.0290486
-0.0443801
-0.0432026
-0.0128481
-0.0139752
-0.0123943
-0.0314434
-0.00854991
0.00883252
0.0206555
0.0193788
0.0683731
0.0310125
0.0282032
0.0192124
0.00523699
-0.0243133
0.00695056
0.00187754
-0.0120263
0.012346
0.00260565
-0.014665
0.0038598
0.0257724
0.0351343
0.0370393
0.0892231
0.00560224
0.00850868
0.0343632
0.0138468
-0.0207304
-0.00220662
-0.0171319
0.00219838
0.0197902
0.0231554
-0.013455
-0.00242859
0.00628881
0.0127428
0.0260118
0.0443969
0.0380447
0.0244793
-0.00754959
-0.0241724
-0.00941085
0.00299614
-0.00259409
-0.0150033
-0.00331668
0.000686553
0.00295232
0.0206724
0.0581991
0.0203662
0.00922496
0.0273763
0.0126766
-0.002993
-0.00647462
-0.0247145
-0.0249368
0.000506088
0.0144791
-0.0223433
0.00751193
0.0206518
0.0360315
0.0465689
0.0503356
0.0202348
0.0191868
0.0617431
-0.0011967
0.020575
0.0160821
-0.0297263
-0.00983244
0.0382075
0.0147395
0.0101564
0.0276632
0.0545324
0.0321322
0.0280142
0.0702198
0.0429251
0.0274312
0.0529869
0.0200463
0.0192761
0.00854653
-0.0137915
0.00144427
0.0331866
0.0244948
0.0120272
0.0207279
0.039203
0.0338775
0.0497191
0.0604285
0.0383291
0.0691055
0.0598678
0.0254358
0.00811512
-0.0147758
-0.0027907
0.0285387
0.0302225
0.0484338
0.0408984
0.0331985
0.0165946
0.0333256
0.0386136
0.0507465
0.0318274
0.0234086
0.0550202
0.0347122
0.0214139
0.0119036
0.0141074
0.0275478
0.0328375
0.0313896
0.0251173
0.00785685
0.00341837
0.0400869
0.0525407
0.0581228
0.0310196
0.0619401
0.0505952
0.00225817
0.0381336
0.036199
0.0264261
0.0156562
0.0320516
0.0341519
0.00382185
0.00128895
0.00930572
0.0244109
0.0588244
0.035047
0.0284727
0.0216368
0.0516381
-0.013945
0.00697506
0.0118106
-0.00980074
0.0198176
0.0452753
0.0229603
-0.0243304
0.00527892
0.0126116
0.0138169
0.0280755
0.0445283
0.021743
0.0130016
0.0579207
-0.0195002
0.0418058
0.0301177
0.00160328
0.0570149
0.0790134
0.0403772
0.0113292
0.0391891
0.0131254
0.0282735
0.0476334
0.0577901
0.0509504
0.0386443
0.0499528
-0.0100929
0.0337523
-0.00249506
0.043895
0.0546487
0.0259609
0.0272608
0.0359036
0.0163817
-0.000241648
0.0104593
0.00929669
0.0170812
0.0169387
0.00402669
0.0462146
-0.0472311
-0.0412597
-0.0390048
0.0359567
0.0141406
-0.0016255
0.0127724
0.0376326
0.0392675
0.042941
0.0267619
0.0355628
0.0088272
0.0169898
-0.00574951
0.0145166
-0.0742275
-0.0380315
-0.0199058
0.0161063
-0.000905943
-0.0134201
0.00380026
0.0240167
0.0632404
0.05896
0.0312219
0.0688832
0.0354831
-0.00512813
-0.0475798
0.0027149
-0.0509403
-0.015877
-0.0203278
-0.0235316
-0.0400745
-0.0207124
0.0239633
0.00857877
0.0364158
0.0528673
0.0297524
0.0292184
0.0105447
0.020457
-0.0100352
-0.0248276
-0.0225123
-0.0535721
-0.0319677
-0.0382634
-0.0435326
-0.00552173
0.0256991
0.0170467
0.025738
0.0214541
0.018788
0.0350867
0.0284498
0.0144337
-0.00711796
-0.0100152
-0.0236093
-0.0480607
-0.0399166
-0.0711425
-0.0506151
-0.0220384
-0.0259188
-0.0103685
-0.0173854
-0.0126674
-0.00612856
0.0110754
0.0124011
0.0126234
0.0111649
0.0412836
-0.0355858
-0.0365656
-0.093009
-0.134297
-0.100703
-0.0567766
-0.0573338
-0.0544202
-0.0860308
-0.0633715
-0.055207
-0.0465498
-0.0496327
-0.0386534
-0.0139833
0.0487752
0.010951
0.0173822
0.00214894
-0.0185245
-0.0210749
-0.0257628
-0.0124812
-0.0639256
-0.0648413
-0.0912072
-0.0926719
-0.0508422
-0.0608972
-0.0654752
-0.0261466
-0.00330843
0.0655727
0.0208633
-0.0118623
-0.0220697
-0.0129907
-0.000868616
-0.015925
-0.0272761
-0.00036061
-0.0423902
-0.0316119
-0.0203982
-0.0273429
-0.035494
-0.0134705
0.0134475
0.0170518
0.00140885
-0.00327274
0.0209242
0.0205303
0.0245686
0.0341994
0.000491543
0.0595405
0.0341366
0.0452992
0.0630429
0.0174756
-0.0299711
-0.0353877
0.0122358
0.00592965
-0.0197508
-0.0301112
-0.027612
-0.0382455
0.00934555
0.0784789
0.099632
0.102295
0.0874467
0.0570085
0.0310276
0.00294425
-0.0624527
-0.0593535
-0.0272402
0.0188742
0.0201079
0.0383933
0.0368945
0.0281702
0.0560827
0.0902597
0.095479
0.0412819
0.0419312
0.0335135
0.0473486
0.029526
-0.0288549
-0.0325452
0.0199398
0.0302338
0.0550959
0.0865786
0.0883576
0.0717373
0.0527238
0.0435001
0.0268049
0.0301102
0.0558745
0.0525614
0.0471034
-0.0115468
0.000635121
0.0214083
0.0578745
0.0395449
0.0642859
0.0468892
0.0206085
0.029935
0.0140535
0.000614017
0.00979351
0.00683049
-0.016941
-0.0394429
-0.0423253
-0.0326061
-0.00515295
0.0353749
0.0312415
0.0362676
0.0079819
-0.0432638
-0.0404189
-0.00442996
0.0525888
0.0356322
-0.0163741
0.00257296
0.0028179
-0.0335913
-0.0617106
-0.0760615
-0.0556262
0.0271222
0.0426044
0.0248425
-0.0222182
-0.0577293
-0.0443787
-0.029903
0.0171637
-0.00788993
-0.0193954
-0.0058889
0.00220256
-0.0422957
-0.0637361
-0.0786438
-0.0474585
0.043337
0.0776886
0.0430915
-0.0290842
-0.0186186
-0.00106108
-0.0133231
-0.0269432
0.0107117
0.00864335
0.0209149
0.016251
0.00990861
-0.00757583
0.00815071
0.0465113
0.0562734
0.0242259
0.0357649
0.0273021
0.0527477
0.0193002
-0.0183548
0.00198893
0.0418007
0.0282273
0.0380309
0.0631065
0.0197819
-0.0125746
0.0666878
0.0954811
0.101659
0.083408
0.015432
0.0378961
0.0593589
-0.00278688
-0.000140223
0.0274977
0.0112002
0.0471885
0.0552441
0.0814421
0.0502693
-0.0228672
0.0289644
0.0529876
0.0675311
0.119824
0.0371988
0.0466543
0.0548425
0.0132101
-0.0215799
-0.00687242
0.0464089
0.0591579
0.0329153
0.00652469
0.00801834
-0.0412924
-0.0389625
-0.0276942
0.0198155
0.095762
0.107176
0.0562373
-0.0059874
-0.00796283
-0.041064
-0.035487
-0.0177319
-0.0146087
0.00237143
-0.00964724
-0.0126605
-0.0247008
-0.0426091
-0.017677
0.0299039
0.0735029
0.0706031
-0.0140108
0.00341277
-0.0232541
-0.0707863
-0.0178242
-0.0320065
-0.0312142
-0.000240099
0.0109063
-0.00872454
-0.00586839
-0.042857
0.0034015
0.0437182
0.0842643
0.025985
-0.0374718
-0.0176269
-0.0151645
-0.0482281
-0.0233072
-0.0214243
-0.0101265
0.00869158
0.0248529
0.00589569
0.0273628
-0.00248159
0.0237962
0.0793896
0.0774177
0.0331879
-0.0140784
-0.0518587
-0.0572578
-0.0166184
0.0128658
0.0386117
0.0233933
0.040539
0.041283
0.0543841
0.0759971
0.0871323
0.0405484
0.0524344
0.0676567
0.0433673
0.000625551
-0.00828586
-0.0208676
-0.0220062
0.0169238
0.0290425
0.0114375
0.0549051
0.0707586
0.0846644
0.0677697
0.0568074
0.0365173
0.0648537
0.0998272
0.0576614
0.0408835
0.0459942
0.0183682
0.0403079
0.0826616
0.0792174
0.073177
0.0793919
0.111388
0.0809996
0.0475483
0.059115
0.0701482
0.0723896
0.0892179
0.0823422
0.0310886
0.0119835
0.00763694
0.0324702
0.0657629
0.0724154
0.0557009
0.0306343
0.0706938
0.037546
0.0437482
0.0564894
0.0508332
0.0822385
0.109734
0.104064
0.0509664
-0.0192268
0.0208295
0.0633078
0.0318521
0.0391662
0.0365757
0.029314
-0.00153092
0.042402
0.0306449
0.0410956
0.00497032
0.0413967
0.110122
0.105828
0.04329
0.007957
0.0245057
0.0197967
0.0241596
0.0082998
0.0413958
0.0214467
-0.0078101
0.0667028
0.078319
0.055133
0.0117907
0.0734734
0.103356
0.0359819
0.0214602
0.0137087
0.0188832
0.0433339
0.0484737
0.052126
0.0275197
0.0405093
0.0210326
0.0632178
0.101276
0.0627941
0.0305813
0.0548668
0.0812263
0.0371026
0.0504377
0.0653502
0.059721
0.0823904
-0.00132553
-0.0147708
0.00618443
-0.00625117
-0.0101477
0.0255771
0.0489175
0.0684814
0.0637958
0.0806335
0.142432
0.00378188
0.0548784
0.0606848
0.00628679
0.0146043
0.0153913
-0.00221826
0.0306415
0.0733699
0.0609739
0.0529397
0.0913111
0.111512
0.0809141
0.0574462
0.08169
-0.0176301
-0.0276441
-0.0102994
0.0455742
0.0601071
0.0224664
0.0243332
0.0534052
0.0272723
0.0492525
0.0493119
0.0397561
0.014754
-0.00403578
0.020382
0.0840183
-0.032273
-0.0255533
-0.00651902
0.0481004
-0.0158694
-0.00942939
-0.0206718
0.0525052
0.0442911
0.0673415
0.0494215
0.0275085
-0.00521108
-0.000703535
0.0225467
0.046345
-0.0798957
-0.0357377
0.000699664
0.00771201
-0.021383
-0.014395
-0.0644635
-0.0320568
-0.0088407
0.0324197
0.00834334
0.0449207
-0.00930128
-0.0563158
-0.0402194
0.0195217
-0.0311094
-0.00121746
-0.0328313
-0.078101
-0.0853791
-0.0355775
-0.0295866
-0.0436006
-0.00789363
0.025507
0.00875331
0.0131908
-0.0237393
-0.0174399
-0.0366623
-0.0157991
-0.0114341
-0.0643438
-0.0540136
-0.04682
-0.019918
0.0271437
0.0374144
0.0359184
0.0337013
0.049452
0.0240741
0.0363482
0.0588347
0.0495592
0.0371314
0.0270778
0.00906802
-0.0282603
-0.0355028
-0.0608479
-0.0280284
-0.0103382
-0.00863474
-0.00384568
-0.0105858
0.0301229
0.0529978
0.0690932
0.105108
0.0784546
0.102621
0.0999213
-0.0127503
-0.035236
-0.0402241
-0.106707
-0.133165
-0.090769
-0.0591675
-0.0648506
-0.052204
-0.0190268
0.0112239
0.0395483
0.0395295
0.0137245
0.0407529
0.073551
0.07957
0.0403212
0.00299245
-0.027733
-0.0453209
-0.0599543
-0.0703796
-0.0739454
-0.074047
-0.0853716
-0.0813592
-0.0474107
-0.0222459
-0.0123833
0.021655
0.0676159
0.203938
0.16827
0.141126
0.0949338
0.0599236
0.0382698
-0.0039164
-0.0591504
-0.0127376
-0.0243571
-0.0103029
0.045547
0.0888784
0.123291
0.137748
0.173696
0.195145
0.175389
0.13634
0.13337
0.0977932
0.087184
0.0494772
0.0222148
0.0511446
0.0412805
0.0748986
0.104909
0.123731
0.123519
0.117184
0.149924
0.173783
0.176389
0.166566
0.154606
0.11068
0.0814714
0.0483655
0.125777
0.117353
0.0874417
0.102873
0.106199
0.108672
0.126249
0.115762
0.146079
0.147308
0.129544
0.105311
0.114616
0.0984859
0.0590888
0.05138
0.0999971
0.0691778
0.0583656
0.0456018
0.109302
0.117712
0.137833
0.128246
0.165813
0.123145
0.120971
0.0902253
0.0770792
0.0756907
0.0368136
0.0221907
0.0501442
0.0263911
0.059533
0.0332624
0.0525528
0.0556145
0.0753519
0.139751
0.134418
0.123048
0.113073
0.0625554
0.0221948
0.020524
-0.0043832
-0.000362668
0.0580377
0.0431421
-0.0161406
-0.061766
-0.0383177
0.0022029
0.0410416
0.10035
0.0964627
0.0704546
-0.00183895
-0.0699335
-0.083905
-0.0718911
-0.0414185
-0.0120122
-0.00245076
-0.0133729
-0.0459069
-0.0655473
-0.0364155
-0.0378676
-0.00949196
0.063587
0.117224
0.0524319
-0.031155
-0.105097
-0.0725304
-0.0893302
-0.0714581
-0.050472
-0.061426
-0.0413897
-0.034558
-0.046714
-0.0321487
-0.0429184
0.0182777
0.0461754
0.0864247
0.0697767
-0.0382555
-0.00664424
0.000900051
-0.0316711
-0.0504606
-0.0164884
-0.0219245
-0.00597812
0.0153957
0.0380854
0.0125688
0.00263896
0.0467507
0.0332089
0.041136
0.0930596
0.0784303
0.0872384
0.0373489
0.0114714
0.0335101
0.0517098
-0.00145612
0.00872207
0.0582814
0.0723394
0.0213659
0.0423277
0.0808847
0.146339
0.120481
0.0607482
0.0741921
0.0879537
0.040846
0.0316734
0.059978
0.0424254
0.0296764
0.031808
0.0722258
0.0680948
0.0105678
0.0484682
0.060305
0.0765387
0.100114
0.0946688
0.0763343
0.108448
0.0504001
-0.00971366
0.0246517
0.0732647
0.071262
0.021884
0.0183753
0.00866953
0.00298816
-0.00803403
0.0118
0.0580285
0.104569
0.158817
0.0871855
0.0252511
-0.0261717
-0.0209385
0.00967076
0.0362038
0.0117718
0.0149207
0.00616151
-0.0142111
-0.0142826
-0.051743
-0.0166253
0.0219507
0.0731559
0.0335232
-0.050414
-0.0340745
-0.0522305
-0.0824982
-0.0122051
0.0183289
-0.0183351
-0.0205173
-0.00478759
-0.0170372
-0.0373733
-0.0595622
-0.0158083
0.0229123
0.0904532
0.0414478
-0.030545
-0.046946
-0.0887282
-0.136411
-0.0702185
-0.0319604
-0.0188658
-0.0189358
-0.000769867
-0.00657346
-0.0283977
-0.0431939
0.00894251
0.111517
0.142424
0.0100724
-0.0673595
-0.104666
-0.107628
-0.0571311
-0.0137135
0.0519515
0.0615471
0.0578027
0.0593823
0.0787037
0.0522612
0.0555084
0.0483124
0.0757605
0.124541
0.0303215
-0.0292087
-0.0237837
-0.0697147
-0.0231925
0.0200275
0.0487092
0.0750226
0.101021
0.130261
0.0918175
0.0542369
0.0164642
0.0283927
0.0847719
0.0851319
0.0848392
0.0483493
0.0774937
0.016589
0.0305465
0.0602856
0.0622164
0.101211
0.120735
0.14173
0.0921944
0.0555726
0.0650291
0.063636
0.0907596
0.119579
0.131338
0.0755486
0.0103148
-0.00858622
0.00816113
0.015261
0.027502
0.0376211
0.0294436
0.0647128
0.0312035
0.0175657
0.0695277
0.0854611
0.0829916
0.132082
0.160837
0.0961639
-0.0189161
-0.0619942
-0.00434086
-0.00787803
-0.0173531
-0.017726
-0.0247741
-0.0514969
-0.0464395
-0.0734124
-0.0685564
0.00944546
0.0531257
0.0929029
0.131089
0.0623855
-0.00469218
-0.0307688
-0.0358187
-0.0235761
-0.0454781
0.00709615
0.0433922
-0.0329862
-0.0281767
-0.0422802
-0.0590296
0.00515614
0.0436346
0.0804316
0.0684104
0.0371715
-0.025274
-0.0790514
-0.0355397
0.0171559
0.0652125
0.0888962
0.0837857
0.00807036
-0.0220958
-0.00943152
-0.033284
0.0107756
0.0709962
0.0946658
0.092861
0.0560384
0.00526443
-0.0324029
-0.0258226
-0.064976
-0.032758
-0.0215143
-0.00820043
-0.024544
-0.027066
-0.0105419
0.00340118
0.0214206
0.0659072
0.117825
0.0777194
0.0384509
-0.0179165
-0.0592571
-0.081582
-0.0735096
-0.0128892
0.0347858
0.0900455
0.0886075
0.0705473
0.0565889
0.0736864
0.0740872
0.0783936
0.105122
0.0589133
0.0209831
-0.00631293
-0.00814093
0.00355747
-0.0104015
-0.0144687
0.0459473
0.0724251
0.133451
0.111784
0.063458
0.0338237
0.0558228
0.098874
0.130966
0.0892413
0.0814859
0.0641554
0.0108248
-0.00769419
-0.0267219
-0.0284533
0.0284274
0.0336235
0.0425616
0.0146867
-0.00321685
0.0308022
0.0595154
0.0769869
0.113079
0.0918546
0.0830095
0.0845061
0.0246905
-0.0298086
-0.0712099
-0.0921302
-0.0442853
-0.0315772
-0.0586208
-0.0663223
-0.00917856
0.00750289
0.0526815
0.0758853
0.106323
0.0673238
0.0861948
0.0662335
-0.0262622
-0.069063
-0.0532873
-0.0508305
-0.0558916
-0.0712673
-0.0559038
-0.0682937
-0.0324938
0.0205277
0.0697967
0.0585964
0.0943506
0.0385971
0.0199091
-0.00267703
-0.011753
0.0157738
0.036283
0.0136363
0.00874408
0.00452896
0.0319634
0.030839
0.0291464
0.0386217
0.0431389
0.0652575
0.0975512
0.072704
0.0568492
0.0312176
0.00252962
0.0184199
0.0267779
0.0416548
0.0527496
0.0536121
0.0787893
0.106342
0.124029
0.10861
0.0861735
0.0931674
0.106905
0.0977145
0.084495
0.0672074
0.0348352
0.0124696
0.00281889
0.0395098
0.0732476
0.11633
0.129255
0.146528
0.132095
0.139743
0.123973
0.125368
0.126743
-0.0423391
-0.0354236
-0.035274
-0.0637223
-0.0742835
-0.0932412
-0.107488
-0.0986996
-0.0880423
-0.0862263
-0.106636
-0.091093
-0.0790362
-0.0437902
-0.0425709
-0.0418678
0.0815472
0.105061
0.107321
0.0739741
0.0331915
-0.0238371
-0.0556351
-0.0891805
-0.0506318
-0.0256645
-0.0283
0.012396
0.0332401
0.0757406
0.0782189
0.0698998
0.12148
0.116356
0.0912046
0.0834146
0.0676555
0.0378744
0.000554351
-0.0153374
-0.0399863
-0.00365052
0.0259345
0.0437994
0.0609895
0.111094
0.102901
0.0750729
0.105259
0.135289
0.12528
0.0966796
0.0543907
0.0121536
-0.0267258
0.0278822
0.0325662
0.0199534
0.0509883
0.0598083
0.0853079
0.102043
0.0944226
0.0925053
0.108975
0.130639
0.119219
0.0812633
0.0437432
0.0149629
-0.0319098
-0.0109848
-0.000832838
-0.032482
-0.00866218
0.0492365
0.0988871
0.127479
0.148136
0.119791
0.13138
0.117506
0.0669444
-0.00248525
-0.0517429
-0.0487114
-0.0434721
-0.0160672
-0.0299885
-0.0196212
-0.0267447
0.01683
0.0450214
0.0696529
0.129973
0.114697
0.0905072
0.0629177
-0.00274663
-0.0780459
-0.110511
-0.086808
-0.0647151
0.020822
0.00496865
-0.0484086
-0.0941179
-0.0543169
-0.0126642
0.000348515
0.0752954
0.0857233
0.0044225
-0.0336306
-0.0785098
-0.121149
-0.106758
-0.0826977
-0.0507825
-0.0352592
-0.0299863
-0.0480555
-0.0735531
-0.0673092
-0.0899665
-0.0584132
0.0289975
0.0517488
0.0274934
-0.0244324
-0.0625497
-0.0914692
-0.101256
-0.097568
-0.0533051
-0.0484048
-0.0354631
-0.0529301
-0.0835065
-0.0650439
-0.0598934
-0.0420448
-0.000327916
0.0195978
0.026644
-0.0159641
0.014022
0.00619613
-0.0536641
-0.0774322
-0.0464611
-0.024352
-0.0364258
-0.0182963
-0.00314516
-0.0382835
-0.0411231
-0.0396836
-0.0418447
-0.0128112
0.0102583
0.0288413
0.0552409
0.0159076
-0.0497429
-0.070449
-0.0344111
-0.0341861
-0.0395123
-0.0290155
-0.0120543
-0.04281
-0.0544681
-0.0184074
0.00862905
0.00354267
-0.00741919
0.0146602
0.0140651
-0.0432657
-0.0567184
-0.0434054
-0.0290568
-0.0252549
-0.0371965
-0.0380301
-0.0175347
-0.0416719
-0.0377166
-0.0226559
-0.0152154
-0.0149244
-0.0173211
-0.0136502
-0.0138713
-0.0345261
-0.0532604
-0.0280476
-0.000520427
0.0235254
-0.00680573
-0.0226356
-0.00638349
-0.00739249
-0.040796
-0.00519633
0.0272475
-0.00129251
0.00252734
-0.00623015
-0.0161094
-0.0277617
-0.0408367
-0.0333038
0.018742
0.02075
0.00538513
-0.0173074
-0.00176956
-0.0166016
-0.0381645
-0.0110028
0.00338228
-0.0195971
-0.0406903
-0.0557443
-0.0779362
-0.081998
-0.0451401
0.0135011
0.045415
0.0270929
0.0141659
-0.0157324
-0.0355153
-0.0880805
-0.0952024
-0.050681
-0.0458964
-0.0350219
-0.0324798
-0.0352692
-0.0650609
-0.0862462
-0.0756702
-0.00755206
0.0206862
0.0174412
-4.86542e-05
-0.0278558
-0.0598718
-0.101325
-0.107149
-0.0663831
-0.0355636
-0.0338837
-0.0465024
-0.0433912
-0.0996812
-0.0960969
-0.025652
0.00927616
0.046936
0.0382683
-0.027385
-0.0469303
-0.0372763
-0.0507119
-0.0715248
-0.0655734
-0.0515406
-0.0345364
-0.0532328
-0.0543118
-0.0602988
-0.0920892
-0.0308847
0.0409749
0.0467656
0.0701113
0.0432129
0.00786455
-0.0197184
-0.0521354
-0.101485
-0.0857618
-0.0592557
-0.0582373
-0.0194072
0.0148384
0.0116598
-0.0101459
0.0306579
0.0890239
0.0739828
0.0722784
0.0845087
0.0466815
-0.0134552
-0.0496103
-0.0723562
-0.0534304
-0.0131257
-0.00522059
0.0134778
0.0165213
-0.0320496
-0.0434333
0.0311782
0.0512811
0.0480548
0.0324402
0.0103479
0.000109348
-0.0206664
-0.0319292
-0.0262074
-0.01561
0.00691885
0.0131377
0.0713673
0.066321
0.00102066
-0.0541421
0.0327521
0.0474322
0.00785287
-0.0165698
-0.0488147
-0.0677452
-0.0962489
-0.103227
-0.113128
-0.0632119
-0.0247889
-0.020454
0.0327721
0.0593124
0.020813
-0.00175397
0.0180988
0.016896
-0.0248234
-0.0535596
-0.0500008
-0.0520734
-0.0672526
-0.0777548
-0.0538221
0.00572438
0.0120811
0.0172498
0.035506
0.0292234
-0.0124986
-0.0303685
-0.0215584
-0.0130292
-0.00548022
0.0158661
0.00576708
-0.058954
-0.0633046
-0.0740751
-0.0531969
0.0288371
0.0336333
0.0199097
0.0143424
0.0203792
-0.0130954
-0.0474453
-0.0821751
-0.0611681
-0.0367502
-0.0499784
-0.0439707
-0.0615591
-0.04893
-0.0538543
-0.0598463
-0.0292426
0.00833641
0.0276691
0.0199465
0.0123558
-0.0148357
-0.0406583
-0.0623278
-0.058149
-0.0158807
-0.0317084
-0.00858571
-0.0257993
-0.0552119
-0.0569678
-0.0526456
-0.00344887
0.0497607
0.0599867
0.000859355
0.0188635
0.00984452
-0.0216526
-0.0446641
-0.0318875
-0.00543727
-0.027104
-0.0441464
-0.0444929
-0.0640447
-0.0576366
-0.05914
0.00949802
0.073112
0.0861945
0.0510024
0.0673708
0.035586
-0.00994392
-0.0378866
-0.0399504
-0.0238523
-0.00642029
-0.0537846
-0.0805446
-0.0980493
-0.0614972
-0.0202634
0.0280683
0.0873254
0.101021
0.0312911
0.0635328
0.0654691
0.00378736
-0.0266899
-0.0361799
-0.0274198
-0.0286702
-0.0604636
-0.0947916
-0.0802268
-0.048318
-0.0120561
0.0314766
0.0917219
0.088806
0.0425824
0.0578964
0.0530382
0.00736142
-0.0279046
-0.0168923
-0.0110833
-0.0259124
-0.0626384
-0.0793332
-0.0581832
-0.0363478
-0.00898205
0.0579493
0.0938663
0.0955794
0.0231512
0.0267826
0.0474047
0.0251565
0.0208844
0.0298924
0.0044362
-0.00805241
-0.00487247
-0.0117742
0.00767296
0.0240493
0.0153042
0.0738185
0.104867
0.0847167
0.0689352
0.08284
0.0841739
0.089222
0.0914255
0.0890639
0.0893228
0.0818386
0.066895
0.0521364
0.0717548
0.0695839
0.0371473
0.0759464
0.0980097
0.0789244
0.103405
0.112258
0.124544
0.13987
0.120395
0.100627
0.122068
0.131116
0.12678
0.118712
0.0945747
0.0603592
0.0591592
0.0866293
0.107249
0.110054
0.0859329
0.034418
0.0339162
0.00321712
-0.00445897
0.0012706
-0.00263576
0.0251597
0.0181491
0.0479921
0.0407729
0.0370001
0.0223893
-0.0260212
-0.0600041
0.0280763
0.0769722
0.0547262
0.038939
0.0625044
0.0638606
0.0137929
0.00494097
-0.00788703
-0.0027985
0.0621649
0.0556156
0.0513603
0.0445349
0.0168987
-0.00857554
0.0217179
0.0993596
0.0462865
0.0115746
0.053112
0.104723
0.0698863
0.0479934
0.0718846
0.0450714
0.0622332
0.0897364
0.0627378
0.00496573
0.0174738
0.00271188
0.0365491
0.0488652
0.0355378
0.0207608
0.0340682
0.0699638
0.0796901
0.0866193
0.0979842
0.120776
0.121294
0.108791
0.0566983
-0.00510274
-0.0363307
-0.0631219
-0.0167175
0.038165
0.0209087
0.0219909
0.0220018
0.0756148
0.0826614
0.0392284
0.0199831
0.0856439
0.0896645
0.102718
0.0793138
0.0628558
0.0271528
0.0225047
0.0419943
0.0470136
0.0152046
0.0238286
0.00563159
-0.00724584
0.0244254
0.0455893
0.0363273
0.060963
0.0805099
0.088093
0.0994213
0.0997753
0.0842475
0.0302566
0.0540003
0.0403793
0.0127073
-0.0443661
-0.0787467
-0.0594478
0.00448185
0.0228474
0.0374069
0.0556905
0.0332767
0.0339302
0.0556117
0.0762659
0.0560653
0.0412546
0.0438284
-0.00830453
-0.0417018
-0.0900856
-0.107372
-0.0826498
-0.00485229
-0.000409447
0.0139963
0.00773259
0.00443595
0.00887913
0.0294931
0.0155031
0.016214
0.0377075
0.0538116
0.0360828
-0.00500966
-0.0540574
-0.0622125
-0.0635959
-0.0848458
-0.0456299
-0.0435594
-0.0475749
-0.0339563
-0.0708501
-0.0182719
0.0260352
0.0160228
0.0296739
0.0644344
0.125427
0.0496835
0.0306984
0.0549598
-0.0145339
-0.107011
-0.110156
-0.0557096
-0.0251562
-0.000599849
0.0296739
0.0387228
0.0527001
0.0351566
-0.00104875
0.0395398
0.16073
0.0900292
0.0857045
0.0997874
0.0213137
-0.105022
-0.108249
-0.0448172
-0.027943
0.0109072
0.0536948
0.0665869
0.0485098
0.0300485
0.0281181
0.0531411
0.147853
0.0525941
0.0370585
0.0284235
-0.0144675
-0.0667534
-0.0261196
0.00705704
-0.00103973
-0.0110302
0.0315441
0.0508829
0.0478409
0.061287
0.0244974
0.0199654
0.0796906
-0.0214069
-0.0205089
0.0066357
-0.00838059
-0.0311742
-0.0147031
0.0216303
0.0173982
0.0184096
0.0222667
0.0663338
0.0747097
0.0607364
0.0736353
0.100416
0.0510297
0.0182603
-0.0182213
0.0118793
-0.00130924
-0.0468755
-0.0198544
0.0291548
0.0111493
0.00246518
0.0231387
0.0298128
0.052569
0.0335623
0.0550917
0.0614872
0.0568855
-0.00885278
-0.0453012
0.00143916
-0.0168314
-0.0574147
-0.016468
0.0394769
0.0286284
-0.0107995
-0.00799264
-0.0311337
-0.0119457
0.00574933
0.0137879
0.0289097
0.0744061
0.0172474
0.00337709
0.0253276
-0.037389
-0.0639161
-0.0402646
0.000430425
0.0229734
0.0540828
-0.0203289
-0.0525669
-0.0325035
0.00529336
-0.00286847
0.00108247
0.149078
0.100253
0.0465854
0.025065
0.0116607
-0.00874733
0.0421398
0.0313096
-0.0114627
0.0285224
0.0358204
0.0485815
0.0140827
0.034885
-0.0252505
0.00404468
0.122306
0.0711251
0.0209892
0.0387013
0.0191897
-0.000360127
0.0399386
0.0723023
0.0398345
0.00640265
0.0203202
0.00605936
0.00232202
0.00836513
0.00833236
0.0452171
0.1184
0.075759
0.038377
0.0874288
0.0628174
0.0447402
0.054564
0.0636147
0.100258
0.0274631
-0.0145463
-0.0129205
-0.0140563
0.0319111
0.0448129
0.0256363
0.0821595
0.0321995
-0.0349343
0.0165204
0.0565227
0.048242
0.0450043
0.0363117
0.0435739
0.0163217
0.0516795
0.0922385
0.0288942
0.0784873
0.0524445
0.0404969
0.105859
0.0850341
0.0544847
0.0154617
0.0599909
0.0841638
0.0537611
0.0350648
0.0347226
0.0447464
-0.0255761
0.00132839
0.00978358
0.0162739
0.0278894
-0.000334637
0.071704
0.092194
0.112573
0.115511
0.0880158
0.0699646
0.0378911
0.0133526
0.0359765
0.0582086
0.0205177
-0.000418898
0.0610336
0.0782156
0.0777202
0.0978315
0.0981429
0.0214515
0.0492812
0.117132
0.0894969
0.0415982
0.0144302
0.037303
0.0385582
0.0038845
-0.0168216
-0.0363239
0.0328002
0.108171
0.0712673
0.0911383
0.0500277
0.045185
0.00729643
0.0217488
0.0243769
0.0197899
0.0123369
0.000620713
0.0187955
0.0129345
-0.0173924
-0.019665
-0.000878857
0.0593781
0.0465176
0.0542339
0.0161163
0.00214084
0.0283369
0.0547512
0.0644667
0.0672693
0.0440796
0.0375925
0.0290132
0.0440367
0.0218857
-0.0152957
-0.0401608
-0.0177429
0.0401235
0.116112
0.0292408
0.00608942
-0.00654598
0.00810422
0.0461575
0.0547327
0.0370598
0.0243027
0.00447674
-0.0205721
0.0398544
0.0175122
-0.0267942
-0.0291722
0.020612
0.0688317
0.0883689
0.0972298
0.0391904
0.000672774
0.0138715
0.0326678
0.0573869
0.0493907
-0.00271611
-0.029152
0.000190424
0.0144734
-0.00776732
-0.0435763
0.046129
0.0729787
0.0239454
0.0604069
0.0371089
0.0351813
0.0366461
0.0614388
0.0352891
0.0177661
-0.00215429
-0.0671265
-0.00196977
0.048408
0.0764006
0.0261792
0.0240493
0.071078
0.0455573
0.0286552
-0.00842195
0.0208325
0.047564
0.0493097
0.0192138
-0.0064273
0.0102207
-0.0371666
-0.00932114
0.0529087
0.0469034
0.0758966
0.0977358
0.0760305
0.0585628
0.0206539
0.0453574
0.066713
0.0661282
0.0524124
0.0297488
-0.000349289
0.0251271
0.0195467
0.0499774
0.0360482
0.0133678
0.111779
0.137546
0.0964155
0.0884922
0.0710387
0.0984174
0.127439
0.108427
0.10306
0.0756608
0.0431459
0.0435183
0.0533021
0.0463988
0.0198141
0.00108414
0.025498
0.0878561
0.0768615
0.0701918
0.0705113
0.0681921
0.0974795
0.0755015
0.0703353
0.0425695
0.0040621
0.0064827
0.00809734
0.00612487
-0.0168345
-0.0114841
-0.0458148
-0.00969451
0.0299798
0.0819992
0.0350584
0.00232901
-0.026432
-0.0313544
-0.0194284
-0.00433608
0.00757204
0.0184234
0.039133
0.0472311
0.0322102
0.0434768
-0.00813975
-0.0418273
0.0134023
0.0312549
0.0167523
-0.00111151
-0.0230895
0.00917083
0.0191375
0.0183699
0.00286742
0.00599428
0.0499069
0.0658771
0.0511467
0.0540903
0.0186987
-0.0143287
0.0102508
0.0249874
0.00379214
-0.0196003
0.00653386
0.0705616
0.0808534
0.0641429
0.0532766
0.0222887
0.0667499
0.083706
0.0585544
0.0302128
0.0237382
-0.0175125
-0.000555384
0.00767563
0.00671316
-0.0142902
0.00221896
0.0728567
0.104291
0.117598
0.0734849
0.0502143
0.0803122
0.0615441
0.0427672
-0.0153548
-0.0264402
-0.0554903
-0.0308355
0.00674395
-0.01538
-0.015862
-0.00857531
0.0692949
0.0938449
0.0590445
0.0159123
0.0532568
0.0748697
0.0586628
0.023347
0.0111618
0.00683915
-0.0209198
0.00301764
-0.013437
-0.0313044
-0.0400179
-0.0293759
-0.0222745
0.0127883
0.0151224
-0.00913313
0.00894045
0.0432872
0.0544364
0.0388874
0.0498672
0.0373958
0.0129811
0.0132955
-0.0327291
-0.0401281
-0.0519811
-0.0562391
-0.0363672
0.00728704
-0.0138137
-0.00755997
0.0137693
0.00311683
0.022001
0.0328584
0.0661642
0.0513246
0.0332346
0.00553645
-0.0278724
-0.0243303
-0.0798426
-0.0654616
-0.0538167
-0.00432611
-0.0159428
-0.0240091
-0.0245856
-0.00121907
0.00488203
0.0294394
0.0611927
0.0576034
0.0428012
0.0547696
0.019289
-0.0239349
-0.0400988
-0.0472033
-0.0634969
-0.0564588
-0.046117
-0.0437587
-0.0515235
-0.00198227
-0.0250329
-0.0173608
0.0386142
0.0265593
0.0469171
0.0658983
0.0833523
0.0151977
-0.00775834
0.0160138
-0.0395342
-0.0741912
-0.0653884
-0.0284056
-0.0252363
0.0111064
-0.000785377
0.0189694
0.017016
0.016376
0.0161965
0.0330465
0.105454
0.0498158
0.0310273
0.0537022
-0.00598506
-0.0594271
-0.0411121
5.38701e-05
-0.00458277
0.0200224
0.0271851
0.0521721
0.0327995
0.0515837
0.0392993
0.0332679
0.0810114
0.0190951
0.0121068
0.00926392
-0.0154009
-0.0485236
-0.0101638
0.0422586
0.0254871
0.0113719
0.0482176
0.0777504
0.0908327
0.0777175
0.0473725
-0.00972472
0.0174797
-0.0353212
-0.0255176
0.00215919
-0.0447085
-0.0566362
-0.0197919
0.0107973
0.0177793
0.0151552
0.0166449
0.0593066
0.0786417
0.0464543
0.0491967
0.0207176
-0.000104177
-0.0366012
-0.0328211
-0.00722326
-0.0218527
-0.0476101
-0.0272857
0.0143331
0.0242411
0.00839103
-0.0187771
0.0123586
0.0448859
0.0319492
0.0354926
0.0338171
0.0140679
-0.0173842
-0.0320697
-0.0426223
-0.024078
-0.043565
-0.0197243
0.0375914
0.0408563
0.00973214
-0.000899774
-0.0125886
-0.00783063
0.0116724
0.0368388
0.00532687
0.0329028
-0.00996786
-0.018678
0.00203176
-0.00837199
-0.064413
-0.0464982
-0.0014587
-0.0113874
0.0312763
0.0167066
-0.0178008
-0.00533382
0.0303613
0.0324113
-0.00453273
0.0657086
0.0556051
0.0488042
0.0396112
0.0196422
-0.0212336
-0.0240794
-0.0175074
-0.0366186
0.0049214
0.0283699
0.0130344
0.0155299
0.0379746
0.0189249
0.0211187
0.0638292
0.0604648
0.0362433
0.0554408
0.0171515
-0.00392938
-0.0216943
-0.00581279
-0.0312769
-0.023463
0.0257472
-0.00489495
0.0403954
0.0403849
-0.00470612
0.0288321
0.045687
0.040675
0.0183535
0.0442604
-0.0131471
-0.00916285
0.0152773
0.0111128
0.00565966
-0.0296002
0.028921
-0.00108765
-0.00726944
0.0332557
0.0127415
0.00592364
-0.00367136
-0.0314186
-0.0319321
0.00829655
-0.00395781
-0.0251257
0.00104728
0.00328499
0.0103142
-0.0208232
0.00834736
0.0407716
0.00204727
0.0227754
0.0185734
-0.0017801
0.0254661
-0.0178286
0.0201265
0.02527
0.0263106
-0.00629282
-0.00312381
0.0123135
0.0327072
-0.00249607
-0.0416956
0.0116359
0.0177139
-0.0137973
-0.0156243
-0.0261277
0.0221044
0.0218072
0.0317813
0.0695395
0.0372478
-0.00495944
-0.0240515
0.00779674
0.0459224
0.0380748
0.0104892
0.0153863
0.0494754
0.0094707
0.0328445
0.000946605
-0.030077
-0.0260391
0.0159446
0.0583329
0.0332846
-0.00925128
-0.00678875
-0.00610068
0.0233065
0.0266336
0.0177316
-0.0145825
0.0160465
0.0419707
0.0301468
-0.0113338
-0.03614
-0.0288781
-0.0396462
0.00296027
-0.0128639
-0.0129923
-0.0279934
-0.0151941
0.000134762
0.0110421
-0.00775483
-0.0251135
0.0460042
0.0274663
-0.000561453
-0.00255132
-0.0494206
-0.0546904
-0.042694
0.00409466
0.00480863
0.0226912
0.0208972
0.0310111
0.00415652
0.0295698
0.00119645
0.00483241
0.0381868
0.0588543
0.0179161
0.0327004
-0.0169481
-0.0352625
-0.0311894
0.00355016
0.0101575
0.0345842
0.0358755
0.0386733
0.00335479
0.00226418
0.00470159
-0.000847807
-0.0102729
0.0412288
0.0415123
0.0145178
0.033803
0.00306451
-0.0234081
-0.00897228
0.0230146
0.0267735
0.039807
0.0172952
-0.0263721
-0.0228943
-0.0217022
-0.0115252
-0.0120788
-0.0250159
0.0164584
-0.0302166
0.00519029
-0.0159184
-0.0464052
-0.0111665
0.00800784
0.0388565
0.00131694
0.00591697
-0.0104632
-0.027496
-0.0147795
-0.00521886
0.0301175
-0.0298107
-0.021924
-0.0536223
0.00451712
-0.0356734
-0.0628619
-0.0118141
0.0020302
0.0280311
0.0182357
0.0324572
0.0167545
-0.0082079
0.00551544
0.000588436
0.0460435
0.0103067
0.00281805
-0.0253127
0.022329
-0.0088257
-0.00698512
0.0165847
0.00570363
0.00552427
0.0115082
0.00386526
0.0334202
0.0184892
0.0300586
-0.00695518
-0.00182758
0.0354021
0.0329165
-0.0134336
0.00223582
0.00787512
0.0109024
0.031086
0.0099651
0.00983429
0.0120043
-0.0156867
0.0100339
0.0310678
0.00577444
-0.0437342
-0.050645
-0.0333793
-0.000970033
-0.0204116
-0.0310942
0.0190329
-0.000882857
0.000569749
0.00499263
-0.0460334
-0.0764551
-0.042416
-0.0631978
-0.0465245
-0.0452954
-0.0591266
-0.0609097
-0.0864316
-0.0739238
-0.0750148
0.0455851
0.00922428
-0.0177963
-0.0381911
0.000312427
-0.000990262
-0.0279688
-0.0161154
-0.0127728
0.00557788
0.00993702
0.0109956
0.0281785
-0.0300335
-0.0511057
-0.0349163
0.025419
-0.0240915
-0.0306405
-0.0318221
0.00856265
0.0461275
0.00789041
0.00739105
-0.0127387
0.0197285
0.0290664
0.0198724
0.0225234
-0.0344384
-0.0669898
-0.0235887
0.00547936
-0.0412986
-0.027529
-0.0159854
0.0740379
0.131496
0.108762
0.0539314
0.00821629
0.0330698
0.062593
0.0366743
0.0060254
-0.00960548
-0.0361402
-0.0453146
0.0123472
-0.0111529
-0.0450175
-0.0352624
0.0940631
0.151277
0.126638
0.0539002
0.0089338
0.0270821
0.0220845
0.0242541
0.000639324
-0.0214208
-0.0567853
-0.0585532
-0.00508489
-0.054252
-0.0686038
-0.0700758
0.0363655
0.0946628
0.0478989
-0.0144002
-0.00284889
0.0219256
0.0135958
-0.00969363
-0.0110489
-0.00238422
-0.0534745
-0.0544456
-0.0537271
-0.0827372
-0.0961555
-0.0807182
-0.0468288
0.0163476
0.00118508
-0.0326213
-0.0168255
0.0033673
0.00698732
-0.017515
-0.0235836
0.0139255
-0.0252927
-0.0709139
-0.0709503
-0.110795
-0.14273
-0.126604
-0.0569865
-0.0132453
-0.0348386
-0.0409122
-0.0307761
-0.0172562
0.0210558
-0.022475
0.00232533
0.0272305
-0.0126409
-0.0546071
-0.0664674
-0.0692545
-0.0768166
-0.0831506
-0.0646194
-0.0193226
-0.00856083
-0.030496
-0.0134939
-0.0108659
-0.0217253
-0.0075779
0.0152213
0.0173096
-0.00407467
-0.0181501
-0.0250066
-0.0224063
0.00716744
-0.032689
-0.0372544
-0.0197764
-0.0238543
-0.0223083
-0.01665
0.00145347
-0.0210884
-0.00447922
0.0113016
-0.00254148
0.000811161
-0.00707976
-0.0124298
-0.0167633
0.00433658
0.00600341
-0.0332388
-0.0407838
-0.0395897
-0.0156118
-0.0287207
-0.000316753
-0.00786558
0.0247031
0.00934162
0.00174229
-0.0311091
-0.0354426
0.0211217
-0.00269919
0.0216017
0.0463134
-0.000999382
-0.0341808
-0.0542307
-0.0249311
-0.0527574
-0.0221838
-0.000766179
0.0507498
0.0209026
0.00651712
-0.00152119
-0.0249337
0.00269756
-0.0135714
0.0256317
0.045443
0.00280464
-0.051137
-0.0550454
0.000217766
-0.0481909
-0.0516767
0.0066019
0.0637173
0.0350635
0.00426127
-0.00483869
-0.0494418
-0.0261551
-0.0411034
0.0070382
0.0401486
0.00292856
-0.0604986
-0.0597101
-0.0395207
-0.0546675
-0.0413927
-0.035711
0.00534064
0.0125798
-0.00604986
-0.0136131
-0.0590567
-0.0373833
-0.0178334
-0.00293441
0.0152105
-0.0130854
-0.0706448
-0.0750252
-0.0371498
-0.0430225
-0.0373759
-0.0498039
-0.0411897
0.0150037
-0.00609908
-0.0217034
-0.056445
-0.00287129
0.0104979
-0.00740967
-0.01337
-0.0265627
-0.0557857
-0.0695877
-0.042356
-0.0359715
-0.0206707
-0.0229127
-0.036348
0.00238078
-0.00181789
-0.00185388
-0.0767557
-0.001043
0.0134387
0.0216351
0.0456584
-0.00222931
-0.0649844
-0.103631
-0.0455703
-0.0308703
-0.0182795
-0.00077697
-0.0191986
0.00618498
0.0106217
-0.0188684
-0.0437581
0.0173696
0.0514192
0.0965098
0.0820352
0.0132905
-0.0431485
-0.0660166
-0.0668772
-0.0690378
-0.0370894
0.00869338
-0.00944999
-0.00917711
0.0223462
0.00395438
-0.0217552
0.0387245
0.0701301
0.0902795
0.0683123
-0.00491205
-0.0385688
-0.0466867
-0.0401921
-0.0784461
-0.0575786
0.0181401
-0.0262901
-7.69472e-05
0.0193235
-0.00212902
-0.0151951
-0.00711013
0.020668
0.0506142
0.0530667
-0.0190493
-0.0404633
-0.0154928
-0.00112318
-0.019445
-0.0521675
0.0305857
-0.00931771
-0.0183472
0.00705555
0.000429509
-0.0706074
-0.0196269
-0.02084
0.028771
0.0572735
0.00886805
-0.036456
-0.00970093
0.0121319
0.013762
-0.0353906
-0.00995906
0.00390492
0.0138932
0.00287651
-0.0157436
-0.0807187
0.0176437
0.00985281
0.0357824
0.0422383
0.0248789
-0.00515144
0.00483713
0.0103261
0.0359
-0.012105
-0.0479465
0.00378698
-0.00994235
-0.0190667
-0.0175653
-0.0631763
0.00195578
0.0160535
0.0453138
0.0757497
0.0326397
0.00924568
0.00130326
0.0240629
0.0646977
0.0230455
-0.00277249
-0.0305684
-0.0400205
-0.0422637
-0.00261891
-0.0552034
-0.0656064
-0.0149462
0.0242681
0.052141
0.0299682
0.00326744
0.000820884
0.0108632
0.0581102
0.052036
0.048003
0.00150547
-0.00975423
-0.0197272
0.00874718
-0.053413
-0.0447648
-0.0245064
-0.0214154
0.0230102
0.00527261
0.00816577
0.00698494
0.00177916
0.0333833
0.0350146
0.0298844
-0.00905069
-0.00933227
-0.0292555
0.00376833
-0.0847119
-0.0421234
-0.0211203
-0.0174864
0.0225003
0.0166546
0.0240281
0.0354521
0.0270885
0.0161368
0.0485911
0.0259709
-0.00462294
-0.0108762
-0.0135932
-0.00404167
-0.0703214
-0.0136794
-0.0105233
-0.0278838
-0.00646381
0.0197962
0.0369466
0.0331613
0.0259855
0.0254906
0.0222175
0.0250749
-0.00680397
-0.0334914
0.00773041
-0.00350982
-0.0672645
-0.00387721
-0.0231905
-0.00668632
0.0208756
0.0588875
0.0401924
0.0238814
0.0177861
0.0137372
0.0288884
0.0260028
0.0112489
-0.017549
-0.0557401
-0.0177836
-0.102988
0.0107087
-0.0339291
-0.0140475
0.0237553
0.046394
0.03646
0.011213
0.0117028
0.0248398
0.0219849
0.0157789
0.0118482
0.0259061
-0.0664928
-0.0567059
-0.113521
-0.00405318
-0.0478284
-0.0248171
0.0198327
0.0358506
0.0192954
0.0335602
0.0242832
0.0310485
0.0152781
0.0130629
-0.0177627
0.0339901
-0.0374273
-0.0583581
-0.0862867
-0.0117505
-0.0268421
-0.0167877
0.0186198
0.0405996
0.0212014
0.0311157
-0.00874101
0.0130434
0.00261257
0.00452557
-0.0386918
-0.0306463
-0.0533589
-0.050718
-0.102762
-0.0156961
0.000266744
-0.0193858
0.00986001
0.0293625
0.0126013
0.003889
-0.0262579
-0.00876744
-0.033248
-0.0494043
-0.0948598
-0.0966467
-0.0756886
-0.0582176
-0.104452
-0.00254313
-0.00786285
-0.0389705
-0.0173201
0.0292953
-0.0435451
-0.0778401
-0.0670335
-0.0698122
-0.0861983
-0.0900615
-0.0887254
-0.107475
-0.0932845
-0.0872834
-0.133369
0.000285704
-0.0244384
-0.0158267
0.0098116
0.0279904
0.0168064
-0.0116703
-0.000756682
-0.00737581
0.00697545
0.00590656
0.0203473
0.0279302
0.0109557
0.00671075
-0.00701474
-0.00309657
-0.0304262
-0.0169547
0.0408689
0.0460385
0.0537169
0.0329926
0.0126594
0.000811204
-0.000692903
0.00930896
0.0110529
0.0205585
0.00128509
-0.00641837
-0.0213182
-0.00172638
-0.0651568
-0.0510923
0.00117446
0.0419629
0.0718547
0.0864073
0.037695
-0.00956545
0.00654618
0.0254425
0.0117271
0.00449209
-0.0122201
-0.0252011
-0.0537793
0.010863
-0.0361784
-0.0585855
-0.0490594
0.000429562
0.0485794
0.0690167
0.0156422
-0.0226658
-0.0072707
0.00987428
0.0267228
0.0112427
-0.0194093
-0.017253
-0.0295356
-0.0144703
-0.0485182
-0.0636986
-0.0571331
-0.0288871
-0.000224204
0.00256232
-0.0203033
-0.0290724
-0.0184487
0.00385316
0.011622
0.00394757
0.00685168
9.00072e-05
-0.0386718
-0.0252506
-0.0506115
-0.0699714
-0.0829161
-0.038693
-0.0139086
-0.0299858
-0.0369302
-0.0445956
-0.0308167
-0.0107216
0.000942373
-0.0189089
-0.0160593
-0.0201214
-0.0694912
-0.0360964
-0.060229
-0.0984762
-0.0984474
-0.0530994
-0.0280946
-0.0379892
-0.0377522
-0.0328893
-0.0392409
0.0032702
-0.0011315
0.00280103
0.000995187
-0.00826395
-0.0667846
-0.0141009
0.00241787
-0.00574603
-0.027186
-0.0248074
-0.00440567
-0.00587573
-0.0176847
-0.0236244
-0.0397252
0.00289404
0.0206043
0.018524
0.00233125
-0.0307268
-0.0695001
0.0268322
0.0624279
0.0581221
0.0274003
0.000809771
-0.00182389
0.0144281
0.0274866
0.00034478
-0.011055
0.00822273
0.0385407
0.0492059
0.00338259
-0.0198914
-0.0546835
0.0341155
0.0524184
0.0253689
0.0314704
0.0133809
0.000176393
0.0154712
0.0245515
-0.00714757
-0.0136729
-0.00552491
0.0305002
0.0358975
0.0088278
-0.0236996
-0.0628367
0.01646
0.014851
-0.00689882
0.0364105
0.0331523
-0.000509816
-0.0068152
0.0189961
-0.0216084
-0.0228957
0.0010922
0.0394805
0.0234642
4.70339e-05
-0.0103139
-0.0433065
0.00523063
0.00397334
0.0136854
0.0796378
0.0506658
0.00389555
-0.0152653
0.0138377
-0.0262387
-0.0393524
0.00419282
0.0338632
0.0114374
-0.000505267
-0.000786529
-0.0473867
0.00564268
0.0249887
0.0476523
0.0695839
0.0433962
-0.00676391
-0.0220827
-0.00674657
-0.0285848
-0.0477946
-0.0241777
-0.0118303
0.000357609
-0.0112664
-0.00476764
-0.0564441
0.00744528
0.0413908
0.0699517
0.0758885
0.0345481
-0.0228477
-0.0470374
-0.0212437
-0.044607
-0.0528062
-0.0412165
-0.0402494
0.00309649
-0.011494
-0.0161545
-0.0603615
0.0315012
0.0712678
0.0749739
0.077261
0.0325348
-0.0183541
-0.0429323
-0.0349824
-0.0372298
-0.0372905
-0.0299781
-0.043032
-0.0128796
-0.00513992
-0.000709678
-0.0859052
0.02728
0.0646681
0.0791166
0.0944257
0.0378672
-0.0283164
-0.042317
-0.0226801
-0.0338018
-0.0437273
-0.0185374
-0.0276851
-0.0141555
0.015779
-0.00807284
-0.0743384
0.0299522
0.0748016
0.106829
0.0919635
0.0323589
-0.0135933
-0.0395683
-0.0509289
-0.048356
-0.0539935
-0.0174755
-0.0392814
-0.0312018
0.0155495
0.0112795
-0.0644441
0.0151165
0.0649141
0.0949744
0.0783568
0.0184648
-0.0208073
-0.0346388
-0.0338803
-0.0590015
-0.079601
-0.0133977
-0.0552076
-0.0380958
-0.000790816
-0.00247902
-0.0753228
-0.0171715
0.015385
0.0814533
0.0850453
0.00682119
-0.0312602
-0.0326642
-0.0192978
-0.0430949
-0.0868221
-0.0154422
-0.0369334
-0.047277
-0.0288203
-0.0187161
-0.0887723
-0.0168075
-0.000338398
0.0756056
0.098687
-0.00417638
-0.0316716
-0.0220287
-0.0134753
-0.017427
-0.0586432
-0.026725
-0.0314804
-0.0360418
-0.0210541
-0.00412676
-0.0900956
0.00700833
0.0129555
0.0690213
0.0716916
0.0129711
-0.0132085
-0.00702013
0.0031014
-0.00675739
-0.0490683
-0.0390854
-0.0077432
-0.0278112
-0.0179056
0.00609682
-0.0735634
0.00300067
0.0100994
0.0574706
0.0645884
0.0107194
-0.0118517
-0.000905844
0.00882167
-0.0111965
-0.0408104
-0.0418226
-0.0403068
-0.0577693
-0.0226859
-0.0110582
-0.0932901
-0.0188444
0.000242017
0.0406633
0.0515161
0.0125091
-0.0122715
-0.010569
-0.00418583
0.00942087
-0.0213322
-0.00309501
-0.0289503
-0.0321211
-0.0367714
-0.014978
-0.0925728
-0.0106427
0.00290511
0.00935893
0.04061
0.0174759
-0.00738201
-0.0298518
-0.00522062
0.0139895
-0.00294951
0.00652341
-0.00995588
-0.0526059
-0.040334
6.64948e-05
-0.090071
-0.0301369
0.00673117
0.0131203
0.0273313
0.0214743
0.00624566
-0.0181659
-0.0148014
0.00564641
0.00209967
-0.00285843
-0.0187156
-0.0567908
-0.0478782
-0.0158979
-0.0853503
-0.0148926
-0.00232376
-0.016765
-0.00452027
0.00510779
-0.0128971
-0.0136472
-0.0134495
-0.00120751
-0.0113176
-0.0168397
-0.0432642
-0.0495907
-0.053901
-0.0355451
-0.0968152
-0.015022
-0.0370225
-0.0394454
-0.0124646
0.012193
-0.0207154
-0.0225738
-0.00926307
-0.00890938
-0.00629943
0.0108724
0.00160225
-0.0129531
-0.0538561
-0.0267554
-0.0871521
-0.00330469
-0.0287277
-0.0275803
-0.00716627
0.0145526
-0.00653169
-0.00524312
0.0195533
0.0203958
0.00976653
0.0109688
0.0183087
0.00623233
-0.0349646
-0.0638109
-0.108599
-0.0101072
-0.0313073
-0.0291249
-0.00803739
0.00844603
-0.0236638
-0.00559001
0.0203591
0.0161154
-0.00831611
-0.0157344
-0.0263751
0.00346438
-0.0334419
-0.0617706
-0.0992722
-0.0126709
-0.0268714
-0.0326436
-0.0223449
-0.000945537
-0.0213481
-0.0164314
-0.018746
-0.0152511
-0.0111906
-0.0213708
-0.0174262
-0.0169713
-0.0587861
-0.0436591
-0.0924322
-0.0217812
-0.0204651
-0.0284847
-0.00887499
0.00444192
-0.0239411
-0.0256337
-0.0457628
-0.0393256
-0.0350574
-0.0489252
-0.0494133
-0.0338121
-0.0330685
-0.0239917
-0.0763567
-0.0135904
-0.0158167
-0.0271766
-0.006689
0.00938236
-0.0248674
-0.0311556
-0.0377759
-0.0344418
-0.0322386
-0.0312672
-0.03754
-0.0315556
-0.0224009
-0.00996133
-0.067571
-0.00168252
-0.0229601
-0.00157346
0.0594497
0.0838836
0.0765658
0.0412197
0.0256984
-0.00285991
0.00706674
0.000862585
0.0125764
0.0151182
0.0295034
0.00222686
-0.0269456
-0.0331752
-0.0379166
-0.024959
0.0399837
0.091071
0.116046
0.073387
0.0500447
-0.00208152
-0.00407602
-0.0117769
-0.0241085
-0.0148116
-0.0132893
-0.0404405
-0.0539087
-0.00637553
-0.0483027
-0.0234753
-0.0108567
0.0562452
0.0744678
0.0833729
0.0472643
-0.00668631
0.011209
-0.00747357
-0.0229271
-0.00858545
-0.0394202
-0.0602711
-0.0654047
-0.00732371
-0.0435454
-0.0397332
-0.0434905
0.00182291
0.0557624
0.0657682
0.0175662
-0.00256728
0.00683185
0.0173527
0.0364663
0.0195373
-0.0219595
-0.0338615
-0.0113319
-0.0278294
-0.0679085
-0.0519534
-0.0578608
-0.00742503
0.0313741
0.0219142
-0.0200581
-0.0361392
0.00264953
0.0197039
0.0310645
-0.0226656
-0.0164461
-0.0185208
-0.0479229
-0.0564568
-0.0837235
-0.0705734
-0.0392875
0.0134291
0.0320283
-0.00570513
-0.0300819
-0.0279498
-0.00481321
-0.00540943
-0.0236605
-0.0286594
-0.0315504
-0.0498795
-0.0639258
-0.0120908
0.0162155
0.0119087
-0.0117237
-0.0209856
6.26495e-05
-0.0251298
-0.035625
-0.0301291
-0.00719722
-0.0107388
-0.0127884
-0.0266872
-0.0305718
-0.0714318
-0.0646056
0.059723
0.104812
0.0960828
0.0318114
-0.0174923
0.00334109
0.0113582
-0.00183793
-0.00449868
-0.012772
-0.0196396
0.0277725
0.0237952
0.00338864
-0.0514027
-0.0479968
0.0618532
0.101089
0.07211
0.0125384
-0.000124968
0.0089069
0.0378836
0.0167236
-0.00535923
0.000450311
-0.0296437
0.0311362
0.0454164
-0.012725
-0.0528344
-0.0689467
0.0810592
0.0882638
0.0332069
0.0132572
0.012333
0.0170993
0.0150631
0.00499359
-0.0279806
-0.0175577
-0.0269865
0.0242532
0.0464042
-0.000730268
-0.0309007
-0.0541237
0.0697769
0.0394953
0.0327875
0.0523795
0.0397821
-0.00286852
-0.0128317
-0.0100833
-0.0339629
-0.038936
-0.0441699
0.00519664
0.0165546
-0.0096266
-0.0315391
-0.0432898
0.0611773
0.0418355
0.060019
0.0830077
0.0376713
-0.011055
-0.0335294
-0.0203676
-0.0373394
-0.0578899
-0.0243796
0.0036753
-0.00900773
-0.023562
-0.0570994
-0.0700716
0.0628455
0.0600722
0.0719431
0.0676435
0.00875298
-0.0343188
-0.0461619
-0.0377446
-0.046095
-0.0622467
-0.0294437
-0.0139586
-0.0245922
-0.0451465
-0.0474209
-0.0529972
0.0633998
0.0759335
0.0802277
0.0898212
0.017173
-0.0667915
-0.0889296
-0.0892703
-0.103344
-0.0754016
-0.050299
-0.0342287
-0.0194744
-0.0323898
-0.01788
-0.0537383
0.0797372
0.10431
0.0902025
0.0970529
0.035459
-0.0736771
-0.0788855
-0.0733103
-0.080762
-0.0626504
-0.0405883
-0.0319797
-0.00933889
-0.0208678
0.02055
-0.0613082
0.0657989
0.0748163
0.0717056
0.0931912
0.025937
-0.0464656
-0.0644511
-0.055291
-0.0666519
-0.0528149
-0.0329257
-0.0425126
-0.030533
-0.00645111
-0.023502
-0.0384295
0.0765761
0.0841083
0.0909522
0.086864
0.0236114
-0.0291755
-0.0461719
-0.0661621
-0.0609804
-0.0456105
-0.0338599
-0.0488024
-0.0224925
-0.0152203
-0.0309686
-0.0601426
0.0684412
0.101266
0.102114
0.0784291
0.0276204
0.000591971
-0.0268173
-0.0283778
-0.0374421
-0.0598126
-0.0499222
-0.0521107
-0.0166167
-0.0246455
-0.0346435
-0.0689349
0.044894
0.0719631
0.0808641
0.0814735
0.00304753
-0.0342585
-0.041886
-0.0274392
-0.0268405
-0.0764786
-0.0384629
-0.027524
-0.0257912
-0.0578721
-0.033658
-0.0852642
0.0264062
0.0395752
0.0809683
0.0803604
-0.0122137
-0.0516321
-0.0391298
-0.0236024
-0.0256063
-0.0551977
-0.0154965
-0.0276381
-0.0375649
-0.0396832
-0.0299073
-0.086776
0.0158124
0.0300278
0.07633
0.0525495
0.00360069
-0.0137284
-0.00106828
0.00555195
-0.0124084
-0.0165271
-0.00268531
0.000859295
-0.00955379
-0.00935045
-0.0204357
-0.0653005
-0.00438712
0.0309193
0.0864407
0.0776868
0.00847434
-0.00935438
0.0334782
0.00868185
-0.0246468
-0.0171382
-0.0275707
-0.0310901
-0.0238888
-0.0443593
-0.0306041
-0.0602143
-0.0321076
0.0338518
0.0866217
0.0532042
0.0134107
0.00332453
0.017773
0.00616979
-0.00531624
-0.0155937
-0.0204977
-0.0465431
-0.0306921
-0.0524005
0.0164819
-0.0456281
-0.00892711
0.0249002
0.0416955
0.0236708
0.0271134
0.0207365
-0.0094208
-0.016495
-0.00352645
-0.0245113
-0.0107205
-0.0427729
-0.0362072
-0.046736
-0.00213702
-0.0684193
-0.00991013
0.0262798
0.0321528
0.0158484
0.0406864
0.0208918
-0.0348817
-0.0492679
-0.016511
-0.015347
-0.00385144
-0.0375004
-0.0358105
-0.0528169
-0.0258405
-0.0713878
0.00864094
0.0273628
0.00992546
0.0064844
0.0219795
0.00651042
-0.0418043
-0.0443201
-0.0194315
-0.0132413
-0.00862841
-0.0269648
-0.0339396
-0.0626409
-0.0495811
-0.0905046
0.00204053
-0.0110762
-0.0362631
-0.0246779
0.0171081
-0.0178828
-0.0360553
-0.0137789
-0.0136776
-0.0112658
0.0108384
-0.00208661
-0.000981188
-0.0415847
-0.0544799
-0.0869322
0.00563282
-0.0247565
-0.0407138
-0.0204075
0.0287782
-0.00687925
-0.0155681
0.0150162
0.0220653
0.0165629
0.0037143
-0.00898128
-0.0112036
-0.0666784
-0.0957127
-0.0770847
0.0184376
-0.0209791
-0.0267884
-0.00973979
0.0180079
-0.012778
-0.0181848
0.0324977
0.00820185
-0.0145188
-0.0228804
-0.0300262
-0.0544563
-0.0850468
-0.0965451
-0.101829
0.00208584
-0.0149414
-0.00538302
-0.0124364
0.000972953
-0.00895344
-0.00796931
0.00547095
-0.0175473
-0.0101417
-0.00875981
-0.00546667
-0.0592248
-0.0888165
-0.0373428
-0.058978
-0.0317655
-0.0427443
-0.0339618
0.00152319
0.00519182
-0.038065
-0.0438761
-0.0582248
-0.0605217
-0.0590948
-0.0542862
-0.0596669
-0.0588018
-0.0741082
-0.0475533
-0.0559189
-0.0551881
-0.0438204
-0.0257013
-0.0066241
-0.012602
-0.0619921
-0.0552279
-0.0484517
-0.0748337
-0.0991093
-0.0724318
-0.116365
-0.104708
-0.101294
-0.0562538
-0.102828
0.0262016
-0.0089272
-0.00741735
0.0669279
0.104237
0.105882
0.106798
0.054777
0.0316866
0.021033
0.0229224
0.0401639
0.0235615
0.047213
0.0300729
0.0224813
0.00483826
-0.0445968
-0.0367258
0.0265193
0.0602012
0.0856116
0.0781665
0.0497007
-0.00521876
-0.022242
-0.0168945
-0.0286596
-0.0241819
-0.0341929
-0.0532994
-0.0479844
0.00559943
-0.0554594
-0.0394843
-0.0181272
0.000643037
0.00223601
0.0318175
-0.00361605
-0.040135
-0.0171516
-0.0185942
-0.0187503
-0.0257585
-0.0416009
-0.0589583
-0.0448421
0.0131038
-0.0380655
-0.0366795
-0.0428928
-0.0106413
0.0334767
0.0467839
-0.0209158
-0.0470241
-0.00515115
0.00951228
0.0361903
0.00935576
-0.00861403
-0.0344555
-0.0191286
-0.0152861
-0.0622679
-0.0507864
-0.0404107
0.0313363
0.0887696
0.0628052
-0.0264342
-0.0306016
0.0166587
0.00389286
0.00276389
-0.0317493
-0.0411109
-0.0491629
-0.059058
-0.00571593
-0.0086666
0.0138572
0.0721281
0.104504
0.0728175
0.00712631
-0.015277
-0.00464556
0.0185432
-0.019893
-0.0329544
-0.0451098
-0.0619495
-0.0588918
-0.0127247
0.0374823
0.087903
0.136888
0.130061
0.0948182
0.0333854
-0.0149322
-0.0134123
0.00532128
0.00961561
-0.0244297
-0.0493446
-0.0366879
-0.0458573
-0.0740141
-0.0310387
0.0701848
0.106245
0.12673
0.0922564
0.0621175
0.033373
0.00341248
0.0208814
0.020947
0.00273981
-0.0167981
0.00190325
0.0109602
-0.0123095
-0.0345365
-0.00970283
0.0397337
0.0721512
0.0607833
0.0343942
0.025474
0.0202545
0.0385686
0.0168145
0.00887014
-0.00141721
-0.0281304
0.0127693
0.0240413
-0.014738
-0.0391479
-0.0221378
0.0658759
0.0499839
0.0359709
0.0158589
-0.01688
0.00630557
0.0157112
-0.00438976
-0.0178449
-0.0208972
-0.0470095
-0.00725601
-0.010799
-0.0367434
-0.0287617
-0.0133843
0.0866979
0.0444044
0.0439236
0.0542483
0.0249737
-0.00483528
-0.0225014
-0.0121371
-0.0245446
-0.0381717
-0.0391281
-0.00509007
-0.0329448
-0.04053
-0.0276317
-0.0324002
0.0828866
0.0290724
0.0293718
0.0546091
0.00558105
-0.0312348
-0.0385249
-0.00551165
-0.0160645
-0.0474959
-0.0241453
-0.0183088
-0.0716283
-0.050293
-0.0624609
-0.0491065
0.0883485
0.0224737
0.03368
0.0312715
-0.0165261
-0.0431904
-0.045266
0.0124325
-0.0175971
-0.0624454
-0.0203469
-0.0285526
-0.0645979
-0.052408
-0.0369467
0.00638617
0.0424159
0.0216916
0.0306759
0.0357662
0.00132493
-0.0639352
-0.075412
-0.0557013
-0.0696111
-0.0708747
-0.0286845
-0.0182341
-0.0291786
-0.0343596
-0.0399544
-0.0177285
0.0359676
0.0425686
0.053328
0.0453213
0.010638
-0.0757419
-0.0790312
-0.0635341
-0.0431747
-0.0752538
-0.0504332
-0.0213876
-0.0264324
-0.0217549
0.00247215
-0.0122958
0.0584283
0.0423437
0.0394979
0.0467047
0.00499562
-0.0387355
-0.0365008
-0.0422436
-0.0368357
-0.0478325
-0.0471852
-0.0433646
-0.0521368
-0.0408227
-0.0263927
0.00611382
0.0733958
0.0486301
0.03577
0.0375621
0.00935661
-0.0396933
-0.0301618
-0.0302449
-0.0197924
-0.0123255
-0.0364493
-0.0648651
-0.039677
-0.037415
-0.0309118
-0.0105637
0.0786561
0.0832996
0.0326032
0.0258612
0.0390282
0.0095292
-0.0133893
-0.00642201
-0.00979269
-0.0518333
-0.0531443
-0.0578403
-0.014362
-0.0241099
-0.0372157
-0.00135542
0.0599156
0.0762595
0.0520036
0.0623518
0.0357494
-0.0166631
-0.0463362
-0.0508759
-0.0409155
-0.108236
-0.0744467
-0.0439668
-0.0198316
-0.048643
-0.0282461
-0.00818966
0.0507054
0.0322377
0.0503451
0.0422044
-0.0103821
-0.0334197
-0.0538376
-0.0453629
-0.0360768
-0.0782689
-0.0533817
-0.0783759
-0.0723094
-0.0461801
-0.0370656
-0.00497437
0.070315
0.0206819
0.0214746
0.00220328
-0.0074963
-0.0538266
-0.0558349
-0.0125358
-0.00842901
-0.0414283
-0.0262729
-0.0358612
-0.0184577
-0.000727964
-0.0086718
-0.0118201
0.035085
0.0334179
0.0318803
0.0292888
-0.0277655
-0.0580634
-0.0184742
-0.0119793
-0.0418046
-0.0531257
-0.0550064
-0.0455419
-0.0220722
-0.0295839
-0.00724235
0.0287163
-0.00225443
0.0313897
0.0432129
0.0456031
-0.000761786
-0.0208967
-0.0199783
-0.0403383
-0.0436746
-0.0384
-0.0542806
-0.0409384
-0.0187811
-0.0212081
0.0356175
0.039172
0.00444507
0.0460946
0.0540186
0.00330199
0.0139112
0.0157823
-0.0150485
-0.0162493
-0.0327846
-0.0364223
-0.0461143
-0.0335186
-0.0123089
-0.0143464
0.0249027
0.00783322
0.0483185
0.0632973
-0.016081
-0.0193938
0.00762505
-0.0201117
-0.0513911
-0.0568648
-0.0473738
-0.0469307
-0.0450099
-0.0369731
-0.0104042
-0.0172058
0.0223152
0.0191502
0.051107
0.0385088
-0.027538
-0.00122321
-0.0107707
-0.053603
-0.080978
-0.0523686
-0.0201579
-0.0157285
-0.0240198
-0.0353567
-0.0291497
-0.0363491
-0.0110448
-0.0401635
-0.00284659
-0.0281013
-0.0519393
-0.0455025
-0.0243087
-0.0617762
-0.0707942
-0.0463976
-0.020088
-0.0267138
0.00174856
-0.0199702
-0.0178954
-0.0187147
-0.0368456
-0.0673505
-0.0168451
-0.0302396
-0.0712889
-0.0539094
-0.00135604
-0.0427721
-0.0454378
-0.00593096
0.00475938
-0.00900509
-0.014103
-0.0337534
-0.0312586
-0.0360889
-0.0663749
-0.0369805
0.0316624
-0.023899
-0.0740151
-0.0288143
0.00845279
-0.0308792
-0.0467518
-0.0014548
-0.00253738
-0.0127803
-0.0160411
-0.0244252
-0.030409
-0.0392538
-0.0491158
-0.0168473
-0.00881451
-0.0225818
-0.0405757
-0.0253217
-0.00969163
-0.0188731
-0.00217072
0.00511655
-0.0273098
-0.00627099
-0.00926535
-0.0166413
-0.0329126
-0.0376954
0.00402064
0.00117318
-0.00802069
-0.0426127
-0.0539576
-0.0426836
-0.0372652
-0.0528218
-0.0189703
-0.00900171
-0.0346069
-0.0294046
-0.0209558
-0.0183412
-0.0474259
-0.0476873
-0.00895595
-0.00801357
-0.0372185
-0.0519684
-0.041155
-0.0291514
-0.0506575
-0.0593531
-0.0380352
-0.0601758
-0.086762
-0.0737969
-0.0844967
-0.0765167
-0.100231
-0.109084
-0.0333094
-0.0525963
0.0589938
0.0208091
0.0428259
0.0859623
0.141066
0.193815
0.200799
0.155916
0.13414
0.0646962
0.0469755
0.0181925
0.018759
0.0545773
0.0775388
0.0568611
0.0365534
-0.0139446
-0.0216676
0.010102
0.0222784
0.0911364
0.104923
0.0794021
0.0415882
-0.0253848
-0.0424142
-0.0308235
-0.0362902
-0.0378613
-0.0459503
-0.0166554
0.0208456
-0.000360337
-0.0117205
-0.00940695
-0.029092
-0.0325681
-0.000974159
-0.0579415
-0.0838031
-0.0535545
-0.0360447
-0.0127666
-0.0181564
-0.0345476
-0.036264
-0.0210029
0.0128877
-0.0243975
-0.036321
-0.0830377
-0.0536962
0.00681019
0.000670707
-0.0532572
-0.093769
-0.0463504
-0.0142065
0.0120923
0.00822109
-0.00439624
-0.0243425
-0.00811108
0.00015146
-0.0611847
-0.0715838
-0.0354341
0.0819916
0.103167
0.0543413
-0.0511864
-0.0401323
0.0325913
0.0399397
0.00318666
-0.031333
-0.0568366
-0.0954416
-0.0795367
0.00877814
0.0122245
0.106303
0.182634
0.213941
0.151841
0.0740564
0.0125547
0.032257
0.0422123
0.00542883
-0.0407668
-0.0331073
-0.0832303
-0.0612644
0.00515102
0.0322259
0.0927188
0.174884
0.214812
0.159191
0.0967357
0.0544141
0.041552
0.052329
0.0300493
-0.0179824
-0.0387496
-0.066775
-0.0795639
-0.0469649
0.0201496
0.0471287
0.0737992
0.11042
0.125769
0.0825049
0.0751515
0.0570249
0.0822339
0.0604662
0.00748236
-0.015181
-0.00528807
-0.00623838
-0.00531618
0.00120069
0.0299617
0.0542178
0.00760662
0.0422656
0.0623788
0.0341242
0.0455981
0.0707433
0.0538541
0.0280063
0.0135858
-0.0308846
0.00980522
0.00372966
-0.0210817
-0.0436836
-0.0244389
0.0413827
0.00442763
0.0335942
0.0131766
-0.0158055
0.0309704
0.0350701
0.00720483
0.00527166
-0.00566931
-0.0541829
-0.00711417
-0.0226155
-0.0661939
-0.0471356
-0.0068091
0.0649069
0.0255568
0.0294921
0.0418904
-0.00665285
-0.0254853
-0.0428165
-0.0123762
0.0136156
-0.00166312
-0.0174451
-0.0277096
-0.045514
-0.074499
-0.0504061
-0.0233328
0.0527663
-0.0108703
0.0142168
0.0101882
-0.0627756
-0.0463319
-0.0275215
-0.00612629
0.0107137
-0.0041282
-0.0109423
-0.072962
-0.108092
-0.0808161
-0.0498638
-0.010991
0.0874533
-0.0152349
0.00323493
0.00929993
-0.0357306
-0.0470096
-0.00586032
0.0550568
-0.00324986
-0.0224634
-0.0367756
-0.0634335
-0.102883
-0.0716697
-0.0428709
0.0086707
0.0430589
-0.0426805
-0.0558504
0.000719208
-0.0133652
-0.0816635
-0.0440901
0.00542667
-0.0532278
-0.0495466
-0.0121451
0.0170116
-0.0311374
-0.0428738
-0.0252564
0.00265823
0.0108459
-0.0487448
0.00717196
0.04618
-0.00637002
-0.0689416
-0.0669145
-0.0381455
-0.0269239
-0.0334511
-0.0190104
0.00394693
-0.00877382
-0.0242152
0.0158952
-0.0265443
0.0539352
-0.0112882
-0.0152434
0.0216104
-0.0166734
-0.0406211
-0.00988616
-0.00284962
-0.0137317
-0.0429691
-0.0530742
-0.0718246
-0.0604045
-0.0559556
-0.0350556
0.00695884
0.0217433
-0.0237416
-0.0409224
-0.0278779
-0.050879
-0.0948309
-0.0278884
-0.00399874
0.0136719
-0.00784374
-0.0196623
-0.0624054
-0.0394084
-0.0376593
-0.0341605
-0.0121655
0.0582274
0.0375565
-0.0014877
-0.0226411
0.0122565
-0.0374821
-0.0190408
-0.00509083
0.00937766
-0.0444296
-0.0167806
-0.0084376
0.00228634
-0.047637
-0.0473275
-0.0124544
0.0384387
0.00665294
0.0493051
0.057534
0.0168576
-0.034226
-0.065177
-0.0708964
-0.0456108
-0.108996
-0.0623059
-0.0424457
-0.0491311
-0.0659072
-0.019221
0.0202299
0.0509947
0.0518191
0.0540393
-0.0174551
-0.0343991
-0.0590254
-0.0975188
-0.0831893
-0.0596493
-0.0913343
-0.0548398
-0.0662583
-0.0907821
-0.0839176
-0.070447
-0.0143883
0.0604405
0.0161549
-0.0242701
-0.0502994
-0.0188611
-0.0689384
-0.122121
-0.0497696
-0.0218002
-0.0419436
-0.0399762
-0.0134764
-0.0280112
-0.023415
-0.0460724
0.00729189
0.0714646
0.0235006
-0.0245606
-0.0341874
-0.0685553
-0.0629195
-0.0599644
-0.0385544
-0.0391779
-0.0729752
-0.0666745
-0.0324265
-0.0391144
-0.0202134
-0.000107087
0.00783512
0.0328293
0.0408365
0.0355617
0.0546259
0.0158893
-0.0205803
-0.058118
-0.0678539
-0.0698899
-0.0973886
-0.0822606
-0.0407295
-0.0148726
-0.0136042
0.0353697
0.0192054
-0.00155428
0.0469083
0.0607454
0.0184142
0.0115454
0.000108438
-0.0359379
-0.0404704
-0.0575855
-0.112156
-0.0848764
-0.0352794
-0.0145918
-0.00783027
0.00570946
-0.0280422
0.0624555
0.0414519
-0.0617834
-0.08186
-0.0526168
-0.0724419
-0.0836352
-0.0717368
-0.0446805
-0.0587885
-0.0534335
-0.0296779
-0.0545732
-0.0364802
-0.00369971
0.0257983
0.0482923
0.00718296
-0.0424132
-0.00836174
-0.0426843
-0.0985232
-0.110259
-0.0747678
-0.0180691
-0.0315075
-0.0297852
-0.056062
-0.0558185
-0.0414935
-0.0140112
-0.00244485
-0.000425195
-0.0394504
-0.0883287
-0.0932572
-0.099634
-0.0964802
-0.0914585
-0.0815248
-0.0640039
-0.044001
-0.0330792
-0.0466787
-0.0420675
-0.0451195
-0.0595417
-0.0638623
-0.00773502
-0.0509349
-0.0702943
-0.0554997
-0.0563662
-0.0671148
-0.0258198
-0.0446551
-0.0421941
-0.0444661
-0.0341394
-0.0244996
-0.0459717
-0.0726432
-0.0562283
-0.0599237
0.0290829
-0.0264747
-0.0292484
0.0177774
0.0220547
-0.024706
-0.0288415
-0.0308968
-0.0259865
-0.0466248
-0.0147533
-0.00599411
-0.045003
-0.0648949
-0.022975
-0.0117043
0.00144176
-0.0208412
-0.0155927
-0.00716214
0.00189972
0.0140397
0.00218031
-0.0294289
-0.0608736
-0.0137721
0.0140305
0.0118864
-0.0429405
-0.0331727
0.0048795
-0.00226082
-0.0171168
-0.0748763
-0.0672498
-0.045076
-0.0584976
-0.0539347
-0.0294639
-0.0473502
-0.0495273
-0.013567
-0.00322694
0.0186154
0.00312287
0.0207815
0.0525618
0.0135712
-0.0335264
-0.082269
-0.0797326
-0.0208765
-0.0800187
-0.0957617
-0.0641523
-0.0823501
-0.0908564
-0.0604925
-0.0767489
-0.0332303
-0.0174675
-0.0719522
-0.0581011
-0.0496996
0.196376
0.139804
0.104478
0.104325
0.144706
0.170549
0.195779
0.20657
0.205497
0.157973
0.14072
0.083523
0.084249
0.115507
0.121071
0.118021
0.119553
0.0609009
0.0526442
0.0238921
0.00544656
0.037889
0.0632231
0.0933077
0.0832715
0.0415227
0.022792
0.0233816
0.03248
0.0479461
0.0803522
0.0996903
0.144076
0.120783
0.118102
0.0820462
-0.000400872
-0.0234381
-0.0290154
-0.0598021
-0.0548243
-0.0234196
0.0146087
0.0328761
0.0486842
0.054827
0.0931953
0.142434
0.111953
0.0839512
0.0712115
0.0314661
0.0328646
0.00699664
-0.0174011
-0.0685006
-0.0710993
-0.059915
-0.0107129
0.0588023
0.105816
0.113361
0.114107
0.145865
0.0716273
0.0411526
0.0173811
0.0198986
0.116811
0.0888205
0.00330525
-0.0199268
0.00345272
0.058901
0.0713104
0.0328766
0.0259451
0.0340338
0.00522259
0.0315718
0.0605931
0.0701943
0.102582
0.134024
0.172665
0.152528
0.0919644
0.0774965
0.0846471
0.0798196
0.0692176
0.0331778
0.0366267
0.0260289
0.0393395
0.0814702
0.0776527
0.0707165
0.131922
0.143341
0.115751
0.0940819
0.080018
0.079869
0.0652429
0.0297473
-0.000716853
-0.042758
-0.0391
-0.0193197
0.0397477
0.105079
0.0968686
0.0438558
0.0695529
0.085421
0.0515977
0.0214035
0.0238758
0.065471
0.0654543
-0.00538715
-0.0336422
-0.0066483
-0.0125584
3.2723e-05
0.0435175
0.0627987
0.0698967
-0.0132001
0.0168571
0.0354178
0.0084517
0.0272164
0.0445346
0.0254362
0.0170972
0.0074818
-0.00411515
-0.00581535
-0.0428744
-0.0685819
-0.0674117
-0.0258044
0.0556424
-0.017252
0.00010477
-0.0270345
-0.0536131
0.0059203
0.0399144
0.0205101
0.0329118
0.024237
-0.000883209
0.0279621
-0.0052396
-0.0513418
-0.0281045
0.0307165
0.111716
0.0543952
0.0514361
0.0219481
-0.0248103
-0.0388664
-0.00485752
0.030779
0.0470711
0.021442
0.0124484
0.0249214
0.0151365
-0.00603134
-0.0236483
0.0208385
0.0897678
0.0460895
0.0464222
-0.0192933
-0.0487755
-0.0193419
0.0022782
0.00558373
0.00601767
-0.00295521
-0.015455
-0.0875171
-0.0732369
-0.0434844
-0.0128058
0.0287208
0.106086
0.0239614
-0.0434002
-0.0511391
-0.0326427
-0.000302882
0.0398605
0.023397
-0.0357313
-0.0246115
-0.0329963
-0.103051
-0.103664
-0.0361607
-0.00951715
0.0415043
0.0696657
0.0141409
0.0170608
-0.00390714
-0.0205915
0.0164805
0.0766095
0.0694088
0.0365199
0.0547314
0.0385073
0.0243233
-0.0199993
0.00543211
0.0627004
0.0792924
0.0519973
0.0242284
0.0353759
0.0165153
-0.0343061
-0.0151302
0.0199478
0.0347839
0.0485067
0.0609962
0.0701053
0.0432479
0.0156165
0.0244431
0.0497122
0.06996
0.0545245
-0.00862843
-0.0260062
-0.0285289
-0.0540564
-0.0194061
0.00690482
0.000378229
0.00513828
0.000608719
-0.0296124
-0.0375593
-0.0569139
-0.0449454
-0.00779885
0.0416451
-0.0028061
-0.0364772
-0.0873803
-0.0540908
-0.0787789
-0.0764087
-0.00986773
-0.00126614
0.00667885
0.0278016
0.000433827
-0.0453148
-0.0632112
-0.0241439
0.0316452
0.059293
0.000104712
-0.00356426
-0.0577192
-0.0546474
-0.0273034
-0.0377536
-0.00235668
0.0298815
0.0325114
0.030176
0.0238936
-0.0163234
-0.0126654
-0.0167332
-0.00506792
0.0451982
0.0520043
-0.000120691
-0.00062766
-0.00299379
-0.0307648
-0.0517376
-0.0150812
-0.032434
-0.0115143
-0.0350568
-0.0054982
-0.00768391
-0.0462704
-0.0130073
0.042286
0.0296347
0.104079
0.0752246
0.00160849
-0.0584339
-0.0755779
-0.0772784
-0.0729361
-0.0843583
-0.0483549
-0.0323911
-0.00120973
-0.0456668
-0.0682809
-0.0144863
0.0158213
0.0292266
0.0845802
0.0220667
-0.0765748
-0.0923854
-0.0630292
-0.103159
-0.117055
-0.0971432
-0.0272307
-0.0204421
-0.0272089
-0.0345817
-0.0478512
0.0103856
0.030478
0.100301
0.0924122
0.0179333
-0.0609408
-0.125581
-0.118639
-0.0806384
-0.0607697
-0.00889772
0.036302
-0.0381846
-0.0141289
-0.0433452
-0.0590957
-0.0044944
0.0374422
0.102826
0.122352
0.0925914
0.00602823
-0.0208959
0.00909646
0.0206574
0.0177
0.0287048
0.00689315
-0.0770612
-0.0805136
-0.101355
-0.082697
-0.0234647
0.0273412
0.058974
0.0870833
0.0808601
0.0544101
-0.00275339
-0.0278981
-0.0489541
-0.0186901
-0.0144864
-0.0346681
-0.0623627
-0.075331
-0.0469132
-0.0531
-0.0201591
0.0432823
0.0470406
0.0824573
0.0516316
-0.0229981
-0.0989463
-0.143579
-0.156093
-0.0834819
-0.0846526
-0.0762387
-0.0513497
-0.0624996
-0.0434361
-0.0482832
-0.0150814
0.0370315
0.0652135
0.0845796
0.0707959
0.0499479
-0.00424714
-0.104585
-0.114407
-0.0602718
-0.0551451
-0.013028
-0.0102676
-0.0877969
-0.0987457
-0.054811
0.000997048
0.0375281
0.0832367
0.113556
0.0648472
0.0473677
0.00871217
-0.0487077
-0.0350386
-0.0560509
-0.0560414
-0.0210919
-0.00754987
-0.0545293
-0.0340007
-0.00393441
0.032886
0.060326
0.0746876
0.0706688
0.0470613
0.0499317
0.0154236
-0.0198063
-0.0248149
-0.0289414
-0.0293211
-0.0309287
-0.0261109
-0.0331213
-0.0107543
-0.0223712
0.055082
0.0677219
0.0708084
0.0686734
0.0522612
0.0741789
0.0597638
0.0514337
0.0254414
0.00920479
-0.035495
-0.052731
-0.0504057
-0.0323709
0.00263122
-0.0337899
0.00467324
0.0523901
0.104439
0.106289
0.0975095
0.0815633
0.059257
0.0448786
0.046413
0.0338528
0.0105634
0.000539288
0.0101406
0.010938
-0.00844159
-0.0486825
-0.00180804
0.0146795
0.0375226
0.0768329
0.0335563
0.012318
0.01248
-0.00130819
0.00613217
-0.00694113
-0.0132803
0.0105696
0.0207566
0.0426154
0.0371716
0.0270398
0.0447474
0.0323116
0.061594
0.0259683
-0.0362888
-0.041582
-0.0482925
-0.0729144
-0.0964288
-0.0930682
-0.0866196
-0.0575703
-0.0251408
-0.0101477
0.0151911
0.000266134
-0.0182497
-0.00581698
0.0447161
0.049448
0.0688441
0.0444919
0.0237011
0.016779
0.0508509
0.0674567
0.108276
0.123985
0.138686
0.124186
0.103355
0.0983562
0.128327
0.102199
0.0816594
-0.0219811
0.00955141
-0.000382527
-0.046955
-0.0782927
-0.0730063
-0.0481705
0.0095799
0.0329976
0.02441
0.0159003
0.0487461
0.0230188
-0.00179991
0.0107158
0.0128163
0.040107
0.100477
0.086798
0.0373709
-0.0124559
-0.0510668
-0.0799557
-0.0640416
-0.0447677
-0.0439226
-0.0236672
0.00116795
0.00774436
0.0438626
0.0455843
0.0725596
0.0283724
0.0503823
0.0414249
0.0511475
0.0204515
-0.00148397
-0.0989365
-0.0862961
-0.0522753
-0.0594088
-0.0440871
0.00982167
0.0479857
0.0933481
0.0896895
0.112141
-0.0186275
-0.0228476
-0.0365228
-0.0210151
-0.0368637
-0.0462497
-0.0612712
-0.00750327
0.00736092
0.0197392
0.00506226
-0.00185865
-0.0220087
-0.00545651
0.0272685
-0.00209008
-0.00591788
-0.00801193
-0.0265197
-0.038232
-0.0180499
0.00336278
0.022885
0.0567538
0.0529781
0.0414192
0.0353202
0.0731715
0.0469111
0.0373002
0.0548886
0.0114816
-0.00105888
-0.013253
-0.0228844
-0.020522
0.0156923
0.032925
0.0511608
0.0570112
0.0264179
0.0408441
0.0172549
0.0337316
0.0201827
0.0073411
0.0315985
0.0261996
0.0400995
0.0100001
0.0160228
0.0318797
0.0673295
0.0548233
0.043521
0.067822
0.0554485
0.0503211
0.0282161
0.0319394
-0.00730893
-0.00991853
0.0230052
-0.00830377
-0.0380254
-0.041295
-0.0248501
0.0304471
0.0752686
0.0829002
0.0660166
0.0615639
0.0483637
0.058732
0.0354685
-0.0118929
-0.0718843
-0.0622824
-0.0481078
-0.0715742
-0.0614767
-0.0653142
-0.0759021
-0.0486199
-0.00504672
0.0511881
0.06516
0.0206123
0.021174
0.00346732
-0.00533711
-0.00639695
-0.0545442
-0.0768872
-0.0447493
-0.0308027
-0.0184309
0.00664239
-0.0119468
-0.046976
-0.0493709
-0.0122883
-0.00511828
-0.0128133
0.024198
0.00789602
0.00469491
-0.00498473
-0.043854
-0.0271571
-0.0125723
-0.0212706
-0.021299
-0.0117356
-0.0411462
-0.0564333
-0.0665546
-0.0542551
-0.033152
-0.0326419
-0.0245849
-0.0155985
-0.0725136
-0.114756
-0.104679
-0.0434454
-0.0252572
-0.0268157
-0.046172
-0.0614953
-0.0964301
-0.108116
-0.0663212
-0.0237977
-0.00457706
-0.036638
-0.0424039
-0.0465951
-0.088964
-0.107523
-0.101627
-0.0305279
-0.0213686
-0.0343763
-0.0529098
-0.0293351
-0.0779638
-0.0793012
-0.0266232
0.0444039
0.0663999
0.0328964
0.0303717
0.0363545
0.00642345
-0.00889563
-0.0560559
-0.000209111
0.00892391
-0.0152152
-0.0330453
-0.0341539
-0.0799818
-0.0870205
-0.0424387
0.0138662
0.0362324
0.0367325
0.0444903
0.0313101
0.0100398
-0.0162444
-0.0570109
-0.0108227
-0.0364309
-0.0254921
-0.0365071
-0.0474977
-0.0980153
-0.10538
-0.0567414
0.0324173
0.0634302
0.0565964
0.0395648
0.0390561
-0.00910794
-0.0541518
-0.0592632
-0.0504701
-0.0539023
-0.0304414
-0.0602088
-0.0391306
-0.0764032
-0.0535083
-0.0574771
0.01138
0.0581209
0.0763239
0.0609806
0.0524723
-0.00341826
-0.0735965
-0.104552
-0.0464892
-0.0276686
-0.0172239
-0.0526963
-0.0246145
-0.0677613
-0.0640924
-0.0275547
0.0421809
0.064422
0.0719022
0.0604926
0.0364853
-0.0074918
-0.0588114
-0.0596434
-0.0495183
-0.0320124
-0.0421744
-0.0370145
-0.0430973
-0.064715
-0.0674967
-0.0107745
0.0156004
0.0226966
0.0112735
0.00285179
-0.00254939
-0.0694207
-0.0867788
-0.0754124
-0.0429406
-0.00517437
-0.00461699
0.0185055
-0.00551652
-0.0749887
-0.112883
-0.055282
0.00161892
-0.00931365
-0.0142361
-0.0469105
-0.0416387
-0.068755
-0.0981505
-0.107215
-0.04947
-0.0430496
-0.0277278
-0.00894408
-0.0258584
-0.0875916
-0.100087
-0.0691868
-0.0570046
-0.082156
-0.0912102
-0.0814788
-0.0488634
-0.0534829
-0.0905359
-0.0818766
-0.0445611
-0.0148981
0.00656625
0.00844338
0.0107073
-0.0519579
-0.0906775
-0.0696074
-0.0805335
-0.0579397
-0.0408835
-0.0474938
-0.0429147
-0.0563226
-0.104361
-0.0897206
-0.00246526
0.000582689
0.0254413
0.0569949
0.0538826
-0.00210952
-0.0261104
-0.0213939
0.000547779
-0.000280562
0.00857081
-0.0412469
-0.0736519
-0.0873503
-0.0994643
-0.0659305
0.0162427
0.00153125
-0.00484047
0.027086
0.0182573
0.022888
-0.0219295
-0.0418892
-0.023114
-0.00169262
-0.00920166
-0.0417303
-0.0486228
-0.0739226
-0.0633634
-0.0608812
-0.0323632
0.0369289
0.0205176
0.0192605
0.00182612
-0.0318614
-0.0789041
-0.103932
-0.10224
-0.0491289
-0.0746695
-0.0700258
-0.0807578
-0.0985284
-0.097196
-0.0846754
-0.037341
0.0131015
0.0173018
0.0451769
0.0432351
-0.00599751
-0.0654711
-0.1022
-0.0947513
-0.0516289
-0.0574844
-0.0618396
-0.0911487
-0.142173
-0.126026
-0.0746337
-0.012755
0.0292178
0.0439222
0.0516205
0.0440304
0.0188234
-0.00823431
-0.0304076
-0.0175594
-0.00925487
-0.0621823
-0.05555
-0.0890361
-0.100584
-0.0899015
-0.067363
-0.00337182
0.0445811
0.0437085
0.0398057
0.0502888
0.0148458
-0.013937
-0.0338628
-0.0284718
-0.0549082
-0.0751336
-0.0689592
-0.066671
-0.0855449
-0.0897233
-0.0575147
0.0301517
0.0763356
0.047937
0.0547758
0.0600741
0.0542335
0.0472321
0.0234324
0.0148982
-0.017532
-0.0424436
-0.0588517
-0.0695386
-0.0719306
-0.0338905
-0.0265036
0.0396523
0.0504726
0.0497333
0.0696798
0.0772625
0.0559992
0.0439264
0.021654
0.0231141
0.00582155
-0.000792816
-0.00238322
-0.0217653
-0.0305806
0.00460502
-0.0015636
0.0266911
0.0390377
0.0461106
0.0393833
0.0357597
0.0185205
0.0107068
0.00416192
0.00492911
-0.00349815
-0.00269178
0.0337508
0.0258228
0.00742629
0.0144294
0.0344775
0.0404921
0.0402313
0.0473197
-0.0306593
-0.0251844
-0.027547
-0.0290828
0.00554084
0.00619772
0.0143564
0.00774364
-0.00473667
-0.00457334
-0.0347116
-0.0158627
0.00150666
0.033256
0.0345972
0.0200489
0.0948229
0.0711968
0.057771
0.034898
0.0661045
0.0195545
0.0609288
0.115757
0.136745
0.172896
0.166106
0.19471
0.146471
0.136774
0.0858611
0.0836737
0.0462931
0.0440627
0.0244625
-0.0306534
-0.0140908
-0.0484477
-0.0255538
0.0488427
0.0857946
0.086549
0.0850807
0.106129
0.0907486
0.0128092
-0.00750467
0.0384261
0.0645792
0.0495361
0.0300859
0.007234
0.00826629
-0.00236281
-0.0321017
-0.0312593
0.0224503
8.9655e-07
0.0156887
0.0266369
0.00743085
0.024455
0.0225732
0.0841077
0.0491473
-0.00405989
-0.0143964
0.0147763
0.0111259
0.0293304
-0.00930092
0.00645889
0.0616646
0.055379
0.0479386
0.0374464
-0.0222207
0.000136984
0.00837262
0.0882813
0.0158625
-0.0223947
-0.00238982
0.0133463
-0.0262104
0.00909269
0.0249781
0.067448
0.060615
0.0949284
0.105695
0.0747007
-0.0132334
-0.0373349
0.0132265
0.0510913
-8.52948e-05
0.000905335
0.0214653
-0.000314493
0.00903542
0.041894
0.0561326
0.0886621
0.0765651
0.105932
0.12377
0.146788
0.142268
0.115825
0.0758986
0.0750544
0.032037
0.00555193
1.41278e-06
0.010017
0.0471741
0.0816812
0.109217
0.1114
0.0791615
0.0928739
0.11383
0.152479
0.161796
0.141157
0.104142
0.100355
0.0370752
0.0472598
0.0341913
0.0450159
0.0839303
0.0930855
0.0972716
0.0919834
0.0911526
0.0843323
0.121465
0.116537
0.133425
0.128715
0.122344
0.112067
0.0192044
0.0240172
0.0365912
0.0641101
0.104809
0.106959
0.0837746
0.078849
0.0959872
0.097931
0.0797848
0.0546933
0.0448592
0.0736406
0.0959062
0.107011
0.0669247
0.00785103
-0.0186164
-0.00986828
0.0429949
0.0696755
0.0693047
0.0443087
0.0723541
0.0564862
0.0498575
0.0329322
0.0435513
0.0853118
0.13935
0.11899
0.119707
0.0793787
0.0606529
-0.028704
-0.0285402
0.00169698
0.0225145
0.0135765
0.0568163
0.0199848
0.0223084
0.0497465
0.044535
0.0664237
0.102986
0.145932
0.090266
0.0590397
0.0265041
-0.00360966
-0.0372035
-0.0119183
0.00276266
0.0212802
0.0208377
0.0178298
-0.0484775
-0.0179428
0.0328466
0.0602764
0.111114
0.145188
0.0442392
0.0261495
-0.0158028
-0.0109518
0.00481807
0.0496869
0.00692276
0.009477
0.034144
0.0771576
0.0253362
0.0234671
0.0590491
0.109315
0.111111
0.145145
0.0707777
0.0533779
-0.00746438
0.000492286
-0.00463117
0.0393255
0.0304878
0.00853367
0.0376614
0.0531544
0.047371
0.0814393
0.0605911
0.0377122
0.0396268
0.135529
0.0893841
0.0712682
-0.0354935
0.000309492
-0.0249202
0.010895
0.021828
0.0674488
0.0359436
0.0312164
0.0156783
0.0628358
0.0483582
0.0335522
0.0341283
0.12275
0.0933028
0.130976
0.0318576
-0.0269925
-0.0231578
0.0363392
0.0724886
0.0808378
0.0597123
0.0636211
0.0113779
0.0516736
0.0629397
0.0544475
0.0331689
0.0865919
0.0953754
0.108621
0.103181
0.052622
-0.016231
0.0248631
0.0412416
0.0671607
0.0812048
0.0869691
0.0374408
0.0421087
0.00742103
0.0258327
0.0426878
0.107622
0.086463
0.104589
0.0731342
0.0688594
0.0605017
0.0584085
0.0506923
0.0341971
0.0417583
0.0554562
0.0390796
0.0582046
0.0564772
0.0439181
0.0952489
0.143
0.0420707
0.0359626
0.0164387
0.050109
0.0868345
0.0875042
0.0993994
0.0517575
0.0146565
0.0506982
-0.0545886
0.00252404
0.0578508
0.0732472
0.0688538
0.127908
0.0522027
0.0471608
-0.0183543
0.0100444
0.046055
0.0656379
0.0570705
0.0690463
0.0357749
0.0425023
-0.0187139
0.0260589
0.0561989
0.0049389
0.0355911
0.0638809
0.000470756
-0.00723961
-0.04309
0.00496002
0.0232777
0.0660523
0.0189487
0.00973159
0.0149891
0.0567442
0.062812
0.0170698
0.0475104
0.0145737
0.055476
0.0961236
0.0267423
0.00226985
0.00377985
0.0248253
0.0622294
0.054142
0.0288862
4.89919e-05
0.0232013
0.059592
0.0248516
0.0226879
0.0395884
0.0566882
0.0155148
0.115633
0.0561392
0.0239755
0.045139
0.0561679
0.0697874
0.0862538
0.0634107
0.023702
-0.00816762
0.0107206
0.0052263
0.0390516
0.0636978
0.112478
0.0183831
0.0442484
-0.0130968
-0.0301578
0.0494218
0.0228981
-0.025558
0.0403162
0.0646039
0.0275406
0.0134932
0.0058262
0.0126909
0.0240115
0.0264918
0.0216885
0.00777481
0.0301072
-0.00986301
-0.0144573
0.0219603
-0.0136698
-0.0418982
-0.0325198
-0.00129733
-0.0169332
0.00514022
-0.012652
-0.0132168
0.0375065
0.000526117
0.010339
0.0119553
0.0347158
0.0178104
0.0199403
0.0161767
-0.0211655
-0.00546031
-0.0287349
-0.00948651
0.0118392
0.0158579
-0.0111072
-0.00550444
0.0066565
0.0187927
0.0267346
0.0427877
0.0894396
0.0231053
-0.0321166
-0.00601753
0.0192218
0.0293396
0.00695507
0.0206791
0.00106682
-0.00911393
-0.0616822
-0.0322496
-0.00921074
0.0181458
0.0304623
0.0665508
0.0801224
0.00120575
-0.0147196
0.00812662
-0.00100644
-0.0239891
-0.0100378
0.0274232
0.018453
-0.0107327
-0.00656212
-0.0251253
-0.00982008
0.0148767
0.0191642
0.0744591
0.0939319
0.0151275
0.00176144
0.0294325
0.0613836
0.0279864
0.072989
0.0541993
0.00333934
-0.00143038
0.00432074
0.00798881
0.0529329
0.0475402
0.0478806
0.0648077
0.0808539
0.0566475
0.0529188
0.0276932
0.0421976
0.0349743
0.0480731
0.0496599
0.0361681
0.0465725
0.0584591
0.0542139
0.0846523
0.0658072
0.0579513
0.0739071
0.0754829
0.00928739
0.0383257
0.0781769
0.0376221
-0.00998576
-0.0098168
-0.002625
0.0389765
0.0469806
0.0673711
0.0493593
0.0471859
0.0743893
0.0555356
0.0604757
0.0755031
-0.0263661
-0.0018199
0.0172761
-0.00354406
0.0414841
0.00945291
0.0225389
0.0342901
0.0440377
0.0431761
0.0262164
-0.0155154
0.00538387
0.0540904
0.0385774
0.0253205
0.00169682
0.0265097
0.0179663
0.0381505
0.0302279
-0.00754092
0.0398357
0.0241594
0.0477238
0.0837011
0.0684671
0.0984332
0.103471
0.0898757
0.0681757
0.0398628
-0.0232016
0.0042391
-0.0105909
-0.0293154
-0.03508
-0.0420865
-0.0362707
-0.00554339
0.0385662
0.0676563
0.0498365
0.0799992
0.0876676
0.0325305
0.00874124
0.00630674
-0.0001208
-0.0102311
-0.0239227
-0.0470107
-0.0549583
-0.067802
-0.059778
-0.0218841
0.0183809
-0.00364762
-0.00325684
-0.0138378
-0.00877045
0.0232029
0.0243319
0.0608385
0.0115678
-0.0285435
-0.0230992
-0.0182189
-0.00406476
-0.0104607
-0.0052167
0.0169012
0.0323965
0.0217883
0.0141261
-0.0368733
-0.046908
-0.0272469
-0.0107349
0.0533071
-0.00285333
-0.0226979
-0.0188271
-0.00646144
-0.0299541
-0.0346733
0.000246538
0.0207793
0.00613195
0.0230227
0.0277732
-0.0135693
-0.0694514
-0.0524374
-0.0177245
0.0223442
-0.0261777
-0.00490537
-0.00541125
-0.0164973
-0.0339164
-0.0446522
-0.0281369
0.00848151
0.0212194
0.0241838
0.0113295
0.016784
0.0249203
0.00571078
0.0103373
0.0108797
-0.0260666
-0.016305
-0.0243603
-0.015795
0.00218802
0.00847178
0.0245452
0.0410109
0.059167
0.0563189
0.0621575
0.0698903
0.102763
0.106032
0.0576284
0.0432009
-0.0084252
0.00814941
0.00718349
0.0349614
0.0597013
0.0594212
0.0510149
0.0490826
0.0392866
0.0581765
0.112294
0.115639
0.107301
0.121553
0.126608
0.0797239
-0.00207115
0.0116136
0.0248174
0.064432
0.120321
0.109274
0.0716707
0.0701443
0.0610245
0.0503125
0.0875635
0.0914913
0.0505082
0.0769623
0.126221
0.102292
0.025541
-0.00984745
0.00303001
0.0232674
0.0759101
0.0825035
0.0603855
0.0573618
0.0547988
0.024316
0.0353562
0.0539665
0.0486477
0.0495652
0.117428
0.117061
0.00738037
-0.0294228
0.0125044
-0.00266037
0.0120039
0.0421653
0.0364612
0.0218825
0.038864
-0.00172918
-0.00744693
0.0140065
0.0431414
0.0414026
0.0833928
0.115742
-0.000509615
-0.0419986
-0.0261509
0.0231724
0.0167122
0.0339547
0.0353973
0.0295819
0.0250321
0.0250151
-0.0169968
0.0105983
0.0754901
0.0648365
0.0721545
0.0919863
-0.0240986
-0.0245758
-0.0342714
-0.0125118
0.0248021
0.0611482
0.0310306
0.0130898
0.0122788
0.0543025
0.0362668
0.0376102
0.0658687
0.0720594
0.0491268
0.0790114
-0.00264882
-0.0122271
-0.0393216
-0.0246476
-0.00968669
0.0403732
0.0703016
0.0315618
0.034504
0.0534697
0.0537722
0.0659495
0.0422631
0.0190712
0.0600247
0.0983834
0.0260215
0.00800049
-0.0333405
-0.0400182
-0.042986
0.0114969
0.0452969
0.0550889
0.0389336
0.0144814
0.0384159
0.0778807
0.0964205
0.0441173
0.028611
0.0838314
0.0311257
0.0443328
0.0280265
-0.00368206
-0.00165468
0.034996
0.0714457
0.0662964
0.0581714
0.0330977
0.0225717
0.0555882
0.0859628
0.0500576
0.0261701
0.0657221
0.0244974
0.0328879
0.0784021
0.0354575
-0.0117883
0.0204165
0.0272816
0.0525562
0.0598108
0.0582008
0.0348627
0.0450207
0.0507661
0.0560978
0.0501944
0.0821267
0.0255743
0.0112144
0.0293596
0.0274854
0.0144159
0.0352783
0.0296373
0.00835882
0.004382
0.0462802
0.0501786
0.055082
0.041371
0.0306544
0.0644899
0.072206
0.00135422
-0.0191912
-0.0284694
0.00611403
0.0282715
0.0287451
0.0415139
0.0367736
0.0113188
0.0388526
0.0120723
0.0268787
0.0190051
0.0137764
0.035869
0.0471171
-0.0014052
-0.00222847
-0.040574
-0.0252577
0.010433
0.0317359
0.0231183
0.0446979
0.0308515
0.0371489
0.0249465
0.00893113
0.0212538
-0.00458398
0.0270807
0.00936649
-0.0322571
-0.0127591
-0.0366384
-0.0103356
-0.011053
0.0364383
0.0130713
0.01199
0.0284726
0.0552453
0.0671136
0.0440977
0.0418464
0.0263132
0.0480039
0.0317934
-0.0436364
-0.0308882
-0.0214976
-0.0178178
0.017515
0.0179031
0.0186783
-0.00409834
0.0338302
0.0492808
0.0603249
0.0532047
0.0344965
0.00575446
-0.0167817
0.0382994
-0.0546242
-0.0258306
-0.00153679
-0.00180004
0.0258892
0.0259538
0.0314599
-0.00939218
-0.00361634
0.0329874
0.0137287
0.062679
0.081625
0.0276242
-0.0342869
0.00206826
-0.0527646
-0.0445922
-0.00467039
-0.0236103
-0.0115397
0.0124997
0.0242084
-0.00894016
0.0105122
0.0174187
0.0170496
0.0668927
0.0671076
0.0224355
-0.0401916
-0.00464029
-0.0461096
-0.0328678
-0.0222495
-0.00453423
-0.0280455
-0.0426856
-0.0124291
0.0159825
0.0165052
-0.00412388
0.0124266
0.0412067
0.054196
0.0405325
-0.010436
-0.0162506
-0.0688785
-0.013313
0.00269993
-0.028352
-0.0285071
-0.0281543
-0.0257038
0.0214657
0.00846185
-0.00149411
0.0109853
0.0367849
0.0480191
0.0685992
0.0142874
0.0219461
-0.0832192
-0.0683835
-0.0303997
-0.0197903
-0.00966213
-0.00106816
-0.0137256
-0.0209949
-0.0139943
-0.0149758
-0.0045456
-0.00371476
0.0162454
0.0395703
0.014616
0.0250024
-0.0333947
-0.0392035
-0.0351782
-0.0259649
-0.0221785
0.00580553
0.0178835
0.012508
-0.00265455
0.000563484
0.00228171
-0.00248705
-0.00824407
-0.00580702
0.00846029
0.00544253
0.000113388
0.00435315
-0.0128191
-0.0361502
-0.0261374
-0.000266044
0.0211661
0.0329749
0.0138768
0.00909115
0.0395726
0.0391207
0.0211461
0.00471107
-0.00639618
0.00144746
-0.00557776
0.0362714
-0.015182
-0.0172285
-0.026666
-0.013541
0.015224
0.033411
0.0325568
0.0249076
0.0598288
0.0456382
0.03798
0.0208712
0.00640114
0.0222019
-0.0303347
0.00946326
0.0193443
-0.0239659
-0.0374345
-0.0224009
-0.0181809
0.00176458
-0.00337226
0.0144076
0.0299192
0.0120852
0.0280895
0.0256554
0.0187128
0.0312835
-0.0433211
-0.0272116
-0.0485008
-0.0549995
-0.0461447
-0.0234037
-0.0267897
-0.0227901
-0.0213704
-0.00624219
-0.0196035
-0.050729
-0.0157503
-0.00400962
-0.0224899
-0.0314298
-0.0328686
0.0438988
0.0235063
0.0624229
0.0737906
0.00726226
0.0173289
0.000427902
0.00934261
0.0556131
0.0390089
0.0198991
0.044159
0.0508771
0.0544216
0.0317496
-0.0359852
0.0180644
-0.00654012
-0.0183422
-0.00360712
-0.0354373
-0.0489994
-0.0225395
0.0161142
0.0524965
0.0536544
0.0374862
0.0499776
0.0404858
0.0220613
-0.00256294
-0.0491023
-0.00211482
-0.0326786
-0.0330242
-0.0146195
-0.060102
-0.0677437
-0.0246855
0.0272469
0.0286702
0.0273676
-0.00703622
0.0169342
0.00413502
0.0132167
0.0114796
-0.046681
-0.0318534
-0.0404543
-0.00513696
0.00149828
-0.0323105
-0.0206504
-0.00233172
0.0017196
0.00372497
0.0427396
-0.011877
-0.0311174
-0.0184698
-0.00825418
0.00851754
-0.0614698
-0.0356876
-0.0572289
-0.0230899
-0.0467745
-0.0550672
-0.0348975
-0.00833867
-0.0130934
-0.00852507
0.0127951
-0.0249075
-0.0506988
-0.0336364
-0.0426174
-0.00598986
-0.0622592
-0.0369411
-0.0488537
-0.0456798
-0.0515869
-0.0593235
-0.0491657
-0.0404662
-0.0129422
-0.00465323
-0.00079299
-0.0226203
-0.036375
-0.0388748
-0.0465973
-0.0261922
-0.0842461
-0.0295654
-0.0569334
-0.0563224
-0.04342
-0.0264018
-0.0301397
-0.0510273
-0.0155592
0.0106826
0.0147044
-0.0180887
0.0332196
0.0467985
-0.0111666
0.00978049
-0.0515359
0.0131838
-0.0190748
0.000900598
0.0249305
0.0133086
0.00186994
-0.00259219
-0.00186925
0.0174692
0.049046
0.021165
0.0517805
0.0979211
0.0801629
0.0325558
-0.0242492
0.0279164
0.00191918
0.0370692
0.0778541
0.0607747
0.0523072
0.0448939
0.0379497
-0.0028643
0.0418279
0.0563764
0.0679288
0.0928748
0.110038
0.0748485
-0.0203547
-0.00869807
-0.0146859
0.00793654
0.0595292
0.0517067
0.0286163
0.038382
0.0280755
0.00880168
0.0333207
0.0479631
0.0342814
0.0367422
0.0910517
0.106482
-0.0384692
-0.0300346
-0.0184299
-0.0217354
-0.00501135
0.0159343
0.0280766
0.0233558
0.0113209
-0.00534116
-0.00285073
0.00248811
0.0240481
0.0177084
0.0525154
0.115574
-0.0311208
-0.0204103
-0.0385985
0.000343477
0.00887409
0.00236951
0.0059801
0.0169746
0.0086258
0.00866262
-0.000762438
0.00471007
0.0766513
0.0476599
0.0501061
0.0766219
-0.0505749
0.0173395
-0.00795951
-0.000325312
0.00499643
-0.0125862
-0.00210464
-0.0085326
-0.006807
0.0289165
-0.000154264
0.0217691
0.0714822
0.042526
0.0205863
0.0524963
-0.017233
0.0209217
0.0236299
0.0109794
-0.0238153
-0.0120037
0.0103332
-0.0156147
-0.0151699
0.0123066
0.0198103
0.0410922
0.0707603
0.0434267
0.0455814
0.0545791
-0.00497104
0.0329749
0.0106412
0.00026745
-0.0173087
-0.0260411
0.0036486
0.00531089
-0.0210173
-0.024298
0.00298636
0.0456159
0.126873
0.0802188
0.0527873
0.0780846
-0.0117841
0.0213179
0.035514
0.00915233
-0.00888598
-0.0110533
0.0269601
0.0143496
0.00580057
-0.0168326
0.00825654
0.0546794
0.115253
0.092369
0.0673578
0.0612503
0.000294419
0.0232768
0.0595391
0.0223719
-0.0296196
-0.0464095
-0.0174518
-0.00703955
-0.0127583
0.00301058
0.0101221
0.0391348
0.0972332
0.106396
0.0772745
0.0706279
0.00864092
0.0103256
0.0235941
0.0173107
0.00834119
-0.0193646
0.00993104
-0.0253307
-0.0547477
-0.00330658
0.0213065
0.0629144
0.0728909
0.0656147
0.0608429
0.047657
-0.0645597
-0.0496058
-0.017867
-0.0200022
-0.009723
-0.0173318
0.022174
0.0367832
-0.0138941
0.0257298
0.00798856
0.0186923
0.00542149
0.0262088
0.0351415
-0.0127125
-0.0740462
-0.0463353
-0.036366
-0.00906914
-0.00246005
0.0106064
0.0295908
0.0556861
0.0532997
0.0298791
0.0102846
0.00669504
0.0300302
0.0242466
0.0292926
-0.00436277
-0.0843636
-0.0373267
-0.0256192
0.0071732
0.0132385
0.0384465
0.0230485
0.029047
0.0677161
0.0606707
0.050195
0.0354434
0.0770719
0.0511439
0.047223
0.0162258
-0.101314
-0.0463462
-0.0211986
-0.00309954
0.0134144
0.00799661
0.0202435
0.0076821
0.0284696
0.0498366
0.052442
0.0455484
0.0635736
0.0446063
0.0266225
0.00719402
-0.0945041
-0.0539359
-0.0193885
0.000350445
0.0114807
0.0113035
0.0232553
0.00927358
0.0391876
0.0869816
0.0471923
0.0551551
0.064819
0.0501778
0.000711181
-0.00959173
-0.093962
-0.0348611
0.000666245
-0.00410262
-0.0148183
0.0175896
0.0384379
0.0216808
0.0439059
0.0627659
0.0355881
0.0308322
0.0516385
0.0654584
-0.000561878
-0.00173991
-0.112112
-0.0334127
-0.0139707
0.00358101
-0.00915039
0.0139803
0.0258008
0.0360096
0.0477773
0.034378
0.0341918
0.0179492
0.0443247
0.0581918
0.0294881
-0.00525486
-0.115682
-0.0585109
-0.0248903
0.00565919
-0.00660826
-0.00144688
0.0152879
0.0567362
0.051227
0.0485027
0.0436687
0.0137266
0.0196509
0.0403647
0.00324543
0.00426024
-0.101699
-0.0542508
-0.00969638
-0.0247396
-0.00609671
-0.0196488
0.0311159
0.0351198
0.0322245
0.0196519
0.0343789
-0.0141983
-0.0119212
0.0369475
-0.0162624
-0.00462677
-0.0552204
-0.0310552
-0.0311756
-0.0401507
0.0119299
0.0153599
0.0659809
0.0464901
0.0352469
0.0375331
0.0506432
0.0137771
0.000605141
0.0339876
-0.00573661
-0.0311991
-0.0216486
0.00893884
-0.0374712
-0.0348159
-0.001511
0.0038113
0.0735013
0.0722894
0.0627619
0.0599716
0.0628251
0.0355312
0.00956741
0.0402005
-0.0243914
-0.0501752
-0.058158
0.0148787
-0.0376147
-0.0485468
-0.0409473
-0.0143974
0.0204164
0.0439665
0.04615
0.0531121
0.066075
0.0532279
0.0376778
0.0475852
0.0079298
-0.0403975
-0.062134
2.08279e-05
-0.0166799
-0.072506
-0.0835123
-0.052102
-0.022637
-0.0114553
-0.00886763
-0.00496678
-0.0104559
0.0119553
0.0146267
0.0222962
0.00555008
-0.0330392
-0.082882
-0.0200433
-0.0557591
-0.0881924
-0.0690888
-0.0371957
-0.0664742
-0.0586161
-0.0237227
-0.0379414
-0.0504654
-0.0453213
-0.0228458
-0.000958507
-0.000845482
-0.0360932
-0.0278174
-0.00158315
-0.02101
0.0296846
0.0306225
0.00108512
-0.0293099
-0.0211582
-0.0232608
-0.00492266
-0.010787
-0.00383435
0.00849453
0.00602926
0.0179315
0.00100748
-0.0333981
-0.00717439
-0.0141476
0.0249789
0.0423189
0.0234793
-0.00484493
0.00872711
0.0044195
0.0261445
0.0221655
0.00945135
0.00839709
0.000242949
0.0128435
-0.0101398
-0.0442028
-0.0491875
-0.0529356
0.000273762
0.0270952
0.0331784
0.0331456
0.0350168
0.0220952
0.0507577
0.0483147
0.0197411
-0.00748727
-0.0257055
-0.0144878
-0.0382871
-0.0504416
-0.0385591
-0.0514812
-0.0362246
-0.00489849
0.0165747
0.0338911
0.00549078
-0.00729016
0.00978115
0.026261
0.0120776
-0.0282169
-0.0408674
-0.0263471
-0.0321138
-0.0783091
-0.0588929
-0.0765085
-0.0644435
-0.0488091
-0.0256686
-0.0314156
-0.0323523
-0.0341349
-0.0156272
-0.011513
-0.015182
-0.0310978
-0.0203151
-0.0295594
-0.0513355
-0.0850298
-0.0696262
-0.0813009
-0.0921571
-0.0689843
-0.067228
-0.0846716
-0.0867202
-0.0589045
-0.0163239
-0.0260081
-0.0407848
-0.0689202
-0.0544798
-0.047672
-0.0706757
-0.108134
-0.0642293
-0.0882409
-0.114841
-0.0863238
-0.0622391
-0.0770281
-0.0847117
-0.0604603
-0.0313915
-0.0128132
-0.0429887
-0.0541931
-0.0293491
-0.03907
-0.0761383
-0.0729077
0.0137268
0.00271015
-0.031406
-0.0160024
-0.00975388
-0.0277186
-0.0388975
-0.0330421
-0.0258595
0.00379636
-0.00469718
-0.00974938
-0.00212768
-0.0320999
-0.0635592
-0.0194499
0.064934
0.0491346
0.0344303
0.0517962
0.0378535
0.0179151
0.021976
-0.0100327
-0.0106301
0.0203486
0.0461517
0.0610398
0.00213722
0.00865657
-0.0247558
-0.00971023
0.040153
0.0272086
0.0304557
0.0691191
0.0503237
0.0337406
0.0369721
-0.00139282
0.00275408
0.0184003
0.0380753
0.0409302
0.00213981
0.00753342
-0.0260723
-0.035822
0.000728015
-0.0126897
0.0214267
0.0577304
0.0474362
0.0312295
0.0324282
-0.00677392
-0.0187116
-0.0064801
0.0236915
0.0328303
-0.00430325
0.00623803
-0.0118405
-0.0544774
-0.0146918
0.000603535
0.0709883
0.0683158
0.0437598
0.0116855
0.0215574
-0.00887209
-0.0211518
-0.00800033
0.0266331
0.0310192
-0.00904023
-0.0012893
-0.0256361
-0.0390053
0.0330453
0.0612468
0.0636271
0.0492289
0.0223137
-0.00761562
-0.00353916
-0.0292152
-0.0349867
-0.0292011
-0.0169817
0.0191047
-0.0025062
-0.00672644
-0.0335728
-0.022691
0.0520349
0.0695051
0.0666647
0.0170067
-0.0114592
-0.0365643
-0.0281498
-0.0503819
-0.0468278
-0.0544679
-0.0441291
0.0232661
0.00703981
-0.0123043
-0.0241075
-0.0141077
0.0648999
0.0775063
0.0827996
0.0235697
-0.00245807
-0.0315445
-0.0269528
-0.0394934
-0.0369199
-0.0448419
-0.028325
0.0337677
0.0316826
0.0104796
-0.0169817
-0.0159323
0.060633
0.0957556
0.0942152
0.0415607
0.000497608
-0.0179813
-0.006148
-0.0149469
-0.025175
-0.0180414
-0.00305074
0.0532872
0.0675752
0.0209933
-0.0363073
0.00788927
0.0905283
0.127183
0.0965629
0.0279774
0.00269967
-0.0299985
-0.0456464
-0.0493028
-0.03066
-0.0144224
-0.00443968
0.0429929
0.0793635
0.0508792
-0.0373985
0.00192788
0.0628046
0.103945
0.0798705
0.0151899
-0.0196938
-0.0117671
-0.0368459
-0.0811306
-0.0608343
-0.0173006
-0.00917676
0.0321781
0.04805
