4.14055
-7.3824
-5.19836
-1.38162
6.7143
-3.58677
-4.70742
-4.84584
2.83322
5.23843
-2.32345
-3.19734
1.07963
10.1869
2.89777
-0.634394
-0.943286
7.75716
5.42337
-4.51531
-3.31893
1.75492
9.36282
0.851679
-4.19454
-5.48879
6.15983
8.45868
1.31255
0.556472
7.2426
12.8777
6.2737
-0.490437
0.311366
10.2585
2.56641
-5.86884
-4.46472
-1.67145
4.98815
-2.19833
-3.84545
-3.71424
2.49183
6.88283
-1.10627
0.776724
2.00025
8.14694
4.47036
0.318459
1.20111
7.49915
4.09215
-0.85237
-2.31891
1.54885
6.48939
2.38094
-1.36662
-1.11708
6.19061
9.89838
3.79748
2.22887
5.95024
14.0895
6.61034
1.66631
2.05521
9.4812
-0.793044
-5.34859
-4.28572
-1.16513
3.30616
-0.899298
-2.4107
-1.32698
3.72861
4.74551
0.235545
1.61047
2.17411
6.63596
2.93391
1.1825
0.846564
5.05595
6.70297
0.711907
-0.00341939
1.87268
5.73641
3.69955
-1.24406
1.30145
6.00551
8.39307
3.22455
1.53357
5.56433
8.30336
6.03345
2.7227
5.8786
8.89129
2.52008
-1.58085
-3.88903
-1.47606
4.76097
0.616347
-1.56674
-2.23531
2.98272
3.03871
-1.36629
-1.67616
0.971936
7.08019
2.01446
0.872004
0.950303
5.4112
4.1409
0.969769
0.886706
3.36967
7.82684
2.2782
1.93457
1.07686
4.83351
8.10921
4.12691
3.52913
4.67308
11.3166
3.86105
4.58449
5.81266
8.42422
-0.555598
-3.46595
-2.84609
-3.16185
2.49475
-0.303957
-1.807
-1.28445
1.61376
1.2442
1.22838
-2.43275
-1.13031
6.17012
-0.752064
-1.87757
0.810478
4.03772
7.15052
3.25432
0.534643
1.87593
7.1873
2.4932
1.65937
2.94205
7.69546
12.5931
8.60104
2.6636
0.469264
7.13737
2.60582
1.73304
5.7045
12.9783
0.716059
-4.60002
-6.09644
-1.73465
3.47194
-0.75563
-4.9362
-2.01247
1.51594
2.04692
-2.57997
-3.79982
1.14929
7.33855
0.573115
-2.9394
-0.313748
4.46864
9.68358
3.91958
-1.06126
1.35544
5.03198
0.00700007
-0.684713
2.91251
7.65904
12.0056
6.23375
2.02628
3.5867
9.80484
2.23625
1.94142
7.00225
11.3474
-1.6345
-5.58853
-5.51165
-1.76018
6.53922
-3.50538
-5.45187
-3.60318
-1.36075
1.36208
-1.7037
-1.80115
1.41415
8.25857
0.857499
-2.54181
-0.410488
3.57682
5.87061
0.564096
-2.96446
0.970505
8.23823
0.494946
-0.171843
3.44394
8.68707
8.47537
3.49175
0.259859
3.75001
8.50896
4.653
0.539018
3.78298
9.86149
-2.22371
-3.92775
-6.10576
0.796547
6.11481
-0.740482
-3.74735
-2.63477
-0.01655
1.95295
-2.12747
-3.34664
-0.0735973
10.7836
-0.443497
-4.49844
-2.34146
1.11987
10.0547
1.22405
-0.742504
2.85402
8.11419
3.02654
-1.60327
2.23269
9.30592
6.53531
2.75024
-1.60912
3.04673
9.23906
3.38659
1.08205
3.56891
10.4903
-1.74837
-3.55977
-5.90952
0.676541
7.51736
0.130531
-4.30763
-4.63533
-0.108627
0.360259
-1.91416
-2.35752
2.11443
9.99704
1.0051
-3.76494
-0.489697
0.86023
4.43967
0.483538
-0.468436
1.42659
10.99
1.16718
-2.01879
-0.280454
5.1912
6.59062
1.85978
1.3795
5.03461
12.142
3.66137
-1.40853
0.267395
4.74168
2.06485
-6.60123
-4.26886
-0.268263
6.17082
-1.43674
-7.02031
-4.06147
-1.91563
2.59518
-3.56799
-4.10749
1.03784
7.35885
1.58459
-5.49668
-4.47442
-0.0414853
3.4814
-1.35587
-1.61848
3.66479
9.66608
1.60946
-1.89249
-0.53618
4.8853
4.48905
2.44462
0.399709
5.40741
11.1789
4.03667
-0.191457
0.268277
6.00895
0.466426
-3.40915
-4.42713
0.510407
8.93989
-0.599375
-7.48409
-4.67807
-1.79203
2.19674
-2.27895
-1.91797
2.73501
10.6374
1.34092
-3.14994
-2.8967
0.501199
4.2158
0.0147397
-2.45747
3.07454
10.0634
2.01033
-2.2846
-1.73649
2.49805
5.01697
0.391261
-0.318889
7.07011
14.9346
7.40552
0.0128197
-1.15078
4.43612
-3.48353
-5.62987
-4.7637
-0.36371
8.38089
-0.0473539
-6.11343
-5.89701
-2.29131
-2.39479
-2.48626
0.241325
4.26079
13.0362
4.0033
-3.67557
-0.757539
-3.25657
0.540079
-1.05144
-2.20724
2.73539
11.419
1.58499
-2.49526
-3.13857
2.05658
1.80587
2.72365
3.42191
9.02164
16.3174
6.54914
1.19047
-0.645226
2.70727
-7.36802
-6.13719
-4.98717
4.28485
13.2486
1.84593
-4.07322
-4.76526
-4.36871
-4.92726
-5.55071
-2.10326
6.54402
17.2796
5.22128
-3.50909
-4.70633
-6.18422
-1.69743
-2.46852
-0.151687
6.82501
14.7335
6.11652
-0.0245796
-2.29628
-1.19031
-2.38435
-2.51653
1.55594
10.1864
19.958
11.2337
3.39613
-0.511737
-0.712883
-8.95169
-5.05718
-1.81093
6.74292
19.1069
4.10513
-4.62967
-5.42706
-7.12302
-6.38813
-8.21001
-2.81912
6.35099
17.6302
4.64512
-3.67401
-7.35582
-4.30903
-5.20498
-3.76301
-0.273951
10.2556
21.8085
8.72584
0.0955713
-3.91975
-5.23269
-2.42525
-3.67637
2.38058
9.586
18.5551
8.39063
-0.691016
-3.76499
-3.94819
-6.38243
-8.86086
-3.03333
3.74822
13.9587
3.57382
-4.95262
-7.58467
-5.16213
-1.72476
-6.44701
-1.53745
2.99856
13.5625
3.27883
-3.48023
-7.06887
-3.33214
-3.56226
-7.27901
0.766938
9.16651
18.9008
4.46822
-1.21215
-5.42671
-3.11032
0.940463
-4.28985
1.18507
6.67468
18.9382
3.85124
-3.57613
-5.17789
1.49021
3.96958
-5.40236
-4.9283
-2.03476
7.28952
-3.04037
-7.46845
-7.2467
2.19731
7.1139
-1.63744
-1.00256
1.83753
9.72789
2.46451
-1.44168
-2.01143
8.30494
4.61301
-3.57875
-2.70348
-0.634167
7.58083
1.15479
-4.79076
-5.03677
6.05311
9.89492
-0.0813327
-0.552702
5.79981
15.3042
5.79898
-0.15109
1.23758
9.4801
2.9269
-5.33536
-4.92859
-2.61715
2.42182
-3.95882
-5.83752
-5.9167
2.88067
6.53609
0.996361
-0.251326
3.1392
8.16201
2.67944
-0.405552
0.4156
5.3645
4.97743
-2.11659
-3.46992
1.66153
7.93548
1.37894
-2.06817
-4.08863
5.01563
11.9026
6.28148
4.85873
7.6203
9.74623
6.5524
1.95876
1.38913
10.8121
-1.60082
-4.71763
-4.69042
-2.33174
2.67845
-1.63753
-2.79496
-3.23136
1.19232
2.46264
1.01473
0.43257
1.37483
6.2393
2.66046
-2.10624
2.06849
3.93151
6.0247
1.88557
1.27337
1.37003
5.76112
0.0119076
-3.38476
0.521864
4.61909
9.44653
8.65882
7.03699
8.26745
9.89292
3.69181
1.20539
4.57113
6.18395
-3.26476
-2.5072
-3.92104
-2.97977
0.253705
-4.34461
-4.90574
-3.88539
0.0848493
4.67008
3.76802
-0.738166
-1.5548
1.56679
-2.5451
-2.3962
-1.93796
3.98015
5.0943
8.20977
9.74647
4.41721
2.84804
-2.54942
-1.97914
-1.7279
3.11119
14.2318
18.805
12.7665
5.10071
2.05841
-1.59313
-2.59892
-0.248335
7.03529
5.95736
4.34026
-2.95277
-5.96943
-3.63407
-6.38709
-6.31121
-2.12493
3.41702
11.0013
7.43164
-2.3978
-5.43176
-0.4425
-3.38894
-5.81864
-0.0420263
7.97075
15.4901
14.3273
3.7688
-2.48251
-2.62232
-6.28811
-6.03375
-2.87439
5.7645
20.1075
15.3506
1.59252
-5.19453
-3.57021
-6.03939
-2.6063
1.68241
14.7192
10.7252
3.3799
-6.23965
-7.40781
-5.91366
-6.90345
-5.60419
-2.38695
4.46665
10.674
2.26363
-4.76809
-4.45163
-3.80406
-4.9902
-3.06776
2.66488
8.91862
17.7769
11.0148
-1.80832
-7.21577
-7.08539
-5.75755
-3.22224
0.947022
12.2936
19.1032
9.97997
0.0662003
-4.47214
-4.07093
-3.83508
0.0339969
7.19491
17.128
5.76301
-3.71034
-7.74789
-8.81678
-5.57068
-6.96656
-7.359
-2.71572
5.01029
8.18028
-0.402804
-5.17679
-3.59641
-2.2407
-5.18152
-5.98998
-2.21605
8.63045
15.2735
5.67624
-3.64588
-6.32862
-4.74854
-4.74192
-3.5586
4.17389
13.4734
18.2381
8.48284
-0.749956
-4.33769
-1.05523
-3.71441
0.221613
5.89567
18.6393
4.40907
-1.01979
-6.80124
-6.63998
-2.92951
-9.08087
-7.6165
-3.51824
5.76739
5.6299
-1.53738
-4.95403
-5.34472
-0.539673
-4.79688
-5.63141
-2.55242
4.2424
17.7709
5.48675
-3.67765
-3.34876
-1.79851
-2.62421
-1.41227
5.2168
16.0526
15.7178
3.82401
-2.44207
-2.22089
-0.129548
-0.0829966
0.396541
6.75819
19.6555
0.641727
-6.58637
-7.01604
-4.58523
0.669724
-4.94336
-7.53848
-5.0719
2.9644
1.88358
-5.09519
-7.34323
-3.37247
0.708907
-2.82687
-6.4727
-4.5728
0.308813
14.5986
2.66106
-3.9733
-1.64742
2.38453
0.0379651
0.16356
7.02557
18.3239
17.7874
2.40397
-4.28424
-1.08794
4.69131
-0.782201
-0.296256
5.94412
18.6221
1.99017
-6.58728
-8.82072
-3.24944
-0.0314919
-5.95973
-7.14755
-5.36547
0.548363
2.17863
-3.92033
-6.06215
-3.58007
3.14768
-2.8861
-6.41044
-4.81193
0.247375
14.5524
-0.323123
-4.24363
-3.23943
3.31278
-1.81079
-3.76713
0.16715
15.6391
17.0463
3.98914
-1.99803
-0.0240596
3.70824
0.968132
-2.99887
1.99254
16.1356
-0.105615
-5.47774
-8.66767
-4.79835
3.73687
-2.6932
-7.0409
-6.1967
-2.13307
-0.612065
-4.43713
-6.51816
-0.0783141
6.73048
-2.03212
-5.85152
-5.62824
-1.44489
13.8454
2.2775
-4.89089
-1.51536
4.95335
-0.393711
-5.07412
-2.15009
14.0153
13.8957
2.71096
-1.26166
2.17903
9.19419
2.22479
-1.58236
-0.364822
11.0362
-2.12761
-6.68969
-4.52059
-2.69463
4.80475
-4.6699
-9.2957
-8.79748
-4.99119
-2.27357
-4.83678
-1.63018
0.234485
6.6982
-0.324017
-6.35609
-6.0152
-4.47005
7.98906
-0.373586
-3.76801
-1.86694
6.22898
-1.2809
-5.69958
-3.06791
7.49752
9.42063
4.22375
0.647898
4.2635
11.3911
4.28052
-1.41033
-1.65271
9.54917
-7.38335
-8.68497
-6.32156
-1.84672
8.13182
-3.01042
-7.26495
-9.91354
-6.64064
-9.53965
-10.0023
-5.51614
3.72677
12.3125
5.24837
-2.62982
-7.21656
-9.04904
3.15533
-0.665486
0.47033
3.50969
10.111
5.02139
-1.72129
-1.67628
0.834844
0.0320215
-0.285225
2.43091
9.09219
20.616
12.5704
2.93747
1.02116
-1.05213
-9.95278
-6.7499
-5.0964
2.43264
16.7777
6.39957
-5.09201
-7.09211
-9.49289
-8.43273
-9.55355
-5.32055
2.82634
13.9563
1.91596
-6.42881
-9.18584
-7.65154
-3.28004
-4.87241
0.532024
11.1708
23.4439
15.9099
5.54414
-1.19764
-3.68146
-8.20834
-8.81194
-1.90043
7.54965
18.2172
9.59291
-0.334896
-6.05135
-7.61506
-6.22392
-7.99169
-3.91692
3.10935
16.1995
1.87506
-6.86789
-10.2668
-4.92812
-5.46198
-8.62799
-2.96731
3.79
12.5709
2.25093
-4.91901
-8.35192
-3.75339
-5.7197
-7.02191
-1.0166
6.95047
18.455
6.42838
-3.06996
-5.72394
-5.55324
-2.43847
-6.05057
-1.96705
6.97457
18.7162
5.63544
-0.981276
-7.11724
-2.0665
0.708689
-6.60807
-6.8965
-2.75137
3.22418
-5.38998
-8.23613
-7.96182
2.3039
6.14814
-2.59427
-2.96791
3.12899
9.26702
1.60547
-3.55989
-4.3776
6.33376
2.13994
-3.28024
-4.11883
-0.937256
6.79567
-0.353489
-7.68465
-6.46524
3.36247
7.28401
0.675571
3.71234
7.82069
13.9657
6.08329
-1.13014
-2.06826
8.79282
-2.10531
-7.49594
-4.86935
-5.36532
-1.53561
-5.61941
-8.95653
-8.37844
-3.49218
7.16901
3.06259
2.44647
0.960128
3.76518
-1.2447
-4.84246
-3.71319
2.97956
0.0163234
-0.604933
3.11553
6.48476
7.53479
-0.217411
-7.22104
-7.81455
-0.464407
13.7664
13.5957
13.4503
11.8685
10.6168
3.99298
1.31442
0.224061
8.6186
0.941527
-4.13102
-2.61961
-4.60031
-3.07988
-6.99774
-8.086
-6.36018
0.945036
3.66845
1.77101
6.85107
1.25414
0.716711
-4.0242
-4.26356
-2.04821
2.08271
8.82221
8.3099
4.50286
0.619033
0.995984
-2.43613
-2.22337
2.17923
6.35658
9.41887
10.1653
11.9711
11.1456
4.8019
1.23534
5.38186
6.39287
9.8636
0.807636
6.91021
10.8057
7.96939
-0.91978
-6.65858
-7.2117
-5.66961
-4.51556
5.07362
12.5525
13.109
3.33597
-3.0183
-8.35813
-8.36791
-7.41522
-2.5903
2.35355
8.56814
16.4409
10.9676
4.91567
-0.831614
-1.61685
0.201934
0.118637
1.42204
4.94535
8.91949
5.66224
-0.373427
-3.80013
-4.40302
-2.62457
-4.21449
13.0151
14.0084
3.57846
-5.18335
-5.50638
-9.33566
-6.41623
-3.3313
6.40506
17.2023
12.0133
-0.315939
-7.09318
-6.75389
-7.77024
-3.59503
1.46889
11.1499
2.59002
3.5253
1.56811
-1.02269
-3.88073
-4.39188
-3.30307
-0.916139
0.352381
10.7389
2.72435
0.0757583
-7.18315
-5.92935
-6.39078
-3.8175
2.72662
8.1216
14.7437
5.82102
-2.39059
-10.2402
-9.12952
-8.49714
-7.25451
0.302096
10.1793
18.0679
9.47508
-0.69496
-6.70893
-6.17953
-4.95987
-1.78076
4.44199
14.9068
9.14476
3.09901
-6.11984
-8.48976
-8.99799
-11.2696
-6.23942
-0.351468
7.82615
10.8319
5.56695
-3.05686
-4.63965
-2.72484
-6.36235
-2.4257
3.19773
8.89064
13.9301
4.21036
-5.5971
-7.92246
-8.15747
-8.45801
-4.27109
0.0591637
10.5234
15.0166
7.19919
-2.51082
-5.64801
-4.09997
-3.65021
-1.13585
3.7313
15.3692
4.34067
-1.32528
-5.61396
-7.23127
-6.23711
-5.94307
-4.9985
-1.28743
4.15195
4.7926
0.881589
-2.33899
-2.69111
1.33533
0.0477146
-2.52696
0.934529
3.75689
14.1923
1.16258
-6.1994
-7.41008
-5.93516
-6.84397
-5.07585
2.05085
13.078
16.0116
2.73843
-5.23049
-6.72701
-0.753627
-3.27035
-2.18069
5.42818
14.9304
1.11426
-3.79188
-8.37477
-4.42843
0.769321
-2.50881
-4.71069
-2.74004
0.590699
5.52673
-2.2846
-4.56435
-3.58992
0.905145
0.928574
-2.34942
1.88138
10.6337
10.5632
-4.07723
-11.3715
-8.95354
-6.25052
-4.93142
-5.11635
3.08121
15.8018
14.7404
-3.0527
-9.2105
-9.46583
-3.86934
-6.24299
-5.5799
7.26142
19.8801
6.46964
-3.65512
-9.48846
-10.8631
-5.19604
-7.3361
-6.19704
1.17704
10.9361
14.3301
0.370923
-7.43133
-7.78112
-6.28774
-7.46444
-2.17981
6.44409
19.044
11.8906
-4.48312
-12.7464
-12.8305
-9.23573
-10.4815
-10.0618
-2.63779
14.7063
14.4411
0.481702
-8.13021
-10.8995
-9.56246
-10.46
-8.98391
-3.12229
16.2146
14.9193
-0.211564
-9.99974
-10.8937
-8.89774
-11.7466
-9.70629
2.65849
18.5225
21.6718
4.31944
-6.07264
-10.5888
-9.24599
-9.95166
-7.7156
3.50734
20.5045
13.1256
-2.07382
-10.8302
-12.9311
-9.97638
-9.74222
-11.4842
-4.57794
12.8451
11.7653
-1.6106
-11.4791
-9.48382
-6.14109
-11.6135
-9.10322
-5.75285
11.7138
19.1884
4.39111
-8.14757
-12.0329
-11.3646
-10.4854
-8.65022
0.097933
18.7061
23.1706
2.51114
-7.60401
-8.83917
-6.27423
-8.8275
-6.7795
2.42782
20.778
6.6355
-7.31941
-9.17136
-11.0208
-9.19516
-9.29794
-11.3521
-5.51383
6.66285
8.43966
-0.624467
-6.33875
-7.6588
-3.42179
-5.52811
-8.18593
-3.01909
7.86837
15.5474
2.73647
-8.04925
-13.1002
-9.02702
-11.5766
-9.79451
1.84167
19.6705
21.5313
9.59432
-3.54994
-4.69829
-1.97139
-5.66041
-3.36352
7.27076
20.7491
-0.907244
-4.78583
-7.82987
-5.60217
-0.910314
-7.22538
-7.90285
-5.2466
0.514449
-4.74624
-5.31789
-3.90664
0.2324
7.35485
1.44471
-4.91258
-6.21783
-5.99734
13.9368
3.72054
-1.30952
-1.29889
0.350364
-1.41195
-2.90228
-0.0373986
9.81499
4.57159
3.39362
0.914094
5.98211
13.5906
7.4609
2.72051
2.58178
7.52381
-7.94809
-7.58603
-4.9944
5.18966
18.118
7.54599
-2.25052
-7.33721
-6.60675
-11.4252
-12.6899
-9.71718
0.0798938
11.3779
-0.317026
-7.86685
-11.4987
-12.4058
-2.40287
-2.83996
1.68433
13.3008
26.9357
18.449
5.54562
-1.41897
-1.51123
-10.4903
-11.4009
-5.56109
3.80398
18.6822
6.78642
-6.09204
-12.5746
-9.39821
-8.29144
-11.1571
-6.84075
0.0591064
14.6304
2.32845
-5.64661
-10.2171
-6.55286
-6.467
-10.4885
-5.59506
1.25658
12.6908
-0.480913
-7.36078
-10.2535
-4.9199
-7.50803
-11.9427
-3.89835
7.24108
18.7436
8.10927
-3.41113
-7.40162
-6.88679
-3.63919
-10.1064
-3.13153
5.17713
16.0816
5.24462
-3.37747
-7.3943
-3.60482
2.31619
-9.35151
-8.68029
-4.99057
2.70125
-4.91885
-8.71922
-9.85907
-0.521207
2.60214
-5.44146
-0.82229
2.32293
9.696
2.45481
-3.04211
-4.83186
3.26502
2.14953
-8.37302
-8.04892
-2.26691
6.90263
-3.73287
-7.28014
-8.12159
2.41132
5.05081
-3.95435
-1.10784
4.64341
14.1301
6.4901
0.142518
-0.878049
7.39532
-7.64802
-8.54347
-3.5799
1.04381
6.18146
-1.23061
-7.95123
-10.9008
-7.69601
3.06388
4.73152
7.46396
7.89716
8.83993
2.40871
0.281068
-0.0902046
-0.14985
-6.76189
-9.28289
-5.63245
1.50908
7.18856
4.14262
1.79328
-5.55315
-4.65162
1.94769
-0.204894
3.2275
6.86975
10.456
12.0043
10.4324
6.6881
3.98949
-0.450224
0.62041
-0.0903543
-2.54592
-0.677382
-2.31028
-2.61668
-1.27459
-0.423402
0.291604
2.25393
4.14074
4.69972
2.92359
0.942935
0.787257
1.81622
-0.601874
1.8707
1.73796
-0.232806
1.18736
1.69884
2.45251
2.54053
5.1488
2.46462
3.97102
5.27272
4.27473
4.13967
5.79764
6.22135
8.03181
7.72333
3.32949
-3.46424
3.03897
5.70421
7.58816
5.87863
3.04191
2.07393
-0.778066
-5.09565
-7.87047
-2.84715
0.85615
0.399644
2.26323
-2.57545
-2.04485
-4.97859
-7.21053
-2.04669
-0.274194
3.58658
6.98725
8.58594
12.5032
10.3109
4.96808
-1.33201
-7.62847
-0.935295
0.0489646
0.758961
5.37202
3.35505
2.74649
1.04829
-5.42148
-1.16585
-0.0834231
-0.354391
-2.43074
0.759268
-3.77238
-2.96667
-1.91864
-3.89456
3.48405
1.66304
-1.32344
-5.15806
-2.99107
-6.5576
-1.5977
0.0832784
2.63158
0.399214
0.898199
0.524897
-0.973858
4.21308
-0.295492
4.00647
2.90799
1.81004
5.73612
3.9217
-0.212576
-1.50149
-0.215584
-3.9544
-0.337059
3.54921
8.05
3.16598
-2.0753
-4.95376
-8.18732
-5.7681
-7.0216
-6.39019
-2.40571
4.87097
3.61197
0.479089
-1.60874
-5.45858
-1.51568
-3.43931
-2.6059
0.548172
4.09
6.69848
2.86698
-4.97955
-8.24632
-2.4964
-7.48011
-1.4961
1.38695
6.58192
7.32463
3.42741
-0.70449
-0.556645
2.20431
-3.18925
1.22747
4.03728
8.02784
-3.14325
-5.13054
-6.04367
-6.28491
0.880281
-5.09317
-3.68564
-5.67908
-4.1948
-0.182875
-3.33348
-1.76582
-0.17979
6.51881
1.79536
-1.65405
-3.22992
-1.99682
-0.207632
-2.83557
-2.22782
-2.41964
1.68353
-1.79254
-2.65286
-0.518968
2.48508
2.09459
-0.402084
1.45383
3.83449
9.33841
3.43941
-0.902851
0.994406
2.50404
-3.61784
-7.126
-6.52998
-2.97886
5.82108
-1.88223
-5.21275
-4.81776
-4.87117
0.949441
-3.92135
-4.22707
-1.61375
7.71702
-1.0277
-2.45145
-1.58377
0.824823
-1.10702
-4.92919
-2.97696
-0.810786
5.72923
-0.616577
-4.11358
-5.29726
-2.16031
3.79022
1.08884
0.150386
2.14498
8.28177
1.18923
-3.01522
-1.05858
5.64033
0.51533
-5.82271
-9.33296
-10.9409
-4.5217
-8.67354
-8.89068
-4.10757
3.80518
12.6542
2.44468
-8.75414
-10.6854
-5.09669
-8.74093
-7.59836
1.60094
13.4229
6.32734
-0.444685
-4.42136
-4.7838
-0.369411
-8.29247
-6.83863
-4.30438
4.9117
18.4396
5.74391
-4.34604
-5.2443
-3.03998
-8.26417
-5.12774
3.73622
15.7777
9.72252
-2.37948
-12.4333
-15.0788
-13.1227
-12.3509
-12.1267
-3.52248
12.818
17.8244
3.12071
-7.91356
-13.7124
-11.4384
-11.9373
-9.06481
0.668093
17.8369
15.8777
0.172233
-9.98899
-11.7046
-10.6283
-12.4334
-10.0502
-0.140893
13.9814
20.3108
4.2597
-6.7107
-11.2423
-9.23739
-11.1704
-4.2204
7.43089
19.8556
14.6689
-1.77934
-10.8245
-13.5329
-14.2905
-15.6873
-13.4209
-1.19797
11.3579
18.0872
-0.655869
-10.1144
-11.6696
-12.3576
-13.5268
-10.48
-0.203044
16.0849
17.9261
-0.373247
-11.3432
-13.3328
-11.9477
-10.7815
-9.4763
0.626681
16.7559
19.5939
1.5497
-8.78427
-10.7089
-9.5925
-10.5557
-8.17091
3.16977
20.4422
13.0327
-6.15748
-12.948
-13.7335
-14.2974
-14.9118
-11.945
-4.35183
12.4979
14.6343
3.80113
-6.47343
-10.331
-6.79215
-8.63732
-8.91529
2.52032
14.5984
13.6023
0.266186
-10.2921
-11.986
-12.5549
-12.3308
-10.4887
-1.43633
16.3414
19.6938
2.25694
-6.23891
-8.26949
-6.63017
-7.43073
-5.76241
5.72218
17.7851
6.25287
-1.94844
-6.65513
-6.31467
-2.72115
-6.59169
-8.32799
-2.51998
6.12534
-1.14657
-2.87877
-3.03421
1.95595
9.60007
3.02795
-2.94301
-3.89605
-0.85537
9.42025
0.438881
-6.22901
-3.96701
-0.83898
-4.01331
-6.92048
-0.0194532
7.83663
2.92054
-0.23008
-0.775392
6.7862
14.372
4.56021
-1.19901
-0.42788
2.51249
-6.43189
-8.00443
-3.4145
9.2321
22.389
9.65513
-2.04279
-6.4776
-7.60645
-16.2636
-14.5256
-10.3651
-1.13563
13.5847
0.343928
-10.9631
-14.9817
-15.0063
-3.7839
-4.71631
-0.693791
15.0469
26.7112
11.2088
-1.59042
-3.44079
-5.06902
-13.4744
-13.004
-8.76455
3.92229
16.5674
1.3944
-9.9447
-15.0629
-11.8815
-9.72173
-13.4725
-6.94021
3.23663
19.0773
3.59214
-9.19081
-12.1392
-9.39546
-6.41136
-12.6844
-7.3202
-1.67887
12.9742
0.167805
-7.46886
-11.814
-5.9028
-6.73087
-9.73369
-4.36983
6.42105
20.9941
6.18672
-4.95779
-10.9068
-7.514
-3.7191
-8.55333
-3.07455
2.62955
15.7117
4.07211
-3.93614
-9.07594
-3.92682
1.57887
-9.76085
-11.6793
-5.05053
2.84252
-5.36957
-9.97437
-9.99211
-1.43862
3.76065
-7.77028
-4.76903
0.787557
10.1861
3.83852
-0.391179
-3.59395
3.06648
1.82442
-8.69642
-8.3202
-2.84211
4.83607
-2.49185
-6.46652
-7.3133
1.76545
6.10093
-3.82968
-4.20953
2.83075
11.7996
4.7115
-1.72384
-2.35372
7.64294
-3.68776
-11.5065
-11.0642
-6.90705
1.88133
1.4388
0.667885
-3.8283
-1.84288
3.48488
-3.05724
-4.00462
-0.4957
4.69952
7.17947
10.1892
9.82937
8.89623
0.954762
-9.18753
-9.36119
-5.20275
1.71753
-2.25825
-5.0923
-6.34429
-0.523838
6.60222
-3.03424
-3.98062
0.134809
5.19722
1.24629
1.79697
2.17046
8.96607
4.42118
-2.99692
-5.09829
-6.09337
-1.91368
-2.8201
0.983414
1.50448
5.60559
5.16029
1.64559
-1.33157
-3.16631
1.54791
6.47911
8.35989
5.08839
4.744
4.50708
-5.02703
-8.38149
-6.61266
-1.50737
-4.52163
-3.61409
-1.65561
4.37415
3.09368
-0.137151
-4.21203
-2.32762
1.15047
4.68447
7.89564
3.94806
5.51335
-3.85585
-5.67471
-5.59186
-7.18308
-0.425794
6.9381
11.917
4.9299
-3.3745
-7.74586
-7.9483
-8.09421
-8.47464
-3.7442
0.642064
4.88584
2.62092
-2.48185
-1.63923
-5.83012
-6.9
-7.57927
-0.505558
7.62453
11.722
9.12012
2.10765
-1.3945
-8.18843
-8.39118
-7.55482
-2.05838
3.528
12.4895
14.2823
6.03652
-4.20121
-7.70273
-9.26757
-10.793
-9.03217
-8.18418
-2.98162
0.390606
-0.841551
4.22519
-3.76888
-7.79849
-12.0536
-9.71755
-10.0463
-7.8807
-1.41062
4.60482
7.18487
-2.1073
-6.92745
-7.69117
-3.59734
-2.12571
6.14222
14.3023
15.5354
13.0599
2.83394
-3.58391
-9.67905
-6.07116
-6.9445
0.113529
13.4255
20.2327
1.27863
-5.80635
-10.1331
-15.0074
-13.8174
-13.0136
-12.0831
-3.529
2.57179
4.54361
-3.90607
-7.37983
-8.79589
-8.89677
-10.5365
-7.39393
-0.568884
8.41362
14.182
0.601498
-5.54025
-10.9273
-8.62638
-9.57041
-4.10999
8.23355
16.1113
18.1197
5.84413
-0.543073
-4.54383
-3.27312
-6.17882
-0.893713
9.72049
20.6634
-1.35747
-8.56275
-8.83352
-10.9418
-8.78762
-12.6345
-9.64153
-2.97247
0.728669
1.25092
-5.92844
-6.06247
-4.45426
-3.65661
-8.60276
-8.84585
-5.36463
3.09323
12.096
2.78183
-2.35267
-8.78434
-7.29501
-8.59507
-4.4444
7.24533
14.957
18.0366
6.46085
-1.75145
-3.89006
-1.2865
-5.55746
-3.03825
10.1124
18.9887
-2.04731
-6.52251
-9.19681
-6.48286
-5.03542
-10.5577
-9.47663
-9.16258
-2.91658
4.54395
-1.79001
-7.63228
-5.88015
-4.9231
-8.88846
-8.73021
-7.55725
2.70472
14.3825
1.8447
-2.9358
-7.07097
-2.72463
-7.50606
-6.768
2.51841
14.9797
18.5078
8.33038
-0.786837
-1.70903
-0.636916
-5.18896
-4.63912
2.96591
17.4275
6.90239
-2.1327
-9.1935
-9.67541
-7.79698
-15.2687
-13.304
-8.70659
0.493809
15.0201
2.29065
-8.23394
-9.18074
-8.53896
-12.9021
-11.7264
-4.28676
11.1158
17.9691
4.4527
-4.7864
-6.42585
-5.0995
-9.30916
-10.5301
-4.2297
11.9267
20.97
6.72654
-3.7093
-5.12775
-4.01516
-10.1152
-10.0087
-3.36812
17.9972
12.432
-1.30472
-11.9813
-13.3146
-12.6554
-14.5372
-13.8849
-5.10333
12.267
17.4559
-0.387482
-11.1273
-13.52
-12.9792
-13.5099
-10.2828
0.463601
17.4586
17.0994
-0.739552
-8.93068
-10.3431
-5.82478
-12.974
-13.149
-2.75914
13.3
17.2552
-0.560943
-9.15394
-9.50492
-5.92739
-10.6438
-7.70998
0.445772
17.9122
16.0295
-4.33906
-13.4139
-14.184
-14.5455
-15.3723
-12.8293
-2.33184
13.7132
17.0526
-2.11509
-11.5629
-13.5337
-11.4338
-12.3676
-9.47596
-1.97652
17.4538
12.3676
-6.11329
-10.9448
-10.8017
-7.92966
-11.2979
-10.8762
-3.49871
13.9265
13.5561
-4.57367
-10.5567
-8.55125
-5.72693
-8.05571
-8.12477
-2.07202
13.9646
15.028
-2.87456
-12.9167
-16.0239
-11.3994
-14.7621
-12.3677
-6.12743
14.7275
16.7279
2.25543
-7.299
-9.41961
-6.92167
-9.47565
-7.66079
1.49108
15.8157
8.53936
-6.72547
-12.8288
-10.329
-7.40988
-11.4468
-10.8453
-3.30812
8.52439
8.59905
-2.65341
-9.01542
-5.98449
-2.1699
-5.56381
-5.0186
-2.2278
10.354
6.16734
-2.68575
-6.61598
-5.39874
-2.02417
-4.97201
-4.56439
-0.776772
8.10796
2.4972
-1.20248
-1.68515
3.09502
12.6173
3.48145
-1.56137
-2.03231
1.7656
1.56543
-5.87552
-6.72825
-5.25041
1.76147
-3.67012
-5.16895
-2.27171
1.02283
-2.42336
-5.23391
-2.42635
3.4104
10.5338
1.70096
-2.82811
-3.98999
-2.72389
-4.11827
-3.46052
-0.939916
12.8603
23.6615
7.90526
-1.44607
-5.31065
-3.34881
-12.6402
-13.8324
-9.52901
2.73133
12.9273
-0.594505
-9.92481
-13.8231
-13.3288
-6.7475
-5.97428
0.0859933
11.294
18.367
7.5153
-3.26892
-6.11123
-7.42979
-11.8515
-11.2294
-7.48549
2.67203
13.0264
1.98022
-8.86602
-13.8267
-11.4626
-9.82482
-11.4972
-7.7612
3.86091
14.9134
1.95294
-9.36979
-13.6207
-8.75686
-5.32454
-10.7197
-7.69413
-0.192514
11.5431
-0.176087
-6.94246
-11.678
-5.03825
-5.66348
-8.23797
-5.70331
5.72322
17.3967
4.33214
-3.87206
-10.705
-5.63178
-1.90738
-8.89753
-4.09718
2.88553
16.0858
3.35938
-3.95891
-10.0512
-3.37539
0.172862
-10.4647
-10.9824
-6.4773
3.58813
-6.31057
-10.5505
-10.7937
-0.792968
3.33949
-6.07596
-6.96641
-0.825148
7.99813
0.171339
-4.05895
-6.87184
4.69296
2.60496
-7.71257
-7.74034
-2.68201
5.70504
-3.03637
-7.05715
-7.55084
3.67032
7.68611
-3.91322
-3.71147
1.75879
10.9868
2.65498
-3.86915
-2.63962
6.68966
0.468925
-10.4457
-10.0771
-6.86166
3.21335
-5.51189
-8.7065
-8.70283
1.77884
5.18648
-4.72286
-5.12769
0.192862
6.766
0.200084
-3.60583
-2.62695
5.80458
3.21109
-7.06856
-6.33752
-1.22784
4.35456
-2.93484
-7.07706
-5.27576
1.974
6.95912
-2.31837
-0.885831
2.15494
8.68226
1.73734
-2.42318
-0.796795
6.88934
1.3009
-7.67397
-7.87918
-5.14051
0.589018
-3.95708
-5.43965
-5.37771
1.44147
4.68653
-2.49704
-4.11517
-2.38234
3.87307
0.26177
0.830637
1.22568
5.11379
3.0838
-4.20118
-5.66848
-2.33309
3.70518
-3.33951
-5.25103
-5.67683
3.09283
5.10246
0.902301
-1.05402
1.05803
6.2587
0.249978
0.272766
-0.824432
4.74339
-2.29471
-7.1721
-7.9165
-7.33689
-1.48182
-1.20104
3.32162
3.01234
0.575829
2.33752
-6.90158
-6.94821
-8.41509
-1.90847
-1.00572
6.27165
12.2795
9.26779
1.7943
-4.71185
-4.34604
-4.50067
1.64532
-3.95706
-5.75113
-3.84316
-0.0238061
3.99014
-1.68547
-3.2834
-4.53612
0.768857
-2.04545
-2.72914
1.74
5.25706
3.17772
-8.04617
-10.8668
-12.0828
-6.83566
-8.75302
-1.97005
8.47358
10.995
6.78487
-4.19094
-8.56765
-10.2533
-9.16232
-8.90025
-3.61123
8.49402
15.3288
1.56036
-4.92342
-7.62761
-5.6372
-2.17959
-5.42943
-4.29675
2.3828
6.98796
6.20605
-2.84197
-5.0516
-6.66611
-1.7316
-6.98869
-2.39744
6.68318
10.9696
5.34373
-4.26004
-8.6339
-11.2373
-11.3155
-12.9736
-7.48841
3.32827
10.5421
10.4692
0.995604
-5.17449
-8.79464
-5.53935
-8.51859
-5.99593
4.18266
13.5275
4.71452
-5.16006
-6.89968
-7.67534
-3.92159
-7.8791
-6.33553
0.393556
9.21605
7.66407
-0.0847052
-4.2306
-7.42851
-2.24884
-5.424
-4.72086
2.17306
11.3414
8.76225
-2.06672
-7.07906
-10.0814
-8.277
-11.7018
-9.11275
-0.0724264
10.8678
11.2141
1.51491
-4.74429
-8.2419
-6.58759
-8.88785
-8.36767
2.01638
15.005
6.9551
-3.19843
-7.29232
-7.43655
-4.02182
-9.13027
-8.43183
-3.32978
7.43279
7.00787
-1.48439
-6.37138
-5.87949
-1.26284
-5.31623
-5.91905
-1.50682
9.76475
11.0992
-2.50474
-7.15357
-8.44829
-5.22673
-10.7356
-9.68327
-0.732342
12.1165
11.1091
0.383697
-4.59227
-5.77565
0.424196
-8.12605
-6.80271
-0.438433
11.3001
4.9079
-6.22934
-8.65565
-7.59149
-1.97036
-5.25004
-8.89101
-5.9623
3.79691
6.03098
-2.81545
-6.16099
-5.03212
2.73015
-1.75048
-7.51637
-3.7745
4.73964
10.9174
-1.81662
-5.98714
-5.70065
-0.647018
-7.80818
-9.34673
-6.62214
7.9899
12.1929
-1.36636
-5.95939
-5.42345
0.310143
-6.87544
-8.60881
-5.28033
10.6168
2.71327
-6.48502
-6.30581
-4.14709
2.69125
-4.68244
-8.07034
-6.29625
2.92937
3.54525
-6.3769
-8.46733
-4.12656
1.27636
-3.34203
-7.13789
-3.68233
4.56908
9.98708
-5.86909
-8.60239
-7.12618
-1.73885
-7.04916
-9.27461
-5.00373
11.8185
10.1799
-4.96397
-9.0127
-6.49266
-1.18375
-5.87704
-7.24667
-2.62694
11.4207
0.325799
-6.89352
-7.98748
-6.78158
3.09386
-5.1381
-8.66322
-5.47079
1.79006
1.48266
-7.02193
-6.72537
-4.53619
4.39619
-2.01362
-6.67651
-4.29749
3.65869
6.79124
-8.42324
-8.71924
-6.14649
-1.00989
-7.35682
-10.8544
-4.11018
8.87277
7.10835
-6.54334
-8.89677
-2.87816
3.52571
-3.16692
-7.01565
-2.82197
8.62139
-2.90196
-8.4716
-7.31815
-1.84468
3.00228
-4.87761
-9.24476
-5.90965
0.29184
-0.401071
-5.70148
-5.87677
-2.11794
8.14531
-1.50146
-6.93365
-4.99281
1.69268
2.91676
-8.70063
-8.95042
-5.1912
2.02232
-3.71762
-9.19624
-5.12704
4.32875
4.43701
-5.60759
-6.66345
-1.48722
6.7176
-0.837474
-5.2745
-2.84117
4.77564
-1.0703
-8.87088
-8.75462
-3.03805
5.60579
-3.37279
-7.51299
-7.45151
-0.498061
-1.92543
-6.7093
-5.80891
0.608175
11.2192
1.10502
-3.70654
-3.84564
-0.808297
-2.48178
-7.73213
-6.88838
-0.533621
8.51132
-0.138681
-5.74751
-6.43436
-3.24418
-3.67348
-6.77201
-1.71235
7.69294
14.4831
4.70724
-2.80026
-5.01261
-4.33482
-6.60095
-8.81904
-7.19635
-0.861493
7.46132
-0.356883
-7.42146
-6.38968
-5.22527
-7.53973
-7.55025
-3.1542
4.28486
15.1862
5.07356
-6.1123
-8.80526
-7.58301
-8.93311
-6.97318
-2.06191
8.2351
17.4006
3.55515
-6.49883
-9.96389
-9.07268
-9.86315
-11.4642
-6.07978
0.890011
11.6559
0.49018
-8.92529
-13.4748
-12.1955
-8.41013
-9.16
-2.60673
7.22081
17.874
4.81185
-5.95727
-9.53132
-8.51805
-6.23694
-12.1761
-5.48152
-0.209847
14.655
3.92676
-5.4266
-11.5726
-7.40889
-8.81162
-12.6179
-9.0095
-0.659478
12.5967
0.429199
-9.21577
-13.338
-7.95512
-5.59111
-13.236
-7.3324
-1.93227
11.5173
-0.452548
-8.31091
-12.8856
-5.23705
-5.62091
-10.9854
-5.78836
1.65467
15.8081
5.57279
-4.16656
-10.6985
-5.08707
-1.40729
-10.5677
-4.91691
1.84943
14.8817
4.28368
-3.75248
-9.45584
-1.28114
-0.951125
-11.6517
-9.76561
-7.11302
2.88154
-6.63945
-8.89559
-11.4883
0.837795
5.45785
-6.55569
-6.11584
-1.22828
8.5114
-1.08025
-5.43794
-6.28652
4.40256
2.39762
-8.33739
-6.72374
-3.77199
6.27211
-3.81672
-7.07447
-8.73855
2.64122
7.35754
-2.50431
-2.08208
0.167054
11.318
0.171947
-2.74953
-3.77221
5.8127
-0.0230384
-8.96759
-7.91049
-6.79602
2.45484
-6.13843
-8.75631
-11.286
-1.3401
4.12111
-3.08505
-4.14427
-0.80968
6.81369
-2.83009
-5.65175
-4.97161
2.70551
3.12443
-4.90498
-6.53433
-2.36934
3.30879
-2.4522
-5.98145
-7.98129
0.864647
6.96839
-1.35107
-2.89246
2.43506
9.19865
2.42344
-3.45083
-2.3693
4.98352
0.429502
-7.42158
-7.41777
-3.79133
2.08231
-5.13684
-9.7598
-8.02354
-1.62242
2.24234
-2.3823
-4.37249
-0.721919
4.98992
-1.57991
-4.43223
-4.61741
0.978626
2.41411
-4.2025
-3.89751
-2.04065
3.5905
-4.16628
-6.25363
-4.64604
1.55582
3.70149
-1.07471
-0.929697
1.36586
8.60408
1.06513
-2.44396
-2.12888
5.55298
-0.497219
-5.30693
-5.99978
-3.28518
2.69607
-5.25604
-7.65316
-7.49101
-0.650662
3.32722
-2.52709
-3.28691
-3.93147
4.68069
-4.27722
-5.43792
-4.46874
1.91589
1.99629
-4.28859
-3.45501
-2.57159
6.1797
-3.09004
-5.68731
-5.60963
1.39904
4.97225
-0.719066
-1.6465
-1.29264
5.19341
-1.80625
-3.98485
-3.88609
1.7597
1.48165
-2.86947
-5.99881
-5.05951
0.766802
-7.85121
-7.96012
-4.01881
1.53659
3.96823
-2.20512
-5.58752
-4.5802
1.21016
-3.87532
-4.58055
-1.56638
6.26916
0.375218
-4.15546
-4.21835
-3.30792
2.2039
-4.23515
-6.09166
-6.73309
0.380917
4.72313
-2.36111
-3.74927
-2.59763
4.6766
-2.37326
-4.77364
-4.11321
4.8444
2.34793
-6.62546
-8.39438
-7.08557
-0.483834
-5.82761
-9.21151
-5.14495
4.53433
5.20981
-3.40996
-6.29
-5.10687
3.10777
-2.74345
-7.46549
-0.835953
6.90596
3.13131
-5.64668
-6.50655
-3.41985
3.19008
-3.7775
-7.88341
-7.03302
2.71808
2.15188
-3.32501
-5.73884
-1.63918
6.53074
-1.72412
-5.86497
-2.86676
2.27564
1.74082
-5.74868
-7.87341
-5.53203
1.73468
-4.99068
-9.52456
-3.86898
3.14902
3.6662
-4.90596
-5.70308
-2.30258
3.39823
-2.3135
-6.87341
-4.17944
3.91968
0.357979
-6.14551
-6.84988
-3.136
5.01247
-3.69759
-7.85036
-5.87982
0.0372703
0.915651
-3.91024
-4.87996
-0.916475
7.89455
0.948729
-4.44091
-5.41495
1.25326
2.13944
-6.99276
-7.66143
-4.43136
1.84194
-5.07733
-8.67369
-6.11699
1.81596
2.42025
-4.29978
-7.01119
-2.15468
5.05714
-2.52169
-6.39011
-6.45044
2.60818
0.726726
-7.59394
-7.84487
-2.60786
5.94277
-2.00743
-9.03076
-6.38358
-1.11945
2.05409
-3.53994
-4.63949
0.044407
10.1024
0.531465
-6.23877
-5.82154
0.714339
-0.751768
-6.97687
-8.2456
-4.89386
3.43039
-4.49387
-7.72384
-7.92146
1.03809
1.37318
-6.39802
-7.98188
-4.79025
3.69086
-2.2294
-7.2856
-6.17796
0.857084
0.142924
-6.43275
-6.01776
-2.82324
6.97112
-2.14877
-5.67837
-7.60236
-0.676153
0.807394
-5.74857
-5.90546
-0.982141
7.7413
0.372915
-4.41421
-6.03642
0.937705
-1.90256
-9.05248
-9.70095
-4.98045
3.51047
-4.06847
-9.66638
-9.16689
-0.932541
-1.41595
-6.74053
-7.46943
-3.6178
7.10149
-2.3803
-6.55607
-4.61672
1.43492
-0.285537
-6.88673
-7.58367
-0.904786
6.9482
-0.344525
-6.32483
-7.58123
0.248811
-0.109614
-4.61385
-6.39194
0.205216
11.2008
0.581148
-6.01221
-2.94334
2.5503
-3.82946
-8.91421
-9.55474
-3.71011
3.84271
-4.12989
-8.01837
-7.69985
-2.64759
-2.41272
-6.93185
-7.51919
-1.40085
8.45565
0.99764
-5.79632
-4.88352
-0.826296
-2.24408
-8.02457
-7.81023
-3.38683
7.67125
-1.84256
-7.73326
-6.24294
-1.12195
0.780286
-4.89515
-6.20415
-0.689762
10.561
0.801131
-4.60898
-4.19396
1.12798
-3.67837
-10.8991
-9.48863
-3.87414
5.33002
-2.26804
-7.41041
-8.90006
-3.7787
-2.9936
-8.06607
-7.60334
-1.83649
9.51798
-0.45671
-3.91718
-6.47348
-2.85741
-1.02056
-8.38325
-6.13166
-2.5774
9.15554
-0.129106
-4.49491
-7.20677
-2.93441
-0.0134886
-4.67725
-4.47535
1.47036
12.7932
2.68806
-1.33051
-4.7477
-0.453203
-6.07309
-10.7145
-7.03014
-2.25434
11.0327
-0.406955
-8.25107
-10.5334
-8.17674
-6.96185
-8.59615
-4.70062
2.59377
15.796
3.74828
-4.73162
-9.1554
-7.08708
-4.47334
-9.69124
-6.18584
-0.622738
11.1331
1.0468
-4.36827
-7.14238
-5.12035
-6.97821
-7.92587
-4.79489
5.46359
18.8696
5.23637
-2.85548
-7.29673
-5.16907
-8.17229
-11.053
-7.07854
1.12111
16.1649
2.40294
-6.09283
-11.2174
-9.08511
-9.39912
-12.6336
-10.1297
0.151584
15.5164
1.66819
-5.86432
-12.2214
-9.53151
-8.9772
-9.84014
-5.48855
3.74338
18.2123
7.04832
-4.32191
-10.1539
-7.44111
-7.72212
-10.8325
-6.78696
1.97975
17.6832
5.94736
-4.51074
-9.09348
-5.58866
-8.16273
-13.5292
-8.5808
-3.00593
13.8033
-0.725429
-8.60719
-13.5497
-8.54802
-4.40338
-12.6182
-8.3277
-1.92171
10.7715
-0.21104
-7.51301
-11.1566
-3.52912
-5.58183
-10.6216
-5.04624
2.13525
15.6337
3.70409
-4.31432
-8.88657
-5.50293
-1.03741
-9.45884
-4.78619
0.777954
14.4438
2.10709
-3.76943
-7.81226
-0.645988
