-0.00945239
0.00897737
0.00455513
0.0180881
0.0143321
-0.0134564
-0.0195615
-0.0196471
-0.0165634
-0.0113484
-0.0131965
-0.0173268
-0.0104735
-0.00947594
0.00176171
0.00639244
-0.0143312
0.00607942
0.00106293
-0.00416968
-0.00718647
-0.0203916
-0.0342731
-0.0160682
-0.00464676
-0.00138074
-0.00181943
-0.013817
-0.00963629
-0.00804319
0.00322479
-0.000452014
-0.0204974
0.00210708
-0.00670466
-0.00943281
-0.0134906
-0.0212386
-0.0251372
-0.00184838
0.0126258
0.0086396
0.0082216
-0.0107241
-0.0174953
-0.0189334
-0.00741962
0.000319642
-0.0238321
0.000240656
-0.0129977
-0.00591237
-0.0142739
-0.0281041
-0.0179777
-0.00328467
0.00643509
0.00374464
-0.00153818
-0.0196448
-0.0276746
-0.021597
-0.0104636
-0.00492831
-0.0337071
-0.00658808
-0.0238477
-0.0150887
-0.020369
-0.0319288
-0.0274696
-0.0105204
-0.00548384
-0.0111738
-0.0247611
-0.02508
-0.0186214
-0.0170844
-0.0193114
-0.0115732
-0.0339096
-0.0113448
-0.0214995
-0.0173435
-0.0254102
-0.0321276
-0.0409818
-0.0274735
-0.0163361
-0.00336567
-0.0164573
-0.0298701
-0.0348645
-0.0312574
-0.0258273
-0.0132293
-0.0389096
-0.00878516
-0.0190492
-0.0287305
-0.0258655
-0.0261352
-0.0353774
-0.0242238
-0.0165458
-0.00160562
-0.0112748
-0.0313204
-0.0320385
-0.0239531
-0.028652
-0.0155701
-0.034849
0.00430768
-0.00682471
-0.0117596
-0.00227729
-0.000906711
-0.0200725
-0.0137801
-0.00619022
-0.00825056
-0.0145133
-0.0289323
-0.0145817
-0.00122551
-0.00536468
-0.00327688
-0.027082
0.00860209
0.00153807
0.00638051
0.0232835
0.0238556
0.00126966
0.00183982
-0.00172913
-0.00290208
-0.00022767
0.0053042
0.0122383
0.00158187
0.0123841
0.00937737
-0.0270435
5.98462e-05
-0.00303576
0.000651215
0.0231546
0.0199836
4.44573e-05
0.00278609
-0.00321418
-0.000254281
0.00955869
0.00371672
0.00339248
-0.0038813
0.0132011
0.0128307
-0.0332902
-0.013041
-0.0227035
-0.014706
0.00391474
0.00789279
0.000160943
-0.00776245
-0.00949015
-0.00716427
-0.00508828
-0.00958203
0.00359276
-0.00447869
0.00146437
0.0128718
-0.0350314
-0.00902095
-0.0156392
-0.00900533
0.00747879
0.00774854
-0.000721046
-0.00584328
-0.00724802
0.00176752
-0.00988096
-0.0010834
0.0162763
-0.00519369
-0.0105545
0.0166886
-0.0293122
0.00806119
-0.000572655
-0.00652107
0.00755184
0.0153758
0.00554913
0.00305188
0.00269668
0.00673632
-0.00211932
-0.00243798
0.0176749
0.000102445
-0.0139709
0.00908561
-0.0168298
0.0193358
0.0016784
-0.00621183
-0.00386949
0.00973454
0.00896255
-0.00268489
-0.00146445
2.57114e-05
-0.00605075
-0.00666231
0.0202776
0.0108176
-0.0120624
0.00419648
-0.0218806
0.0146207
0.00175087
0.00372666
0.000676265
0.014132
0.0068151
-0.00789474
-0.00273997
-0.000872184
-0.00394491
-0.00288557
0.0228889
0.0187373
-0.00708412
0.0145137
-0.0293091
0.00348593
0.00998
0.00629061
0.0031694
0.0135905
0.00237368
-0.00872583
0.00279107
0.000792837
-0.00694896
-0.000212451
0.0184057
0.0218806
0.00257596
0.00347208
-0.0200477
0.0120596
0.0122439
0.00249125
0.000721389
0.00367024
-0.00216933
-0.0169629
-0.00995691
-0.000379614
-0.0100239
-0.00732425
0.0137504
0.0336479
0.01644
0.00618653
-0.0118606
0.0107311
0.00844804
0.00506318
-0.00369156
0.00299102
0.0101503
-0.0136441
-0.0192437
-0.00736913
-0.0132427
0.000552434
0.0107753
0.0220753
0.00350342
-0.000689694
-0.0242322
0.00368765
-0.00425112
-0.0101264
-0.00513374
0.00769865
0.00577986
-0.00329872
-0.0115134
-0.0124506
-0.0182392
-0.00941954
-0.000919478
0.00660665
-0.00394522
-0.00210604
-0.0463422
-0.00862855
-0.0121915
-0.00699023
-0.00089364
0.0139088
0.00168979
-0.000355589
0.00275557
-0.00130113
-0.0173157
-0.00626836
0.0103329
0.00575675
0.00637585
-0.000641514
-0.0463418
-0.010811
-0.0115306
-0.00417597
-0.0049208
0.00352846
0.00274354
-0.00840969
0.00697117
0.000291203
-0.00703046
-0.00298073
0.017336
0.0139064
0.0108856
8.20536e-05
-0.0421289
-0.0131983
-0.0215148
-0.0191322
-0.00750662
-0.00336365
-0.00253593
-0.0185607
-0.00646693
0.00772078
-0.00081608
-0.000265402
0.0174844
0.0158234
0.0186651
-0.0035767
-0.0430653
-0.00948867
-0.0204794
-0.0169996
-0.0179796
-0.0146293
-0.00791551
-0.0109545
0.0026285
0.0186587
0.0118037
-0.00143398
0.00526192
0.0210076
0.0173273
0.00371909
-0.0434435
-0.0143212
-0.0193989
-0.0169199
-0.018877
-0.0105265
8.43892e-05
-0.00641071
0.0108836
0.0200891
0.0129936
-0.0136935
9.45285e-05
0.0213836
-0.00363098
0.00282033
-0.0473745
-0.017322
-0.0195735
-0.0173012
-0.0157301
-0.000828347
0.00324624
0.0061902
0.00242499
0.000681753
0.00850754
-0.00553633
9.85235e-05
0.00677165
-0.0157842
-0.011162
-0.0407381
-0.0141636
-0.0131797
-0.00719985
-0.00818334
-0.00383775
-0.00952973
0.00368689
-0.00136393
-0.01144
-0.0027176
-0.00685108
-0.00691934
0.00316113
-0.0207752
-0.0174076
-0.042359
-0.0148326
-0.0196352
-0.0113102
-0.0146399
-0.0152003
-0.00683405
0.00292652
0.00315799
0.00508608
0.00207304
-0.00518405
0.00373702
0.0102765
-0.0173773
-0.00679694
-0.025072
-0.00253279
-0.0201911
-0.0128844
-0.0146369
-0.0124463
0.00211343
0.00490459
0.0102017
0.00681995
0.0118341
0.00357886
0.00208606
0.0109937
-0.0133528
-0.00502869
-0.0311172
-0.00243846
-0.0139283
-0.0112405
-0.0154038
-0.00702836
0.00408693
0.00515977
0.0106932
0.00521039
0.000368186
-0.00241965
-0.00511336
0.00737704
-0.0109181
-0.0278517
-0.0400074
-0.0138924
-0.0180292
-0.0175481
-0.0219544
-0.0138851
-0.000520486
-0.000474776
-0.00274796
-0.0137025
-0.00782935
-0.00277752
-0.00468707
-0.000692919
-0.0079714
-0.0222449
-0.0437979
-0.014459
-0.0115118
-0.0182877
-0.019426
-0.0156183
-0.0160707
-0.0167759
-0.0132215
-0.0152778
-0.0127693
-0.00777035
-0.0105374
0.00046125
-0.00419745
-0.0104061
-0.0359797
-0.0116198
-0.00965997
-0.00990356
-0.0133436
-0.0075146
-0.015298
-0.01516
-0.0139862
-0.00708008
-0.0106945
-0.00653403
-0.00575521
-0.00228089
-0.00327633
-0.00283276
0.00560979
0.0162033
0.0158599
0.0114192
0.00622321
0.00552683
-0.0015062
-0.0109983
-0.0159565
-0.0254917
-0.0128475
-0.00580086
-0.0153211
-0.00716749
-0.00685738
-0.0116021
0.00246583
0.00366955
0.0100242
0.00552646
0.00687368
-0.0110815
-0.0243143
-0.0143193
-0.00882967
-1.90823e-05
0.00439839
0.00300519
-0.00772465
-0.00342017
0.0041633
0.00958941
5.08146e-06
0.0124284
0.0195507
0.0177921
0.0105254
-0.00321556
-0.00191178
0.00330531
0.0280307
0.0412542
0.0366194
0.0238784
0.0116193
0.00449377
0.0020875
0.0113423
0.000543704
0.0233217
0.00745278
0.0102354
0.00847319
-0.00355727
0.00844197
0.0177695
0.0311529
0.0413872
0.0368169
0.0201457
0.00576712
0.0077489
0.00213346
-0.00201501
-0.00545184
0.0104365
-0.00780243
0.000809719
0.000359283
-0.0119079
-0.00870466
0.00893937
0.0122402
0.00782897
0.00558067
0.0106924
0.00570564
0.00229484
-0.00406143
-0.00565589
-0.0147483
0.000696966
-0.00595056
-0.00904438
-0.00925647
-0.0198117
-0.0286404
-0.0205977
-0.00446206
0.0136453
0.0115147
-0.00737556
-0.0250443
-0.00840693
-0.00970024
-0.00783291
-0.0113843
0.0125369
0.00606117
-0.0165417
-0.0140181
-0.0101205
-0.00580521
-0.0199767
-0.0118722
0.0100998
-0.0062725
-0.0158651
-0.0114084
-0.00406177
-0.018399
-0.00401584
-0.0106352
0.0295686
0.0140431
-0.00218607
-0.00116143
0.0081942
-0.00150475
-0.0124828
-0.0110734
-0.0101673
-0.0190912
-0.013556
-0.00374063
-0.00231947
-0.00824895
-0.00304213
-0.00343023
0.00839305
-0.00613179
-0.00317374
0.00643644
0.0198617
-0.00485332
-0.00664398
-0.0134013
-0.00969627
-0.00972175
-0.00571306
0.00382237
-0.000307207
0.0137076
0.0105617
0.00176088
0.00534303
-0.00196601
-0.00897884
0.00931475
0.011032
0.00226035
-0.000583421
-0.00381299
-0.00239933
0.00487739
0.00507688
0.00958893
0.00822334
0.0199234
0.00938665
0.00255263
-0.00410443
-0.0142957
-0.0126079
0.00212367
0.0018012
0.00261038
0.000820462
-0.0144618
-0.00378324
-0.0059712
-0.00727971
0.00593907
0.00546142
0.00691549
0.0175387
-0.00829991
0.0102593
0.00707071
-4.75727e-05
0.010029
0.00383034
0.000960079
0.00439991
-0.00467056
0.0167411
0.00219116
0.00732573
0.0208541
0.00793951
0.00993474
0.0259357
-0.00112543
0.0304824
0.0228307
0.00953286
0.00657453
-0.00202589
-0.000205004
-0.00333571
0.00124419
0.0126136
0.00673192
0.00478084
0.0206972
0.0104834
0.00680113
0.0216698
0.0147046
0.0271602
0.00533116
0.00056195
-0.0109297
-0.0158374
-0.0117277
-0.00871316
-0.0118375
-0.00103202
-0.00519695
-0.0018187
0.0178296
0.0163121
-0.00284503
0.0164954
0.00130496
0.0135908
0.0132074
0.0145899
0.00238185
-0.00337756
0.00159837
-0.0158631
-0.0040315
0.00131518
0.00436534
0.00505758
0.0282665
0.0247057
0.00510859
0.0335698
-0.00934388
0.0161222
0.0333567
0.0191918
-0.00607373
-0.00220947
0.00149845
-0.00722576
-0.00568574
-0.00351002
-0.00700261
0.00530848
0.0257364
0.0297406
0.0146869
0.0205769
0.00289451
0.0290517
0.0183846
0.0106678
-0.00164693
0.00519946
0.00454307
-0.0097804
-0.0105465
0.00327241
-0.000577531
0.00569773
0.0240018
0.0329185
0.0133741
0.0112618
0.00367167
0.0157777
0.017822
0.0172671
-0.000267346
0.00477436
0.0273488
-0.00346308
-0.00449079
0.0103341
0.00529544
0.00936791
0.0244932
0.0304363
0.00996231
0.0101808
-0.00721546
0.0169485
0.0105101
0.00761884
0.0119691
0.0209031
0.0219873
0.00933767
0.0125941
0.00123983
0.00547777
0.00989011
0.0271998
0.0284846
0.00450644
0.0184473
-0.0233693
0.000984829
0.00760075
0.0174765
0.0193453
0.0219069
0.0129256
0.00762419
0.0110695
0.01275
0.00968539
0.0165528
0.0252024
0.0214957
0.0111366
0.0137899
-0.0171321
2.36281e-05
0.0133763
0.0133377
0.0131219
0.0184842
0.0220699
0.00714692
0.00789021
0.0130227
0.00514845
0.00421325
0.0196814
0.0194428
0.0069855
0.00829813
-0.0173945
0.00741289
0.00256912
-0.003217
0.00714482
0.00863106
0.0127365
0.000600793
0.000938779
0.0185772
0.0137702
0.0131691
0.0281005
0.0172382
0.0165602
0.000945824
-0.0175942
0.0137771
0.0242258
0.00869522
0.000975019
0.0044751
0.0107798
-0.00130483
0.00873581
0.0155772
0.0152357
0.0113403
0.0222229
0.028518
0.00942677
0.00900807
-0.0249775
-0.000585448
0.00824168
-0.00111444
0.00622958
0.0163358
0.0167705
0.0067026
0.022417
0.0180633
0.0258502
0.013413
0.029432
0.0296685
-0.000896047
0.0144496
-0.025084
-0.0148833
-0.00353101
-0.00614308
0.0159131
0.0331076
0.0224113
0.0217795
0.0269134
0.0264935
0.036894
0.0304187
0.039844
0.0283001
0.00802569
-0.000122985
-0.00843251
7.08e-05
-0.0124231
0.00671263
0.0132579
0.0216259
0.0174373
0.0241657
0.0178834
0.0131696
0.0253941
0.0185408
0.0260257
0.0274895
-0.006365
-0.00484453
0.000846715
-0.000740653
-0.0170247
0.0155555
0.00725255
0.012198
0.020819
0.0235972
0.0279507
0.0375078
0.0377854
0.0226067
0.0256303
0.0246715
-0.0136179
-0.00537202
-0.0144149
-0.0164104
-0.0157502
0.0075217
0.00276637
0.00193074
0.0163162
0.0275411
0.0412681
0.0387939
0.0326615
0.0268904
0.0262665
0.0168778
-0.00778516
-0.00449968
-0.0310113
-0.020891
-0.0115051
0.0018599
-0.00605362
0.00779632
0.0264632
0.0200582
0.039091
0.0381098
0.0211981
0.0170016
0.0117086
0.0109636
-0.00790392
-0.0213496
-0.0389067
-0.0334038
-0.0228485
-0.0127585
-0.0171634
-0.00666255
0.0157405
0.01591
0.0276996
0.020054
0.0124878
0.0241749
0.00921969
0.00624514
-0.00940173
-0.0143173
-0.0363057
-0.0266027
-0.021698
-0.0286075
-0.0214312
-0.0112842
-0.00730827
0.00130535
0.000305302
-0.00599372
-0.00541027
0.0056487
0.00240066
0.00348805
-0.00708309
0.00379925
-0.0368531
-0.021969
-0.0305166
-0.0425038
-0.0355899
-0.0195231
-0.0195282
-0.0179459
-0.0242417
-0.0141433
-0.017284
-0.0146892
-0.0120024
-0.0192421
-0.0253334
0.00300651
0.00898603
-0.000486577
-0.00469273
-0.00558695
-0.00387106
-0.00535868
-0.0162441
-0.0361263
-0.0445386
-0.0425587
-0.0368928
-0.0310699
-0.037479
-0.0439361
-0.030269
-0.0258413
0.00651068
-0.0136436
-0.00814355
-0.0073703
-0.00660257
-0.021113
-0.0180636
-0.0176759
-0.0140439
-0.0183206
-0.0135103
-0.0100773
-0.0183213
-0.033939
-0.0218701
-0.0106069
-0.0095373
-0.00491842
0.00571619
0.00696941
0.00456991
-0.00160113
0.00254889
0.00494171
0.0191564
0.0299847
0.0226393
0.0197282
-0.000475994
-0.0147321
-0.0159005
-0.00392136
-0.00847163
-0.00547074
-0.0121817
-0.0117818
-0.0053822
-0.00337109
0.0171144
0.0185115
0.0243389
0.0405188
0.0321413
0.032063
0.0102217
-0.00856311
-0.00512391
-0.014269
-0.0116804
-0.00574925
-0.00702462
-0.00305856
-0.0112901
-0.00687158
0.00511926
0.00753805
0.00121229
0.0102433
0.00470077
0.0277915
0.0104976
-0.0190745
-0.0263117
-0.0156004
-0.0104275
-0.00128246
0.00264221
0.00312042
-0.0147983
-0.0259725
-0.0165537
-0.0164776
-0.00380721
0.0114415
0.0102212
0.0072565
-0.0208957
-0.0232519
-0.0219466
-0.00865039
-0.010299
0.00382006
0.01002
-0.00620111
-0.0125574
-0.0168134
-0.00866706
-0.00699149
-0.012429
-0.00554917
-0.0216468
-0.0375231
-0.0274031
-0.0155926
-0.0204245
-0.00495563
-0.00525296
0.00393197
0.00216129
0.000415299
-0.0063143
0.000924865
0.00517138
-0.010956
-0.0088371
-0.0130687
-0.0372791
-0.0380717
-0.0304966
-0.0252246
0.000370034
0.0044416
0.00784458
-0.0137203
-0.0196859
-0.0129263
-0.00975506
0.0156531
-0.00267868
-0.0193418
-0.0144249
-0.0245452
-0.0316481
-0.0304721
-0.0271054
-0.0189614
0.0058768
0.0234606
0.00298246
-0.0193015
-0.011754
-0.011441
-3.30563e-05
0.00753079
0.00306153
0.00180326
-0.000750774
-0.0127038
-0.012345
-0.00625052
-0.0107325
-0.00745771
0.0197567
0.0155931
-0.000859775
-0.0144073
-0.00743257
-0.0162035
0.00204014
0.00648993
0.0103394
0.00513784
-0.00621628
-0.000775051
-0.00506801
-0.01356
0.00811479
0.0138201
0.0193847
0.0202562
-0.00273769
0.00298116
0.00703005
-0.00395467
0.00935189
0.00874786
-0.00965553
0.00511261
-0.00057458
0.0157168
-0.00762392
-0.00943544
0.00426531
0.00534181
0.0107659
0.0337508
0.011099
0.0239572
0.0131995
-0.00325557
-0.00591931
-0.0101971
-0.000103117
0.00102726
-0.0145575
-0.0065829
-0.0116528
-0.0206151
-0.00952904
-0.00889732
-0.00169059
0.0275985
0.0366228
0.0338895
-0.00623679
-0.0156762
-0.0175272
-0.022457
-0.0129541
-0.00615756
-0.0237017
-0.020275
-0.0193598
-0.00990314
-0.0056903
-0.00391423
-0.00645041
0.0200317
0.0114312
0.00949123
0.00242743
0.00734582
-0.00553541
0.00386533
0.0043537
-0.0124576
-0.0071745
-0.00573808
-0.0078888
-0.00405979
0.00360371
0.00893868
-0.00341583
0.026184
0.00187038
-0.0010349
0.0164995
0.0156326
-0.00759771
0.00319962
-0.007144
-0.00955278
-0.00548025
0.00200835
-0.00614439
0.00498255
0.00370901
0.00349599
0.00334552
0.00970537
0.0153767
0.00841479
-0.00552398
-0.0135044
-0.0118004
0.0036685
0.00165529
-0.00568961
-0.00806542
-0.00119844
-0.00361343
0.00905475
0.0221213
0.0073965
-0.00219013
0.0047553
-0.00575736
-0.00234913
-0.0035595
-0.00434888
-0.0136653
-3.56746e-05
0.00367629
-0.0134747
-0.00144064
0.00263437
0.0114622
0.0180535
0.0194361
0.0121875
0.00837959
0.0202027
-0.0127607
0.011318
0.00732199
-0.00905697
0.00562211
0.0200846
0.00851352
0.0083575
0.0170281
0.0148094
0.0032668
-3.71333e-05
0.0190377
0.0172621
0.0153762
0.0217006
0.000887033
0.00830573
0.001115
-0.00659017
0.00479159
0.0101181
0.00289911
-0.0026781
0.00150466
0.00922664
-0.000968176
-0.00164721
0.00427534
0.0139371
0.0286089
0.023524
0.00601546
0.00298018
-0.00711135
-0.00579136
0.0101241
-0.00185775
0.00627638
-0.000865585
0.0117981
0.00600488
0.00483239
-0.00195964
0.0136005
0.0158278
0.00976824
0.022302
0.0107959
0.00834068
-0.00282958
-0.0084148
-0.00204818
-0.00691757
-0.0039414
-0.00919582
0.000418789
0.00088324
0.00956326
0.01415
0.0202905
0.0135052
0.0228956
0.0115015
0.00168568
0.0171181
0.0149784
-0.00143115
-0.0105302
-0.0078766
-0.00807856
-0.0147947
-0.00628761
-0.00637176
-0.0026135
0.0101549
0.00684667
0.012602
0.00619106
0.0119253
-0.00815352
0.00413412
0.00820862
-0.00866779
0.000187462
0.0168415
0.00158952
-0.0172182
0.00245715
-0.0031156
-0.00691675
-0.00326081
0.00880023
0.00936374
0.00515911
0.0209901
-0.00142361
0.0164627
0.0106541
-0.00694059
0.0228304
0.0331583
0.0116874
0.00403649
0.0178085
0.00302653
0.00488021
0.00939378
0.016899
0.0181408
0.00823746
0.0108137
0.00152108
0.0201194
-0.00108906
0.0136087
0.0220225
0.0162754
0.0147075
0.010634
0.00315816
0.00415207
-0.00274257
-0.00650709
0.00525028
0.00818302
-0.001607
0.0155337
-0.0073397
-0.00774319
-0.0187036
0.0175252
-0.00175409
-0.000815077
0.00798528
0.0150528
0.0136629
0.0208223
0.00852675
0.00977231
0.00520385
0.00530916
-0.0012365
0.00711875
-0.0327226
-0.0236774
-0.0125371
0.00541053
-0.0104554
-0.00928498
-0.00102584
0.0104372
0.0307522
0.0305705
0.012955
0.0252481
0.0089731
-0.00324847
-0.0102223
0.0024098
-0.0275637
-0.0162866
-0.016437
-0.0104059
-0.0254617
-0.0170614
0.00719476
-0.00121282
0.0177947
0.0176331
0.00196564
-0.00324031
-0.00510855
0.00425259
-0.0113427
-0.0174713
-0.011702
-0.028798
-0.0250209
-0.0198406
-0.0247708
-0.00966754
-0.000847671
0.00141641
0.0158266
0.00530775
-0.00409495
0.00620819
0.00832911
-0.00240436
-0.0120044
-0.00949879
-0.0193834
-0.033411
-0.0314965
-0.0334005
-0.0229899
-0.0154546
-0.00968048
-0.00564868
-0.00904058
-0.0194192
-0.0151435
-0.00360704
-0.0056335
-0.00412801
0.0011513
0.0130267
-0.0187398
-0.0211169
-0.0457461
-0.0572822
-0.0418319
-0.026272
-0.0171595
-0.0195432
-0.0352515
-0.0303004
-0.0335634
-0.0354421
-0.0315737
-0.0258885
-0.0100135
0.0173449
0.0150452
0.00896029
-0.000702982
-0.0135919
-0.0209852
-0.0290157
-0.0212839
-0.0469766
-0.0331442
-0.0377222
-0.036049
-0.0243836
-0.036003
-0.036325
-0.0274396
-0.0205344
0.0221519
-0.00228908
-0.00884785
-0.012806
-0.0136319
-0.012156
-0.0122634
-0.00732308
0.00662978
-0.00859269
-0.00339639
-0.00471267
-0.0176065
-0.0287855
-0.0177879
-0.000557917
0.00135371
-0.00888773
-0.00784339
0.0100812
0.0103313
0.0110762
0.0221686
0.0111165
0.0262612
0.0257328
0.0208397
0.019618
0.000549953
-0.0203137
-0.0270559
-0.00263368
0.000299561
-0.0146297
-0.030409
-0.0183935
-0.00870594
0.0129789
0.0371929
0.0374741
0.0412662
0.0360728
0.019648
0.00977003
-0.00248138
-0.0361283
-0.0454129
-0.0245974
0.00689069
0.00706357
0.00982641
0.0104829
0.00489793
0.0115597
0.0327469
0.0295166
0.0207866
0.0188382
0.0204264
0.0312558
0.01773
-0.0236823
-0.0297644
-0.000619057
0.0098397
0.0142794
0.0154548
0.0144049
-0.000785861
-0.00953881
0.00624558
0.0108405
0.0217862
0.0349122
0.0257915
0.0223511
-0.0013478
-0.00349791
0.00851505
0.0266196
0.00732584
0.0102855
-0.00626657
-0.0186249
-0.00136681
-0.0033303
0.00406831
0.0160481
0.0230458
0.00816154
-0.0128099
-0.0241548
-0.0205721
-0.00449911
0.0176665
0.0100367
-0.00260574
-0.0224901
-0.0341141
-0.0213061
-0.0131196
0.0172226
0.0220052
0.00940708
0.0130338
-0.000447968
-0.0244228
-0.0288753
-0.0339155
-0.0337316
0.0108491
0.0138725
-0.00302849
-0.0299625
-0.0359234
-0.0206067
-0.0125698
0.0174765
0.0101264
0.0086696
-0.0012868
-0.00154826
-0.0128581
-0.0248531
-0.0297989
-0.0306426
0.00976332
0.0230205
0.00661382
-0.0265003
-0.0165161
-0.00391187
0.00172103
0.00536234
0.0207251
0.0121987
0.0123169
0.0130167
0.0148765
0.00294281
0.00373294
0.0172234
0.0261879
0.0185666
0.00788824
0.00713977
0.022963
0.00781003
0.0162824
0.0303708
0.037663
0.0199025
0.0120545
0.0260311
0.0238638
0.00556199
0.0422128
0.0513749
0.047602
0.0336862
0.00569793
0.021489
0.032906
0.00832332
0.00979286
0.0206968
-0.000138773
0.0144322
0.0209745
0.0337243
0.0254579
-0.00882551
0.0138059
0.0187697
0.0155361
0.0400301
0.013098
0.0198224
0.0212515
0.00190509
-0.0173028
-0.0128453
0.00765702
0.00952745
-0.00433033
-0.00144435
0.000907729
-0.0224414
-0.0261874
-0.00657327
0.0120996
0.0340876
0.0442038
0.0254737
-0.00291276
-0.0169292
-0.0246471
-0.0310628
-0.0179952
-0.0115898
-0.0115581
-0.00272693
0.000874044
-0.01259
-0.0229276
-0.00779683
0.0180116
0.0301286
0.0257105
-0.00309693
0.00623365
0.00506386
-0.0224839
-0.00948126
-0.00711882
-0.00585709
-0.000199969
0.0136347
0.00739771
0.00250066
-0.0161961
-0.00281338
0.0156371
0.0355415
0.0170903
-0.00809534
0.00645467
0.0122062
-0.00620479
0.010446
0.0129189
0.00873679
0.00807848
0.0140174
0.0158361
0.0265465
0.0144928
0.0177119
0.0376331
0.0305179
0.0170745
-0.0101006
-0.0188476
-0.0149524
0.0063624
0.0240158
0.0369277
0.034693
0.0253039
0.0306178
0.0299454
0.0350937
0.0397163
0.0234026
0.0216907
0.0259828
0.0131479
-0.00286492
-0.00235441
0.00324124
0.00230128
0.0246408
0.0299319
0.0227703
0.0283737
0.0315701
0.032469
0.0239198
0.0261866
0.0215052
0.029646
0.0393397
0.0167073
0.0160962
0.023782
0.010597
0.0205884
0.049773
0.0461632
0.0418504
0.0403995
0.0384469
0.0274037
0.00788204
0.0228009
0.039148
0.0429806
0.0333771
0.0326024
0.0123043
0.000468153
-0.00025284
0.0095577
0.0265418
0.0298938
0.0248812
0.011941
0.0216962
0.00700983
-0.00140684
0.0182243
0.0301388
0.0381243
0.0465312
0.0431085
0.0218618
-0.00665652
0.00206878
0.022858
0.00981906
0.0124509
0.0112911
0.0124548
0.00292386
0.0127552
0.00531235
0.0167261
0.00722449
0.0211337
0.044662
0.0414059
0.0167639
0.00115377
0.00240657
0.0114253
0.00894199
0.00594145
0.0190449
0.0214462
0.00740158
0.029508
0.0372612
0.0246274
0.011987
0.0297283
0.0314144
0.016575
0.00682135
0.000832264
0.00224815
0.0131516
0.0225717
0.0200471
0.00734342
0.0198591
0.0069205
0.0191745
0.0311368
0.0182804
0.00854446
0.0129331
0.0210697
0.0148565
0.0179329
0.0221516
0.0267705
0.0359112
0.0152896
0.00496009
0.00849969
0.0097729
0.00507828
0.0175327
0.0261517
0.0300374
0.0272806
0.0280523
0.0431842
0.00694825
0.0172735
0.0168246
0.00464257
0.0137587
0.0222425
0.00758915
0.027047
0.0449034
0.0401411
0.0378269
0.0440423
0.044205
0.0324306
0.0249004
0.0239825
-0.0117962
-0.0118478
-0.00638125
0.0142624
0.0222139
0.0152826
0.014872
0.0267967
0.0236357
0.0364677
0.0316468
0.0241131
0.0155561
-0.000441204
-0.00111577
0.0259243
-0.00687376
-0.0100208
0.00256037
0.0209179
-0.005926
0.00416259
0.000489481
0.0286651
0.0247233
0.0344871
0.0252923
0.00966444
0.00446339
-0.0126731
0.00122695
0.02265
-0.021738
-0.0127789
0.00834804
0.00916428
-0.00129612
0.0148831
-0.00701764
-0.00138895
0.00500374
0.0261285
0.00892356
0.0169404
-0.00737111
-0.0193258
-0.000622704
0.0175528
-0.00987846
0.0106326
-0.00773633
-0.0288818
-0.0311115
-0.00288856
-0.00881628
-0.022533
-0.0050309
0.0199445
-0.00442866
-0.00719791
-0.0111405
0.00230555
-0.0054969
-0.00164137
0.00257457
-0.0232227
-0.0297039
-0.0254391
-0.0176329
0.00486586
0.00376078
0.0042743
0.0155058
0.012632
-0.00248508
0.00671985
0.0198922
0.0185532
0.0208517
0.00771086
-0.00801489
-0.0256708
-0.0395439
-0.0336388
-0.0129593
-0.00977274
-0.0143819
-0.0100037
-0.00778192
0.00064103
0.00116034
0.0217474
0.0363452
0.0267788
0.0411875
0.0410269
-0.0163877
-0.0201084
-0.0281564
-0.0566045
-0.0548523
-0.0400499
-0.0390957
-0.0403791
-0.0265935
-0.0139109
-0.00856547
0.0037252
0.00521687
0.000615292
0.0162091
0.0260689
0.0282973
0.015737
-0.00599457
-0.0171241
-0.0356517
-0.0561816
-0.066256
-0.0662361
-0.0567407
-0.0378856
-0.0250907
-0.00908589
-0.0124514
0.00134481
0.00901346
0.017712
0.0791136
0.0637456
0.0556162
0.0343283
0.0121602
0.00355995
-0.0107405
-0.0287731
-0.00890681
-0.00381344
0.00685324
0.0259187
0.0373638
0.0502211
0.0539645
0.0716378
0.0769258
0.0657869
0.0523805
0.0485414
0.0370689
0.0302592
0.0215532
0.0108006
0.0102116
0.0165052
0.0353806
0.0434474
0.0525295
0.0563436
0.0522257
0.0655526
0.0763819
0.0735586
0.0621794
0.0555745
0.0450594
0.0297877
0.0205935
0.0435855
0.0349854
0.0241469
0.0327427
0.0455236
0.0515591
0.0558241
0.0514816
0.0628646
0.073977
0.0638771
0.0528385
0.0564734
0.0410146
0.00894908
-0.00548281
0.0227585
0.0196958
0.016385
0.0212198
0.0490905
0.0506782
0.0570428
0.0490523
0.0757778
0.0470628
0.0425552
0.0270741
0.0117833
-0.003974
-0.0214272
-0.0190451
0.00111057
-0.00191626
0.0178959
0.0166895
0.0219442
0.0168453
0.0264242
0.0593049
0.068151
0.0447244
0.0332641
0.0035821
-0.0232001
-0.0193703
-0.023508
-0.0193511
0.00753574
0.00619411
-0.012833
-0.0335974
-0.0274748
-0.0203408
0.00572206
0.036245
0.0397686
0.0165547
-0.0303027
-0.0558947
-0.0491008
-0.0450897
-0.0327002
-0.0147474
-0.0075851
-0.00682027
-0.0205153
-0.0346923
-0.0182137
-0.0195504
-0.0116864
0.0310834
0.0511233
0.0166731
-0.0294589
-0.0500979
-0.031654
-0.0304632
-0.0167212
-0.00558936
-0.00645563
-0.00494743
-0.00645857
-0.0154044
-0.0142553
-0.0206844
0.000722135
0.0117809
0.0248921
0.020637
-0.020062
-0.00605134
0.00228934
-0.00831114
-0.0022468
0.0154804
0.0113188
0.0209529
0.0196035
0.0188753
0.00841925
-0.00626645
0.014288
0.00233256
0.0167748
0.0306828
0.0328029
0.0383732
0.0222647
0.021915
0.0404884
0.0478762
0.0304374
0.0309591
0.0397264
0.0408622
0.0235692
0.0363117
0.0508915
0.0623309
0.0529788
0.0097653
0.0263916
0.0360199
0.0156114
0.00843328
0.0229704
0.0217858
0.0197777
0.0269652
0.0427011
0.0390352
0.00435438
0.0177349
0.0191994
0.0240561
0.0360458
0.0217696
0.0205397
0.0412343
0.0157342
-0.0237086
-0.00411578
0.0166903
0.0163106
-0.000177129
0.00939011
0.00202976
-0.00815933
-0.0186677
0.00346413
0.0298737
0.0400274
0.0529224
0.0253148
0.0056994
-0.0317731
-0.0305223
-0.0166092
-0.00647526
-0.0107533
-0.00478088
0.00308894
0.00318383
-0.00510363
-0.0337748
-0.00307231
0.0221627
0.0328941
0.0164084
-0.0233133
-0.0197063
-0.0202795
-0.0335777
-0.013418
0.00232324
-0.00289499
-0.00247731
0.0131774
0.00638269
-0.0134844
-0.0299239
-0.00700851
0.0205066
0.0470256
0.0235635
-0.0023421
-0.00976895
-0.0259337
-0.0404939
-0.0123096
0.00448122
0.0116519
0.0138424
0.0202367
0.0283987
0.0143114
-0.00143326
0.0112236
0.0589638
0.0610737
0.00232098
-0.0296608
-0.0441759
-0.0328174
-0.00767856
0.0149818
0.042763
0.0520982
0.0496821
0.0529237
0.0649349
0.0394138
0.0358402
0.0262104
0.0370265
0.0538721
0.0115568
-0.0149749
-0.00828842
-0.0211319
-0.00381839
0.0200382
0.0297566
0.0364983
0.042293
0.0583533
0.0473309
0.0201865
0.0110561
0.0105584
0.0251724
0.0299753
0.0251251
0.016064
0.0321361
0.00695327
0.00477956
0.0239212
0.0225446
0.035516
0.0378678
0.049038
0.033348
0.0122624
0.0216269
0.0287972
0.0323329
0.0389243
0.0498689
0.0263165
0.00109132
-0.00716517
-0.00705832
-0.00150788
0.0106993
0.00757928
0.00295685
0.0276491
0.0100018
0.00158918
0.0309405
0.0425177
0.0351534
0.0507813
0.0628876
0.0363916
-0.00309173
-0.0219939
0.0010883
0.00110414
0.000216497
-0.00486421
-0.00442945
-0.0119728
-0.0150737
-0.0237334
-0.0209375
0.00435239
0.0196855
0.0378489
0.0560437
0.0201889
-0.00604697
-0.0147343
-0.00530452
-0.000671715
-0.0159261
0.00980742
0.0202921
-0.00260967
-0.00644628
-0.00841774
-0.0241917
-0.00232649
0.00747076
0.0236901
0.0240724
0.000137497
-0.0176023
-0.0276089
-0.00285899
0.0136524
0.0231608
0.0304962
0.023098
0.00233622
-0.00383912
-0.00485026
-0.0172934
-0.000462951
0.0181332
0.0251869
0.0387146
0.0159105
-0.0032376
-0.00284531
0.0144983
0.00100849
0.00896271
0.0130918
0.0109703
0.00862915
0.010551
0.00994454
0.00672107
0.0150346
0.0210211
0.0381794
0.0235811
0.00516414
-0.0213408
-0.0239453
-0.0144692
-0.00363189
0.0112964
0.0320073
0.0478816
0.0479584
0.043424
0.0325578
0.038571
0.0426912
0.0410753
0.045075
0.00668849
-0.00908587
-0.0100109
-0.00171094
0.0109704
0.00549556
-0.00163387
0.0223433
0.0289702
0.0489888
0.0396595
0.0250847
0.0196327
0.0219213
0.0294014
0.0469486
0.0360776
0.023563
0.0221193
0.00720077
-0.00188037
-0.0101438
-0.0110091
0.00841112
0.0117147
0.0145308
0.00592746
-0.00988711
0.00995231
0.0109801
0.0185207
0.0451083
0.0485457
0.0394282
0.0400302
0.0236087
0.00981853
-0.00277
-0.0128121
-0.00776092
-0.0170553
-0.0224682
-0.0147372
-0.00157482
-0.00013676
0.0132219
0.0304214
0.0428101
0.0405122
0.0405066
0.0345564
0.00670708
-0.00772763
-0.0126477
-0.0113191
-0.0223079
-0.0318928
-0.0101901
-0.00806019
0.000127036
0.00670754
0.0279648
0.0283615
0.0415881
0.0343433
0.0204119
0.00689529
0.00203709
0.0127412
0.010977
-0.00448346
-0.0123005
-0.005772
0.00655081
0.0138666
0.0153567
0.0118962
0.0161329
0.0303348
0.038649
0.0433468
0.0309215
0.0145399
0.00240928
0.0111618
0.00861898
0.0139617
0.0212849
0.0279064
0.0379162
0.0490218
0.0571601
0.0511682
0.0432068
0.0474118
0.0546461
0.0506857
0.0413042
0.0355693
0.0249709
0.0194009
0.0104685
0.020954
0.0340773
0.0581524
0.0630779
0.0734758
0.0676733
0.0603472
0.0584057
0.0607621
0.0615891
-0.0336081
-0.0328284
-0.0292998
-0.0383178
-0.0485117
-0.0539434
-0.0727471
-0.063132
-0.0582216
-0.0561568
-0.0501816
-0.0397723
-0.0404604
-0.030159
-0.0258738
-0.0188849
0.0223583
0.0316371
0.0338489
0.0254589
0.000837386
-0.0143436
-0.033276
-0.0433826
-0.0344352
-0.0243374
-0.0141201
0.00424176
0.00406751
0.0178528
0.017098
0.0101547
0.0325063
0.0357583
0.0282575
0.0232985
0.0198237
0.0156055
0.00191083
-0.00674407
-0.0267882
-0.0119304
0.00455603
0.00384427
0.00851418
0.0285395
0.0250381
0.0155666
0.0307051
0.0430877
0.0448035
0.0283486
0.0157743
0.00520105
-0.00468963
0.0104088
0.00278977
-0.00262653
0.00891747
0.00797915
0.0215331
0.0288442
0.0253838
0.0275186
0.0368529
0.0463867
0.0528911
0.0348262
0.0125768
-0.0029239
-0.023209
-0.00834873
-0.00581764
-0.0210773
-0.0177525
0.00471212
0.0271172
0.035684
0.0402922
0.0404761
0.0397268
0.0369009
0.0239907
-0.0133638
-0.0382341
-0.0255791
-0.0187689
-0.0179788
-0.0281363
-0.0229533
-0.0250192
-0.0128159
-0.00185142
0.00344879
0.0335343
0.0377679
0.0209672
0.00655614
-0.014582
-0.0410599
-0.0451524
-0.0332483
-0.0352272
-0.0125782
-0.0201959
-0.0393369
-0.0569732
-0.0432141
-0.0236569
-0.0231985
0.00847545
0.0195108
-0.0189868
-0.041622
-0.0445986
-0.0521094
-0.0392385
-0.0327897
-0.0227882
-0.0283161
-0.0259056
-0.0270985
-0.0390954
-0.0333108
-0.0401656
-0.0272084
0.000529538
0.00907177
-0.00578166
-0.0302573
-0.0316308
-0.0301182
-0.0345988
-0.0306338
-0.00927147
-0.0096843
-0.00791102
-0.0159837
-0.0301333
-0.028559
-0.0246799
-0.023331
-0.0208779
-0.00937007
0.000556104
-0.0144945
-0.000258002
-0.00135901
-0.0226378
-0.0281042
-0.0100095
0.00136735
0.00178199
0.00670767
0.0086953
-0.00950127
-0.0180939
-0.0289681
-0.0378466
-0.0155787
-0.00623167
0.0103904
0.0279157
0.0132486
-0.0156046
-0.0180166
0.00614646
0.0098974
0.00512974
0.00734859
0.0106642
-0.00817477
-0.0160904
-0.0111334
-0.0014405
0.00311287
-0.011318
0.00101905
0.00180781
-0.0211296
-0.0309605
-0.0174302
-0.000595226
0.00655643
9.05657e-05
-0.00231018
0.00119049
-0.015952
-0.019835
-0.0187307
-0.0273487
-0.0245974
-0.0217684
-0.0158956
-0.00809093
-0.0233007
-0.0368815
-0.0230136
-0.000485308
0.0175121
-0.00278983
-0.00925409
-0.00395085
-0.00827045
-0.0237997
0.0011227
0.00838957
-0.00417268
-0.0129736
-0.0136967
-0.00835788
-0.0111842
-0.0213391
-0.0179804
0.00715096
0.0122437
0.0036949
-0.00735742
0.0022543
-0.00276349
-0.0206813
-0.00311325
-0.000477745
-0.0113538
-0.0231185
-0.03267
-0.0406181
-0.0349904
-0.0165741
0.00401683
0.0208387
0.0200552
0.020321
0.0060852
-0.00271998
-0.028958
-0.0435677
-0.0308182
-0.0319453
-0.0152444
-0.0128021
-0.0139076
-0.0270668
-0.0212873
-0.0132634
0.00430652
0.0129096
0.0171719
0.0148408
0.000202161
-0.00772259
-0.0224888
-0.0395916
-0.0337508
-0.00611981
0.00323269
-0.0203897
-0.017915
-0.035728
-0.0171858
0.00902291
0.0147912
0.0273105
0.0292124
0.00925952
0.00250287
0.0120454
0.00814937
-0.0126947
-0.03645
-0.0234431
-0.00638289
-0.0251991
-0.0296046
-0.0248888
-0.0282982
-0.00287221
0.017348
0.0148166
0.0220373
0.0164893
0.0108348
0.00381794
-0.0141051
-0.0374702
-0.0475081
-0.035154
-0.0239129
-0.0156835
0.00241829
0.00246596
-0.00758278
0.0134574
0.03562
0.0198893
0.0134584
0.0225015
0.00590815
-0.0127836
-0.0289742
-0.0377375
-0.0415623
-0.0211378
-0.0025643
0.00646514
0.00392646
-0.0202809
-0.0188743
0.0150625
0.0163868
0.00978497
0.00166224
-0.0130798
-0.0112789
-0.0159659
-0.0166552
-0.0122426
-0.0161669
-0.00747075
0.0060158
0.0285269
0.0263608
-0.00182753
-0.0176943
0.0161368
0.0134827
0.000310978
-0.00745534
-0.0257089
-0.0339258
-0.0450657
-0.0477197
-0.0565783
-0.0351973
-0.0233645
-0.0155887
0.00615415
0.0192116
-0.00609486
-0.00802048
0.00118856
0.00529259
-0.0147926
-0.0280629
-0.0239678
-0.0289974
-0.0381346
-0.0444101
-0.0324715
-0.00249466
-0.00864431
-0.00258759
0.0060236
-0.00235414
-0.023173
-0.0186627
-0.00825045
-0.0064578
-0.00583052
3.74768e-05
-0.00301467
-0.0301638
-0.0348356
-0.0446327
-0.0383389
-0.00328598
-0.00694866
-0.000156749
-0.00993526
-0.00661843
-0.0172132
-0.023253
-0.0268544
-0.0118969
-0.00844015
-0.016062
-0.0159509
-0.0244059
-0.0200079
-0.0287982
-0.0416866
-0.0343648
-0.0226222
-0.00276178
-0.0177653
-0.016801
-0.0194075
-0.0160137
-0.0163781
-0.00891986
0.00625156
-0.00288805
0.0091747
-0.000617282
-0.0116237
-0.0233242
-0.0304997
-0.0179775
-0.00149
0.00989263
-0.027097
-0.0222598
-0.0133281
-0.0153046
-0.0135719
-0.00582072
-0.00459642
-0.0097136
-0.0151616
-0.0128595
-0.0170877
-0.0240098
-0.0402364
-0.0183943
0.00804161
0.0136664
0.00230565
0.00461309
-0.000946226
-0.0173331
-0.0227427
-0.0109099
-0.0137529
-0.0050294
-0.022456
-0.0322673
-0.0397427
-0.0334947
-0.0262123
-0.0102741
0.0220821
0.0261501
0.00605469
0.0157098
0.0231451
0.000608679
-0.0083088
-0.00938839
-0.0118014
-0.0148809
-0.0327919
-0.0435542
-0.0321531
-0.0241039
-0.0247377
-0.0139833
0.020622
0.0169951
0.0107667
0.0163626
0.0186339
0.00159798
-0.00990116
-0.00658148
-0.00617767
-0.0214133
-0.0421573
-0.0412866
-0.0187191
-0.0151597
-0.0175319
0.00675252
0.0216829
0.0205266
0.0123376
0.00930718
0.0127947
0.00128042
0.000814452
0.00545773
-0.00754995
-0.0144804
-0.0145218
-0.0182417
-0.00529726
0.00370132
-0.00590007
0.020229
0.0328236
0.0249178
0.0331604
0.0331359
0.0310199
0.0345716
0.0328767
0.0324952
0.03557
0.0333956
0.0243533
0.020638
0.0254463
0.0272768
0.0180602
0.0316578
0.0382455
0.0299323
0.0526207
0.0501076
0.0545218
0.0598623
0.0534535
0.0474026
0.0616167
0.0590699
0.0571589
0.0565833
0.0470901
0.0307797
0.0307297
0.0414394
0.0484373
0.0458449
0.020953
0.00537062
-0.000819453
-0.00302233
-0.000551104
-0.00784853
-0.0201002
-0.00695286
-0.0144248
0.000214858
-0.00320547
0.00576808
-0.010083
-0.0349927
-0.0494548
-0.000891042
0.0289021
0.0165736
0.0025866
0.0216479
0.0299117
0.0137488
0.0182614
0.00186206
-0.00363811
0.01027
0.00899729
0.00953737
0.00257013
-0.00726718
-0.0264342
-0.0184419
0.0306657
0.0211605
0.0081981
0.0228253
0.0441658
0.0350546
0.0334289
0.0412022
0.0271264
0.0182565
0.0331029
0.0042448
-0.0221902
-0.00188539
-0.00622306
-0.00687551
0.00724776
0.0115971
0.0109288
0.0192721
0.0260889
0.027176
0.0360086
0.0482665
0.0528108
0.053762
0.0454204
0.00748482
-0.022166
-0.0317383
-0.0404855
-0.0293366
0.00468658
-0.000804441
0.0148773
0.0219587
0.0388429
0.03163
0.00981713
0.0110646
0.0443298
0.0421002
0.0399228
0.0204232
0.0115597
-0.00707978
-0.00403218
-0.000593458
-0.000938028
-0.00632707
-0.000979618
-0.00526671
0.0104129
0.0238085
0.0282695
-6.0065e-05
0.0153368
0.00969543
0.0236215
0.0253488
0.0211863
0.00808164
-0.0075664
0.0121658
-0.00615322
-0.0162682
-0.0325962
-0.0348877
-0.00760833
0.00508247
0.0145291
0.00261156
0.00834471
0.0108767
0.014771
0.0126042
0.0108988
0.000934182
0.00146994
-0.00143292
-0.0238083
-0.0415713
-0.0532601
-0.0531587
-0.0313229
-0.00183306
0.00644871
-0.00129749
-0.00726871
0.00331694
0.00914151
0.021491
0.00578878
0.00126566
0.00597887
0.00764235
0.0126786
-0.0108052
-0.0298173
-0.0279992
-0.0337121
-0.0267972
-0.00597932
-0.0014019
-0.00900941
-0.00205649
-0.0130261
0.00155121
0.0139466
0.00469164
-0.0012824
0.0117362
0.0475255
0.0262469
0.00477298
0.00872851
-0.0211118
-0.0447317
-0.0439231
-0.0134812
-0.00391852
0.0180576
0.0229659
0.0138572
0.0189308
0.00743036
-0.00208478
0.00929519
0.0529406
0.0398452
0.0416464
0.0439707
-0.00238405
-0.0390462
-0.0300648
-0.0111401
-0.00122015
0.0166702
0.0268925
0.023138
0.0140743
0.0149164
0.0173329
0.0148617
0.0533505
0.0253739
0.0145597
0.00744597
-0.0229742
-0.0282154
-0.000392241
0.00482616
0.00708761
-0.00225392
0.0150835
0.025064
0.0181639
0.0283789
0.00663172
-0.00558694
0.0404003
0.00620145
-0.0108217
-0.00395159
-0.0188603
-0.0202783
-0.00614863
0.0126113
0.00342833
-0.0109712
-0.0062246
0.0239266
0.0265189
0.0297459
0.0380342
0.0402542
0.0310026
0.00874075
-0.000802034
0.00748138
-0.015185
-0.0249464
-0.00713236
0.0196775
0.0110396
-0.00237495
0.0007806
0.00855132
0.0236428
0.0241527
0.0343826
0.0355557
0.0336306
0.00769452
-0.0153169
-0.0152452
-0.0214496
-0.0259256
-0.00453645
0.0268828
0.0227339
0.00358577
0.0028706
-0.0100662
-0.00720187
0.011115
0.0109223
0.0133207
0.0429347
0.0225752
0.0118186
0.0154372
-0.000314896
-0.023287
-0.024317
0.000585523
0.0153058
0.0256029
0.00506967
0.00722337
0.00270571
0.00423367
0.0059106
0.0136194
0.0562362
0.0341472
0.0212479
0.0267226
0.026228
0.00792156
0.0160367
0.012945
0.00311169
0.0217984
0.0313124
0.043461
0.0189063
0.00667105
-0.0146706
-0.000786799
0.0482412
0.0261891
0.0113969
0.0220577
0.0280816
0.00587681
0.0182593
0.0256963
0.0158593
0.0133273
0.0249339
0.0224947
0.0161766
0.00225036
0.00917333
0.0251345
0.0514273
0.0256174
0.0117121
0.0416307
0.0343485
0.0236773
0.0204015
0.0226059
0.0377029
0.0126122
0.0063919
0.0119501
0.0112567
0.0111528
0.0157027
0.0204201
0.0456558
0.0199682
-0.00927128
0.012529
0.028444
0.0306458
0.0204525
0.0123255
0.0112817
0.00124802
0.0177403
0.0325543
0.027604
0.0354763
0.0248946
0.0352094
0.0487522
0.0508787
0.0277648
0.0211617
0.0355303
0.0305985
0.0224998
0.0183595
0.0155573
0.019069
-0.00866693
0.00508937
0.015778
0.0152072
0.0175484
0.0121923
0.0355469
0.046762
0.0452009
0.0401511
0.0410505
0.0372813
0.0167301
0.0110706
0.0256657
0.0396293
0.0194766
0.0128635
0.0316286
0.0415392
0.03586
0.0449306
0.0473126
0.0239391
0.0286031
0.0399818
0.0432195
0.0237211
0.00391676
0.0113937
0.0232024
0.016075
0.00645484
0.00412028
0.0184249
0.0481528
0.0424911
0.0531652
0.0264482
0.0153037
0.00419444
0.0108255
0.0152588
0.020344
0.0163904
0.00545055
0.0225019
0.0226488
0.0111588
0.0136665
0.0200917
0.0341569
0.0294318
0.0367541
0.0131121
0.00470687
0.0174452
0.0179335
0.0265795
0.0281801
0.0261517
0.0202498
0.0163136
0.0252239
0.0220088
0.00819692
-0.00252456
-0.00872707
0.0162613
0.0505764
0.0118346
0.00438739
-0.000179657
0.00487811
0.0242567
0.0258021
0.0160151
0.0181781
0.00341765
-0.00138703
0.0277545
0.0184463
-0.0106144
-0.00977581
0.00487857
0.0251875
0.0293663
0.0350116
0.0156342
0.00343656
0.0098551
0.016929
0.0241708
0.0219873
0.00523165
-0.00130654
0.0149532
0.0171327
-0.00129701
-0.00920126
0.0259153
0.0294663
0.00718269
0.0282831
0.0223134
0.0220124
0.0255915
0.0219375
0.0136524
0.000800085
0.00814744
-0.012407
0.0184287
0.0362283
0.0327712
0.00757327
0.0108802
0.0243607
0.0134277
0.0156115
-0.00702924
-0.00186389
0.0185824
0.0146903
0.00187679
-0.0201582
-0.00394313
-0.0137002
0.010807
0.0355538
0.0323758
0.0364246
0.0345043
0.0318962
0.0266459
0.0150772
0.0111225
0.010058
0.0164352
0.019182
-0.00574291
-0.0247435
-0.0057231
0.00241758
0.015331
0.0213363
0.0127622
0.0399303
0.0459701
0.0320863
0.0379335
0.0280287
0.0308544
0.0439377
0.0427867
0.0369246
0.0154328
0.00369078
0.00850794
0.0157034
0.0118973
0.000245532
-0.00742994
0.000559657
0.0216684
0.0191245
0.0321749
0.0223958
0.0139405
0.0369628
0.0264956
0.0187376
0.0060414
-0.0115107
-0.00977106
-0.007341
-0.0038081
-0.0135288
-0.0152924
-0.0249203
-0.00735048
-0.00102559
0.0170204
0.00528585
-0.00677563
-0.0207726
-0.0155669
-0.0243719
-0.0231999
-0.0152098
-0.00841767
-0.000785147
-0.000824449
-0.00527948
0.00446929
-0.0212672
-0.043276
-0.0147378
0.00809036
-0.000357324
-0.0102963
-0.0187282
0.00358981
0.00102392
-0.000278255
-0.00896444
-0.00982018
0.00702317
0.0130126
0.0081793
0.0131422
-0.00450284
-0.0255865
-0.0128023
0.00302742
-0.00280863
-0.00879891
0.00643845
0.0338287
0.0335861
0.0291557
0.0244712
0.0107097
0.0211897
0.0280094
0.0175529
0.00234414
0.000482856
-0.0188589
-0.0133465
-0.0150599
-0.00850748
-0.0102033
0.000134329
0.0259157
0.0405409
0.0425854
0.0359562
0.027116
0.0353814
0.0320281
0.01052
-0.0202046
-0.020866
-0.0285823
-0.0289522
-0.0208986
-0.02691
-0.0172104
0.000366729
0.0265873
0.0372758
0.0112138
0.00219132
0.0286961
0.0307781
0.0239093
-0.00332859
-0.0122871
-0.00890893
-0.00960234
-0.00877433
-0.030897
-0.0355901
-0.032817
-0.0218003
-0.00970548
0.00909254
0.00229372
-0.0128843
-0.00368845
0.00226526
0.0103777
-0.000408184
0.00595395
-0.00411537
-0.00648226
-0.000538056
-0.0400856
-0.0435358
-0.0360688
-0.0363815
-0.0278937
-0.00750805
-0.013866
-0.0121726
0.00126107
0.00100761
0.00864505
0.0081576
0.00541104
0.000669203
-0.00325743
-0.012226
-0.0291063
-0.0371796
-0.0543761
-0.0506503
-0.0371801
-0.0105324
-0.0101574
-0.0172951
-0.0136293
-0.00570509
0.00345975
0.0186581
0.0131962
0.00848852
-0.0013263
0.0110633
-0.00105752
-0.026425
-0.0341254
-0.0331064
-0.0329066
-0.0293951
-0.0158957
-0.0181172
-0.021519
-0.00221145
-0.00655877
-0.0047981
0.00414233
-0.00412193
0.00166493
0.0146883
0.0294075
-0.00117281
-0.00833809
-0.00210011
-0.0204682
-0.0303717
-0.0316049
-0.0111411
-0.011033
0.00609794
-0.000996036
0.00450012
-0.00246256
-0.00609832
-0.00101828
0.0012473
0.0378831
0.0151943
0.0118306
0.0218106
-0.00452174
-0.0219709
-0.0160214
0.00102524
-0.00464599
0.00699234
0.00421522
0.0117411
0.008375
0.0153421
0.0106307
0.000498749
0.0398179
0.0158817
0.00549978
0.0104584
-0.00421326
-0.0199766
-0.00335317
0.0148069
0.00228394
-0.00645764
0.00871586
0.0254153
0.0323884
0.028359
0.0143784
-0.0201055
0.0146765
-0.0120861
-0.0137854
0.00204055
-0.01411
-0.0256371
-0.0135258
-0.0041067
-0.00334419
-0.01351
-0.0137278
0.0162459
0.0259544
0.0120737
0.01825
-0.00287366
0.00889738
-0.0148027
-0.0147708
-0.0067682
-0.0134822
-0.0154241
-0.00929107
0.00902661
0.0162505
0.00682021
-0.0142622
-0.00136827
0.0122146
0.00077649
0.015243
0.0104354
0.0139034
-0.000269179
-0.0132482
-0.0197351
-0.0106789
-0.0233797
-0.0191977
0.0196228
0.0259352
0.0107719
0.000638548
-0.00999598
-0.014802
-0.00230105
0.0141217
-0.0125349
0.0168551
-0.000931209
-0.000270681
0.00266879
-0.000717154
-0.0321005
-0.0418493
-0.0134237
-0.0071958
0.0118192
0.00580897
-0.00292131
-0.00835344
0.00544086
0.00870291
-0.0126932
0.0229877
0.0203955
0.0182203
0.0124127
0.00653298
-0.0126878
-0.0265506
-0.0279324
-0.0272785
0.000761319
0.0084702
0.00964989
0.00301421
0.00200595
-0.00213637
0.000777429
0.0224852
0.0275322
0.0144313
0.0156321
0.00271946
-0.0148911
-0.0248913
-0.0231782
-0.0250576
-0.0162814
0.0113458
0.00164039
0.019742
0.00528064
-0.00528224
0.00544816
0.00861494
0.000898014
-0.0081834
0.00802874
-0.00986003
-0.0141659
-0.0073065
-0.0100471
-0.0100984
-0.0124163
0.0220924
0.00485699
0.00199682
0.00326509
-0.0027618
-0.00340994
-0.00251915
-0.0155551
-0.0263614
-0.0127914
-0.0109831
-0.011946
-0.00995829
-0.0141863
-0.0142858
-0.0240789
0.00921136
0.0215433
0.00666532
0.00907741
0.00292144
0.00226797
0.0134445
0.000693413
0.00216921
0.00433473
0.00610027
-0.00315169
-0.00755521
-0.00574823
-0.0059954
-0.0150895
-0.0244992
0.0126128
0.0152542
-0.00680753
-0.0133005
-0.00924925
0.0157746
0.0129666
0.0174987
0.0257543
0.0145974
-0.00210544
-0.0220083
-0.00336021
0.00558017
0.00633306
0.00514044
0.0146844
0.0270015
0.0051764
0.004665
0.00251067
-0.00173398
-0.00306017
0.0127107
0.0221183
0.0236759
0.00093014
-0.00640312
-0.0119928
0.0020175
0.00246517
-0.00368319
-0.00454545
0.00874596
0.0226954
0.0130848
-0.0026887
-0.00960438
-0.0127995
-0.0165095
-0.00211719
-0.00358178
0.000331897
-0.00626062
-0.00924069
-0.00241761
-0.00205653
-0.00923506
-0.0069864
0.0266002
0.0186187
0.00364381
0.00798314
-0.0149762
-0.0212907
-0.0171461
0.00395801
-0.000377742
0.0121141
0.0140303
0.0139047
-0.00393727
0.00487805
-0.00838966
-0.00132096
0.0181327
0.0257795
0.00728982
0.0245672
-0.00414067
-0.00804209
-0.0105271
0.00437294
0.00623454
0.0157499
0.0218084
0.0250743
-0.00188227
-0.00881144
0.00157437
0.000381991
-0.00960899
0.0157153
0.018927
0.00648551
0.00849929
0.00626983
-0.00452899
0.00343151
0.0162512
0.0109269
0.0262644
0.0187769
0.00476452
-0.0105632
-0.0041445
0.00280511
-0.00777694
-0.00985952
0.0102497
-0.0255266
-0.00764324
-0.00841253
-0.0209072
-0.00672729
0.0102736
0.0101299
-0.00235598
0.00389348
0.00449573
-0.0122758
0.00192086
0.00746053
0.0171443
-0.018155
-0.0203953
-0.0361612
-0.00391859
-0.0198249
-0.0221662
-0.0103074
-0.00247869
0.00787589
-0.00151265
-0.00117421
0.00444984
-0.00482286
-0.00337521
0.00187691
0.0237683
0.0034412
-0.0141695
-0.0268001
0.0077926
-0.00785068
-0.00505187
-0.00214276
-0.00758461
-0.00102038
-0.00753624
-0.0132054
0.0100219
0.00210081
-0.00132473
-0.00628781
-0.00361634
0.00977076
-0.00173199
-0.0200881
0.00228239
6.48847e-05
-0.0107816
0.000916324
-0.00273064
-0.000647979
-0.00536773
-0.0157423
-0.00845485
3.19544e-05
-0.0128856
-0.0316152
-0.0292723
-0.0310132
-0.0205172
-0.0181407
-0.0155041
0.00303917
-0.0123865
-0.0126612
-0.00785687
-0.023201
-0.0379036
-0.0222845
-0.0379305
-0.030907
-0.028771
-0.0380937
-0.0331426
-0.0460864
-0.0481288
-0.0517427
0.01413
0.00612391
-0.0128565
-0.0205075
0.00507848
-0.00617108
-0.0104442
-0.00733369
-0.0149351
-0.00774557
-0.0112148
-0.00635035
0.00288324
-0.0168316
-0.0271171
-0.0223477
0.0143213
-0.00148784
-0.015766
-0.0169023
0.00432902
0.0151004
0.000935208
-0.0048892
-0.00864901
0.00424365
-0.00353654
-0.00308384
0.00898392
-0.00656183
-0.0207035
-0.00816675
0.00270236
-0.00553443
-0.00142925
-0.000757958
0.0367489
0.0538546
0.0425454
0.0253224
0.0122576
0.0209345
0.0260969
0.0120613
0.00235496
0.00546227
-0.00490103
-0.00971285
-0.00500436
-0.00246822
-0.0108667
-0.00372169
0.0420677
0.0611336
0.0459243
0.0286026
0.0149702
0.0172714
0.022936
0.0131237
-0.000197111
-0.00104079
-0.0062525
-0.0140456
-0.0154466
-0.0267002
-0.0251607
-0.0147941
0.0234044
0.0459518
0.0136344
-0.0146646
0.00243457
0.0107096
0.0115035
-0.0018107
-0.00338341
0.00723565
-0.000300687
-0.00733295
-0.0326501
-0.0419535
-0.0483085
-0.0314761
-0.0145445
0.0131562
0.00642019
-0.0135579
-0.0068697
-0.00434683
0.00175368
-0.00663009
-0.00514738
0.0115051
0.00535957
-0.0142714
-0.0408148
-0.0514669
-0.0528734
-0.0555891
-0.0341477
-0.00959631
-0.00651075
-0.011368
-0.00971888
-0.0115144
0.012784
-0.000992807
-0.00173802
0.0127375
0.00474589
-0.013239
-0.0328097
-0.0307327
-0.0372934
-0.0458402
-0.0401253
-0.0118989
0.00294211
-0.0059944
-0.00491441
-0.00557228
-0.00556858
0.00466436
-0.00114685
0.00439328
0.00316479
0.00492269
-0.00921152
-0.00765961
0.00298054
-0.0123916
-0.0175007
-0.00375533
0.00214576
0.000489978
-0.0131599
-0.00612354
-0.0112774
0.00148301
-0.000950999
-0.00536594
0.00582991
0.00565671
0.00256953
-0.000825451
0.00436296
0.01127
-0.00714208
-0.00204524
-0.001976
0.00430089
-0.0147746
-0.00607852
-0.00968963
0.00652614
-0.000430652
-0.000497028
-0.000466787
-0.00735827
0.0167766
0.000145705
0.00669194
0.020706
0.00100017
-0.00902435
-0.0110135
0.0012235
-0.019455
-0.00940877
-0.00920198
0.0145834
0.00532597
0.00888651
0.0101983
-0.0124135
0.0144536
0.00998066
0.014318
0.022721
0.00547282
-0.0143807
-0.0175143
0.0125283
-0.0155543
-0.0233102
-0.00608357
0.0181694
0.00957296
0.00214907
0.00936031
-0.015608
0.00500597
0.00043727
0.00815989
0.0247747
0.00631843
-0.0174384
-0.01886
-0.00135846
-0.00673156
-0.02106
-0.0229028
-0.0069345
-0.0130584
-0.0167363
0.000661829
-0.016615
0.00382147
0.00606535
0.00363817
0.0121553
0.00544548
-0.0135568
-0.0255424
0.000785233
0.00615712
-0.00230105
-0.019601
-0.0157285
-0.00528938
-0.0148504
-0.00508953
-0.0149138
0.0112131
0.0128031
0.0095659
0.00183482
0.000971808
-0.00971311
-0.0263698
-0.0115432
-0.000144856
0.00398342
-0.0037722
-0.00904009
-0.00776831
-0.00691032
0.00673712
-0.0324998
0.0119771
0.0142638
0.0126596
0.0133084
0.00206745
-0.0236919
-0.0389881
-0.0163421
-0.0112881
-0.0102859
-0.0027283
0.000664233
-0.000462355
0.0061973
-0.000642379
-0.0139389
0.00851543
0.0201422
0.033801
0.0226098
0.00128809
-0.0222462
-0.0307225
-0.0329129
-0.0304708
-0.0167212
-0.00202783
0.000125464
-0.00107658
0.00348859
-0.000771096
-0.00522345
0.0118708
0.0261347
0.0291702
0.01183
-0.00568858
-0.0254407
-0.0159874
-0.0234316
-0.0362978
-0.0188957
0.0100364
-0.00773734
0.00898978
0.0035044
0.00272786
-0.0009613
-0.00907792
0.0044775
0.0140163
0.0210768
-0.0019494
-0.0241214
-0.0107774
-0.0028719
-0.00759219
-0.00769169
0.0217494
0.0079671
0.00664033
0.00151984
0.0040072
-0.0234638
-0.011963
-0.0113009
0.00784865
0.0247483
0.00042692
-0.0123766
-0.00418725
0.0031732
-0.00176635
-0.00872055
0.00628668
0.0202536
0.0156093
-0.00136211
-0.00265831
-0.0242831
0.0117984
0.00543224
0.0127991
0.0184343
0.0121711
0.00869024
0.0066282
0.00269198
0.000698
-0.00775047
-0.0170795
0.0177906
0.00566019
-0.016743
-0.016062
-0.0283625
0.00926513
0.0118962
0.0278477
0.0294821
0.0127334
0.0114771
0.0050638
0.0121317
0.0171978
0.00663341
0.00650014
-0.00162275
-0.0166759
-0.0274872
-0.00683314
-0.0248828
-0.0167975
-0.00165848
0.0179454
0.0236475
0.0157016
0.00529923
0.00622345
0.00262524
0.0158915
0.0166329
0.0240159
0.00993705
-0.00418313
-0.00811556
0.00516272
-0.0213185
-0.014539
-0.00847795
-0.00716244
0.00358592
-0.00244288
0.0091136
0.019091
-0.00295617
0.00716362
0.0145787
0.0148213
0.00230391
-0.00172637
-0.00882708
0.0142178
-0.0206193
-0.00744817
0.00405944
-0.00133926
0.00657762
-0.00133764
0.00809739
0.0236762
0.014598
0.000300368
0.0159934
0.00693416
-0.00199591
-0.00292839
-0.000506653
0.00326367
-0.0206175
0.00478758
0.00752489
-0.00524666
0.00446242
0.0108353
0.012512
0.0293709
0.0183489
0.0103106
-0.00135143
0.00264485
-0.00537973
-0.0153998
0.0147034
0.00946536
-0.0170747
0.00435486
0.00160995
-0.00250827
0.0115278
0.0321473
0.00824259
0.0206536
0.0161594
0.0187119
0.0093203
0.0169226
0.014758
-0.00472471
-0.0123543
0.0051409
-0.0350383
0.00654289
-0.00418622
-0.00634337
0.00372999
0.0207142
-0.000493235
0.00215142
0.00367191
0.0221569
0.0103894
0.00916067
0.0156849
0.0182694
-0.0249748
-0.0187972
-0.0473195
0.000780675
-0.0113555
0.000544349
0.00747109
0.00806507
0.000226245
0.00976947
0.00968525
0.0155808
0.00503655
-0.000587208
-0.00190997
0.0195679
-0.017322
-0.0245963
-0.0345036
0.00242016
-0.00516897
-6.08651e-05
0.00693276
0.00812804
0.0106957
0.0181339
-0.00235581
0.00777213
0.00436858
-0.0040317
-0.0109059
-0.00960388
-0.0332996
-0.0276178
-0.0371428
-0.000793449
0.00088166
-0.0114303
-0.000614374
0.00705623
0.00645325
0.00537762
-0.00966094
-0.00162489
-0.00878669
-0.0206317
-0.0387573
-0.0368189
-0.0452895
-0.0355809
-0.0430383
0.00804071
-0.00417896
-0.0209084
-0.0167757
0.00497626
-0.0215113
-0.028169
-0.0213
-0.0213741
-0.0228953
-0.0313387
-0.0375196
-0.0357317
-0.040703
-0.0426486
-0.0575108
-0.00301941
-0.0189423
-0.0167281
-0.00587353
0.000262695
-0.00616378
-0.0148162
-0.00940737
-0.0191569
-0.015499
-0.0191575
-0.0139951
-0.000560021
-0.00473851
0.00115534
-0.0174663
-0.0032322
-0.0203784
-0.0208973
0.0045639
0.00829367
0.0120982
-0.000502874
-0.00882672
-0.0127469
-0.0109278
-0.0172812
-0.0157903
-0.00289725
-0.0131486
-0.0116418
-0.0240598
-0.00355789
-0.0279728
-0.0320407
-0.00884045
0.00592958
0.0178069
0.0203729
0.00651413
-0.0084916
-0.00449432
-0.00520967
-0.0092659
-0.00925804
-0.0149313
-0.0179435
-0.0360353
-0.00113534
-0.0176706
-0.0342169
-0.0320805
-0.0093967
0.00881872
0.00962137
-0.000635275
-0.0132266
-0.0120996
-0.00806293
0.00160135
-0.00170612
-0.0114144
-0.00559651
-0.0210705
-0.0138623
-0.0269413
-0.0375862
-0.0340397
-0.018159
-0.00872965
-0.0168982
-0.0235463
-0.0202788
-0.0187776
-0.0060106
-0.004038
-0.00692547
0.00534252
0.010078
-0.0193111
-0.0216264
-0.02927
-0.0396137
-0.0383218
-0.0196479
-0.0141053
-0.0230174
-0.026313
-0.0267077
-0.0285245
-0.0163201
-0.0101886
-0.017794
-0.00523827
-0.0025797
-0.0337155
-0.0257501
-0.0314134
-0.0453948
-0.0461383
-0.0344042
-0.0229676
-0.0207254
-0.0256322
-0.0205737
-0.0304788
-0.0107815
-0.00753508
-0.0127353
-0.00398496
0.00105364
-0.0341634
-0.00682076
-0.00291116
-0.00473509
-0.0185842
-0.0265981
-0.0155443
-0.0103549
-0.0222382
-0.0229382
-0.0293406
-0.0101287
-0.00267999
-0.00752979
-0.00595926
-0.00613668
-0.0254312
0.00602166
0.0191943
0.0159388
0.00632235
-0.00838728
-0.0079256
0.000917041
0.00146598
-0.014812
-0.0184577
-0.00944335
0.00375807
0.00358043
-0.00532832
-0.00528644
-0.0255157
0.0120784
0.0164119
0.00227615
0.0103689
0.000536867
-0.00402808
0.00204299
0.00437175
-0.0155618
-0.0222405
-0.016663
-0.00390975
-0.00613483
-0.00983843
-0.00827099
-0.0335407
0.00453111
-0.00442532
-0.0117769
0.0073958
0.00163999
-0.0107288
-0.00879611
0.00280843
-0.0232264
-0.0273752
-0.0151539
-0.00266631
-0.00957691
-0.0115644
-0.00674004
-0.0225302
-0.0038548
-0.00296365
-0.000736124
0.0254733
0.0115503
-0.00913155
-0.0145004
0.00137652
-0.0223349
-0.0331095
-0.0159441
-0.0079866
-0.0138198
-0.0113194
0.00230599
-0.0228995
-0.00748613
0.00241049
0.0141418
0.0287762
0.0190597
-0.00645775
-0.0145924
-0.00375019
-0.0110084
-0.0279314
-0.0206608
-0.0208902
-0.0215213
-0.0204592
-0.00268082
-0.029569
-0.00567661
0.0050295
0.023729
0.0318941
0.0185963
-0.0102302
-0.02401
-0.0100837
-0.018308
-0.0277849
-0.0254361
-0.0211619
-0.0135612
-0.0211056
-0.00998052
-0.035296
0.00608035
0.0148518
0.0197556
0.0242197
0.00763974
-0.0103064
-0.0243318
-0.0194773
-0.0231842
-0.0239413
-0.0195722
-0.0188912
-0.0142657
-0.0135616
-0.00172708
-0.0435172
0.00828507
0.0145044
0.018724
0.0263985
0.0100005
-0.0255232
-0.0265529
-0.0189949
-0.0237461
-0.024791
-0.0190498
-0.0180223
-0.0197039
-0.00773605
-0.00435347
-0.0366942
0.00560714
0.0207892
0.0245848
0.0171462
0.00121973
-0.0256365
-0.0308708
-0.0339564
-0.0323981
-0.0260477
-0.0223982
-0.0276136
-0.0222532
-0.0104754
-0.00153518
-0.0338384
-0.00285367
0.0159956
0.0254334
0.015085
-0.00316552
-0.0285389
-0.0228917
-0.0234403
-0.0391305
-0.0353861
-0.012517
-0.032314
-0.0216229
-0.0154982
-0.00745452
-0.0346236
-0.0144304
-0.00232853
0.0256451
0.0263998
-0.00312632
-0.031997
-0.0223857
-0.0209551
-0.0305301
-0.0356189
-0.00611361
-0.0158288
-0.0211897
-0.0271493
-0.0161931
-0.0433904
-0.0157824
-0.00946956
0.0203789
0.0284244
-0.0114957
-0.0235071
-0.0130918
-0.0163764
-0.015252
-0.0230916
-0.0116
-0.011346
-0.0165381
-0.0260208
-0.0105086
-0.0502288
0.000436599
0.00195729
0.0197025
0.0230141
-0.00478289
-0.00921932
-0.00877398
-0.00955499
-0.0164134
-0.0246072
-0.0216792
-0.00246481
-0.0136329
-0.0290794
-0.0117599
-0.0389078
-0.000197594
0.00281714
0.0203714
0.0202097
-0.0115922
-0.0154994
-0.00985142
-0.00770322
-0.0200354
-0.025306
-0.0245368
-0.0190294
-0.0283151
-0.0293105
-0.0171358
-0.048765
-0.0116046
-0.00504447
0.0114862
0.0086818
-0.00932603
-0.0157074
-0.0104818
-0.0125335
-0.0133037
-0.020266
-0.00717129
-0.0148476
-0.0153024
-0.0257396
-0.00799047
-0.0447989
-0.0115674
-0.00558214
-0.00229555
0.00359285
-0.00605826
-0.0120412
-0.0137942
-0.0104915
-0.00799439
-0.00759069
-0.00410659
-0.0115912
-0.0255497
-0.0282666
-0.00418846
-0.0429181
-0.0171162
0.00294742
0.0063412
0.00183639
-0.00757653
-0.00924882
-0.00508914
-0.0130748
-0.0103059
-0.00687339
-0.00760143
-0.0130491
-0.0332084
-0.0312516
-0.0121419
-0.0442915
-0.012366
-0.00364842
-0.00574667
-0.00874607
-0.00994196
-0.0160923
-0.00360347
-0.0148165
-0.00708295
-0.0143989
-0.0174835
-0.0271184
-0.0297328
-0.0295242
-0.0191198
-0.0461822
-0.0133704
-0.018292
-0.0197598
-0.0153731
-0.00768859
-0.0217678
-0.0139386
-0.011956
-0.0101469
-0.0114496
-0.000654033
-0.00612199
-0.0151117
-0.0330598
-0.0157735
-0.0457299
-0.00640714
-0.0158008
-0.014899
-0.0135442
-0.00774489
-0.0172651
-0.0144027
-0.00530363
0.00283957
-0.00258482
-0.00295777
0.00302476
-0.00103763
-0.0269699
-0.0348327
-0.0575456
-0.0100006
-0.0154706
-0.0112494
-0.00916238
-0.00593245
-0.0216505
-0.015455
-8.72118e-05
-0.000586914
-0.0138635
-0.0147887
-0.0167329
-0.0013456
-0.0265641
-0.0345232
-0.0531215
-0.00961587
-0.0180539
-0.0190239
-0.014864
-0.0059158
-0.0182043
-0.0168043
-0.0180797
-0.0177116
-0.0153975
-0.0201559
-0.0152227
-0.0156035
-0.0396594
-0.0266462
-0.0476889
-0.0103118
-0.014608
-0.0167515
-0.0144635
-0.00543959
-0.0162877
-0.0193588
-0.0239813
-0.0252976
-0.0181469
-0.0317026
-0.0315292
-0.0199911
-0.0252961
-0.0191211
-0.0442314
-0.00358191
-0.0109069
-0.0133866
-0.00908314
0.00121449
-0.0105721
-0.0151266
-0.0171804
-0.0170787
-0.0129658
-0.021623
-0.0241544
-0.016079
-0.0166082
-0.0109899
-0.0412631
0.00528824
-0.00385677
-0.00221899
0.0273343
0.0283246
0.0312114
0.0203416
0.01949
-0.00446485
-0.00157015
-0.00871204
-0.00903875
-0.00285582
0.00774145
-0.000857946
-0.0220125
-0.00728177
-0.00781896
-0.00791192
0.0226938
0.0380156
0.0513233
0.0323352
0.0252638
-0.00237739
-0.00268801
-0.0171626
-0.01631
0.000256049
0.000629529
-0.0150842
-0.0255914
0.00434508
-0.0105671
-0.00819181
0.00288725
0.0207269
0.0291984
0.0340324
0.0287975
0.00397388
0.00946794
-0.00668991
-0.00713489
0.00232142
-0.00675041
-0.0146834
-0.0240042
0.00674634
-0.0103495
-0.0138929
-0.0160638
0.00107671
0.0199368
0.0202286
0.00981078
-0.00220708
0.00389466
0.00610858
0.0169047
0.0129627
-0.0043076
9.96538e-05
0.00141285
-0.00989844
-0.0262171
-0.0224382
-0.0224328
0.00826131
0.00737341
-0.00367746
-0.0157708
-0.0231488
-0.00282312
0.00954759
0.0177578
-0.0050136
0.000207674
0.00601452
-0.0107836
-0.0231504
-0.0269349
-0.0268965
-0.00298322
0.0188898
0.0168763
-0.0100943
-0.0183236
-0.0135096
-0.00451373
0.00144663
-0.000708144
-0.00810065
-0.00945168
-0.0109528
-0.0282797
0.000273533
0.0131915
0.0170271
0.00956318
-0.0049214
0.00399458
-0.00221408
-0.0112456
-0.0083571
-0.00708814
-0.00474454
-0.00362803
-0.0111723
-0.0121152
-0.0193671
-0.028931
0.0307415
0.0417659
0.0384946
0.018346
-0.000696972
0.00822871
0.015156
-0.00393987
-0.00867571
-0.0120824
-0.012741
0.00750846
0.00276448
-0.00284061
-0.0105679
-0.0114418
0.0240215
0.0320833
0.0202203
0.00215567
0.00265902
0.00773561
0.0225956
0.0131344
-0.00640901
-0.00777904
-0.0168426
0.00790546
0.00913971
-0.00571281
-0.0105496
-0.0141501
0.0308756
0.0317688
0.0030129
0.00202337
0.000534288
0.00464478
0.00808161
0.0092263
-0.0184237
-0.0188941
-0.0161185
0.00885049
0.0084096
-0.00784582
-0.00140143
-0.0129771
0.029923
0.0159018
0.00611955
0.0212357
0.00938026
-0.00347312
-0.00086633
0.00585353
-0.0196193
-0.023603
-0.0173984
-0.0035356
-0.00697302
-0.0145329
-0.00519313
-0.0097784
0.0251679
0.0177406
0.0238238
0.0441861
0.0241475
-0.00247108
-0.0111809
0.00245069
-0.0110922
-0.0261109
-0.00902239
-0.00147553
-0.0164745
-0.013037
-0.00706463
-0.0187303
0.0238833
0.0232378
0.0268062
0.0374718
0.0212804
-0.00299604
-0.0128142
0.00107896
-0.00618151
-0.0185427
-0.00488631
-0.00349734
-0.0141056
-0.0115102
-0.00130027
-0.0104023
0.025619
0.0201063
0.028379
0.0407875
0.0200936
-0.0146256
-0.0304682
-0.0208752
-0.0287669
-0.025418
-0.0160344
-0.011242
-0.0142175
-0.0135923
0.00206274
-0.0155462
0.0293818
0.0320956
0.0347851
0.0369078
0.0188838
-0.022078
-0.0323018
-0.018815
-0.0251229
-0.020871
-0.0144744
-0.00630467
-0.00291411
-0.00438864
0.0208361
-0.0202688
0.024289
0.0276158
0.0300937
0.0440994
0.0193073
-0.0142006
-0.0185794
-0.0130217
-0.0188706
-0.0131129
-0.0120762
-0.0148424
-0.0147823
0.00302854
0.00535812
-0.013616
0.0309783
0.0367787
0.0419304
0.0417823
0.0146771
-0.0139291
-0.0141569
-0.0205768
-0.0127499
-0.00770841
-0.0119155
-0.0182214
-0.00359369
-0.00302038
-0.00237238
-0.0167687
0.0276524
0.0433871
0.0418786
0.0285518
0.0178801
-0.000845982
-0.00581104
-0.00702579
-0.013845
-0.0181644
-0.0146386
-0.016866
0.00172157
-0.0038594
-0.00942453
-0.0186003
0.0187105
0.0328718
0.0341299
0.033184
0.00748137
-0.0159148
-0.00632715
-0.00823715
-0.0075634
-0.0199549
-0.00455881
-0.00275298
-0.00264476
-0.0214899
-0.00994264
-0.0265506
0.00956639
0.0186286
0.0321108
0.0361731
-0.002844
-0.0134607
-0.00298509
0.00226146
-0.0011594
-0.00803019
0.00784382
-0.00258417
-0.0120276
-0.0160082
-0.00799132
-0.0301678
0.0124716
0.0176363
0.0335973
0.0366505
0.00839113
0.00987739
0.0125547
0.0130452
0.00317976
0.00676736
0.00516667
0.010091
-0.00398469
-0.00368352
-0.00593207
-0.0114035
0.00578836
0.0185304
0.0401499
0.0470925
0.00380118
0.000486686
0.0195427
0.0128597
-0.00635464
0.0010452
-0.00206978
-0.00650429
-0.0110959
-0.0177828
-0.00127857
-0.00900236
-0.00515281
0.0237021
0.0463765
0.0340297
0.00535178
0.00270311
0.0118475
0.00946727
-0.000289174
0.00191165
0.000817269
-0.00959977
-0.00452639
-0.0157518
0.016046
-0.00145491
0.00214742
0.0253535
0.0293705
0.0208741
0.0221226
0.0185388
0.00620134
-0.000324171
-0.00536353
-0.00473605
0.000409636
-0.0145148
-0.0132646
-0.0182944
0.00751399
-0.014507
0.00700041
0.0293072
0.0265177
0.0201216
0.031776
0.0202483
0.00108599
-0.0142459
-0.00640508
-0.000226131
0.00746604
-0.00110511
-0.010313
-0.0135611
-0.00249144
-0.0155631
0.0200444
0.0277251
0.018157
0.0167944
0.017845
0.00938225
-0.0072974
-0.0175678
-0.000865227
-0.00143638
0.00600273
0.00221286
-0.00676939
-0.0162014
-0.0129476
-0.0250596
0.0202113
0.0122219
-0.00174868
0.00277983
0.0126085
-0.00460332
-0.00808173
-0.00877349
-0.000500331
-0.000187598
0.0133725
0.0069651
0.00112208
-0.0132937
-0.0112396
-0.025444
0.0150459
0.00553487
-0.00680851
0.00237268
0.0116903
-0.00317091
-0.00345734
0.0107488
0.0221502
0.011721
0.00799302
0.00101151
-0.00302752
-0.0200136
-0.0304929
-0.0243027
0.0146891
0.000549966
0.0031748
0.00683856
0.0115498
-0.00735854
-0.00317662
0.0261202
0.0149041
0.000317327
-0.00187311
-0.00243641
-0.0104364
-0.0307613
-0.0350835
-0.0330242
0.0076039
-0.00188999
-0.000105535
0.00138659
0.00411494
-0.00834023
0.0048005
0.0123745
-0.00762332
0.00126473
0.00363948
0.00612322
-0.0225922
-0.0365358
-0.00374945
-0.00941537
0.00470374
-0.00171589
-0.00119195
0.00646799
0.00999565
-0.00651073
2.32915e-05
-0.00815566
-0.0202858
-0.0125347
-0.0184332
-0.0227279
-0.0214729
-0.0314678
-0.0122508
-0.0205974
-0.00740785
-0.00410916
-0.00319853
-0.00177051
-0.0023524
-0.0144549
-0.012143
-0.0117614
-0.0198247
-0.0229224
-0.0264439
-0.0427807
-0.0314318
-0.0389893
-0.01295
-0.0375702
0.00879339
-0.00820728
-0.00232803
0.0266684
0.0437345
0.0491066
0.0503451
0.0317278
0.0168489
-0.000768583
-0.0104137
-0.00134077
-0.00276853
0.00769775
-0.00145952
-0.00695096
0.0031716
-0.0200335
-0.0128163
0.0175642
0.0306294
0.0410676
0.0313302
0.0187791
-0.00358347
-0.019367
-0.0266508
-0.0274456
-0.0137585
-0.0153728
-0.0198665
-0.0253751
0.00546875
-0.0257067
-0.0209597
-0.0104167
-0.00263818
-0.00562697
0.00581757
1.28753e-05
-0.0263797
-0.0247741
-0.0238175
-0.0159077
-0.0205075
-0.0242107
-0.0209939
-0.0192059
2.40773e-05
-0.0282742
-0.0230928
-0.0284372
-0.0134035
0.00553952
0.0106574
-0.0183751
-0.0413008
-0.0157018
-0.00595693
0.00564925
-0.0104609
-0.0192138
-0.0133378
-0.013578
-0.013826
-0.0356401
-0.0307512
-0.0271474
0.0152949
0.0305806
0.0120919
-0.0311647
-0.0376619
-0.0037024
-0.00451917
-0.00542112
-0.0243373
-0.027428
-0.0258972
-0.0313383
-0.010414
-0.008152
0.00824009
0.0378144
0.0512079
0.0324106
-0.00887934
-0.0157993
-0.00786258
0.00251126
-0.0149472
-0.0187276
-0.0243966
-0.0301003
-0.0255042
-0.0145839
0.0147451
0.0360269
0.0540086
0.0516518
0.0412092
0.0147778
-0.00169071
-0.00240448
0.00621089
-0.00108
-0.0146161
-0.0219878
-0.0193174
-0.0231468
-0.0277715
-0.00921118
0.0344501
0.0410275
0.0415883
0.0297745
0.0247505
0.0220982
0.010795
0.00667401
0.000857555
-0.00989608
-0.0147159
-0.00183676
-0.00326618
-0.0150103
-0.0189205
-0.00433328
0.0097103
0.0111735
0.00340445
-0.00281957
0.00257124
0.00662797
0.0152462
0.00671973
-0.00939316
-0.0165406
-0.0273621
-0.0116871
-0.00956462
-0.00994273
-0.00902331
-0.00673069
0.0141533
0.00505968
-0.00484829
-0.00718467
-0.0166626
-8.82426e-05
-0.00164642
-0.0129544
-0.0201731
-0.0284967
-0.0386677
-0.0155469
-0.0253414
-0.0282383
-0.0093798
-0.00448187
0.0205611
0.00462649
-0.000811905
0.0110654
-0.00304342
-0.00966743
-0.0185115
-0.0189326
-0.0268027
-0.0335054
-0.030629
-0.0136483
-0.0269582
-0.0279566
-0.018392
-0.0217367
0.0234417
-0.000710787
0.000998932
0.0169282
-0.000284275
-0.0196467
-0.0205593
-0.00672967
-0.0164077
-0.0300109
-0.0145059
-0.0122292
-0.0410708
-0.0218695
-0.0237162
-0.0262052
0.0371786
0.00687219
0.000993486
0.012364
0.000111334
-0.0161916
-0.0171758
0.008153
-0.00523829
-0.0252014
-0.0112665
-0.0143009
-0.0350751
-0.0238603
-0.0140471
-0.000882625
0.0205547
0.0101519
0.00947442
0.0141824
0.00296778
-0.0242685
-0.0340548
-0.0235587
-0.0247446
-0.0350842
-0.0213401
-0.0123609
-0.0237944
-0.0229805
-0.0205984
-0.0104242
0.0115481
0.015137
0.0189727
0.0109142
-0.00170679
-0.0300699
-0.04135
-0.0293666
-0.0214022
-0.032916
-0.0270779
-0.00906233
-0.0201421
-0.0130027
0.00166813
-0.0197627
0.0130341
0.00281596
0.0106555
0.0155344
-0.00304944
-0.0184901
-0.0219133
-0.0181472
-0.0185787
-0.0178022
-0.0242262
-0.0228296
-0.0235077
-0.0171507
-0.0117554
-0.0128686
0.0257121
0.0129218
0.0117181
0.0205102
0.00175676
-0.0238491
-0.0199422
-0.0209331
-0.0124993
-0.00767707
-0.0206554
-0.0325343
-0.0185422
-0.0143197
-0.0148624
-0.0154864
0.0279402
0.0297953
0.0130602
0.00873813
0.0138679
-0.00978629
-0.0204695
-0.0123931
-0.022002
-0.033806
-0.0228778
-0.0223044
0.00129816
-0.0107178
-0.0261282
-0.0105049
0.0220572
0.0246849
0.0134645
0.0160648
0.0118325
-0.0141177
-0.0197945
-0.0269207
-0.0286969
-0.051855
-0.0251869
-0.0153098
-0.00290355
-0.0227538
-0.0155812
-0.0075627
0.0164588
0.00820786
0.0163255
0.0152552
-0.00751936
-0.0202741
-0.0200177
-0.0155297
-0.0146237
-0.0266675
-0.00922758
-0.028587
-0.0251025
-0.0283585
-0.022666
-0.0149604
0.0259548
0.00271214
-0.00157198
-0.000749888
-0.00763862
-0.0189436
-0.0201197
-0.00217457
0.00489639
-0.0059046
-0.000240787
-0.0108826
-0.00938451
-0.00616085
-0.0118727
-0.00923968
0.011839
0.00319803
0.00665713
0.0154631
-0.0142507
-0.0248544
-0.00429403
0.00258704
-0.0090219
-0.0103621
-0.0241851
-0.0245927
-0.0101111
-0.0123351
-0.00383672
0.0147552
-0.000741321
0.0113901
0.0243227
0.0172942
-0.00227357
-0.00596524
-0.00712664
-0.0101986
-0.014442
-0.0102163
-0.0233616
-0.0237728
-0.0102222
-0.0117795
0.0164996
0.0224047
0.00379897
0.0209358
0.0259237
0.00926124
0.0114919
0.0123042
-0.00527516
-0.00592269
-0.0238185
-0.0204265
-0.0245957
-0.0190687
-0.0131798
-0.0136212
0.00843774
0.00128942
0.0199674
0.0242425
-0.000117314
0.00221302
0.0158964
-0.00197218
-0.0172748
-0.0237133
-0.023695
-0.016562
-0.0202753
-0.0151154
-0.00937532
-0.00809946
0.0106753
0.00752371
0.0339349
0.023234
-0.00636198
0.0121795
0.00387144
-0.0159585
-0.0249259
-0.0192092
-0.00607902
-0.0080003
-0.00157974
-0.0113068
-0.0160013
-0.0177811
-0.0042152
-0.0129051
0.00952957
-0.00545332
-0.0116527
-0.00677183
-0.00508933
-0.0228226
-0.0243461
-0.0227065
-0.00953818
-0.0103853
0.00382126
-0.00902175
-0.00948778
-0.0120199
-0.015138
-0.0342948
-0.006476
-0.0133775
-0.0282393
-0.017245
-0.00609844
-0.0206406
-0.0186691
0.00136727
0.0067972
0.00283155
-0.00488863
-0.0199201
-0.0171567
-0.0189444
-0.0319293
-0.0240597
0.0086136
-0.0143427
-0.0263355
-0.0122095
-0.00230255
-0.0151429
-0.0230521
0.00624143
0.00613912
-0.00221314
-0.00459013
-0.0111776
-0.0118735
-0.0250587
-0.033444
-0.010668
-0.0119047
-0.021026
-0.0214835
-0.0138215
-0.00600278
-0.0106847
-0.00344301
0.00327145
-0.00973268
-0.00148765
0.00312366
0.00210651
-0.0218709
-0.0250068
-0.00272973
-0.00256715
-0.00304233
-0.0141555
-0.0209809
-0.0170628
-0.0151978
-0.0205322
-0.00246556
-0.00362949
-0.0150339
-0.00547972
-0.00220796
-0.00346482
-0.0265368
-0.0236045
-0.000919624
-0.00763561
-0.00385008
-0.0106878
-0.0204203
-0.0187462
-0.0277777
-0.0279559
-0.0208055
-0.0311389
-0.0387691
-0.029893
-0.0425996
-0.0360102
-0.0429857
-0.0494015
-0.015495
-0.0246257
0.0250553
0.00745117
0.0133662
0.0362993
0.0556165
0.0790419
0.0822548
0.0636593
0.0476244
0.0198584
0.00142165
-0.00754612
-0.0110618
0.00899945
0.0144793
0.00494684
0.00944724
0.00111832
-0.000853673
0.00833746
0.0147168
0.0401853
0.0397864
0.0244814
0.0105203
-0.0267386
-0.0447832
-0.0245635
-0.0234728
-0.0185776
-0.0201004
-0.00887211
0.00406525
-0.0141518
-0.0116637
-0.00400562
-0.0224702
-0.027118
-0.0118133
-0.0436654
-0.0594608
-0.0496824
-0.0354164
-0.0128735
-0.0157768
-0.0221039
-0.0247122
-0.0131997
-0.00281525
-0.023706
-0.0194473
-0.0278185
-0.0214185
-0.00576505
-0.00472829
-0.0430834
-0.0637019
-0.0345603
-0.0175854
-0.000752532
-0.0019909
-0.0174483
-0.0118405
-0.00573269
-0.0106198
-0.0289532
-0.0319879
-0.0112874
0.0345266
0.0406059
0.0261801
-0.0380331
-0.0234682
0.0194749
0.0189458
0.00708293
-0.0156752
-0.0333556
-0.0410187
-0.0374215
-0.00578431
0.00821568
0.0444865
0.0655691
0.081585
0.0652314
0.0301047
0.00889762
0.0239513
0.0298411
0.0104711
-0.0179548
-0.0169174
-0.0252041
-0.0134281
-0.00122373
0.01519
0.0490657
0.0709947
0.0806195
0.0673451
0.0468239
0.0299349
0.0251992
0.0324365
0.0182264
-0.00440162
-0.016623
-0.0257273
-0.027415
-0.00503663
0.0187751
0.0220617
0.0357334
0.0478243
0.0474401
0.0424289
0.0488452
0.0309664
0.037169
0.0299592
0.00516417
-0.00549223
0.00353391
0.000270842
-0.00775674
0.00876881
0.0191331
0.0217397
0.00021078
0.00985467
0.0236351
0.0140141
0.0211418
0.0270828
0.0232214
0.0104526
0.00592787
-0.0198996
-0.00375515
0.00303348
0.00221489
0.00381974
0.0098857
0.00749818
-0.00731823
-0.00322734
-0.00698404
-0.0155057
0.0102009
0.0114518
-0.00295321
-0.00204241
0.00405973
-0.0264133
-0.00538717
-0.00496271
-0.0144966
0.00413374
0.0138304
0.0127562
-0.00617332
-0.00484319
0.00715986
-0.0172594
-0.0109006
-0.0177261
-0.0122081
-5.78303e-05
-0.0049621
-0.0136324
-0.0215134
-0.0189125
-0.031037
-0.0187157
-0.00951749
0.0146907
-0.0135984
-0.00790675
-0.00302838
-0.0343809
-0.0197096
-0.00954465
-0.0104569
0.00379527
0.0032285
0.00179759
-0.0237592
-0.0372562
-0.0207185
-0.0056165
-0.00993209
0.0367589
0.00295257
0.00203032
0.00527253
-0.0183903
-0.0171071
-0.00187702
0.0142335
-0.00752628
-0.00548089
9.82346e-05
-0.0128365
-0.041544
-0.0191476
-0.00540743
0.00553197
0.0292258
-0.00602937
-0.0200805
-0.00118011
-0.0164249
-0.0379642
-0.0181953
0.00163998
-0.033748
-0.0293089
-0.0167151
-0.0095667
-0.0303852
-0.0237263
0.00162373
0.0100403
0.0138365
-0.011116
-0.0012651
0.0107426
-0.0143573
-0.0475028
-0.0450044
-0.0301921
-0.0260436
-0.024851
-0.0224428
-0.00716063
-0.0250742
-0.0189184
0.0121448
-0.0163149
0.01099
-0.0207034
-0.0113045
0.00663178
-0.012763
-0.0236802
-0.0142154
-0.00738378
-0.0148932
-0.0192459
-0.0185085
-0.0257963
-0.0258272
-0.0180768
-0.0116204
-0.00593913
-0.00413521
-0.0171173
-0.00772583
0.00374774
-0.0136775
-0.0309165
-0.0104872
-0.0049704
-0.00612241
-0.0157439
-0.00784004
-0.0195426
-0.00993963
-0.00414859
-0.00137753
-0.00382878
0.0210797
0.0189144
0.000377733
-0.00480204
0.00462076
-0.0146356
-0.0152226
-0.00231759
-0.00645584
-0.033432
-0.00666537
0.00524518
0.016147
-0.00780653
-0.021843
-0.00562486
0.0105147
-0.000567135
0.0209782
0.0263524
0.00584443
-0.0158897
-0.0294673
-0.0286935
-0.0225787
-0.0456552
-0.0157901
-0.0029365
0.00711433
-0.0123214
-0.00284413
0.0142468
0.0210093
0.0233122
0.0224849
-0.000628343
-0.0129565
-0.0270881
-0.0399452
-0.0309768
-0.0166175
-0.023032
-0.00424799
-0.0159383
-0.0112117
-0.0146808
-0.0218265
0.00488884
0.0277518
0.00528975
-0.0233485
-0.0281578
-0.00854689
-0.0241396
-0.0411428
-0.0146066
0.00240123
-0.00738535
0.0016478
0.00349356
-0.00839447
-0.0124029
-0.0245559
0.00617421
0.0250952
-0.00254895
-0.0229632
-0.0148127
-0.0145811
-0.013275
-0.0163148
-0.00878256
-0.00276164
-0.0160268
-0.0189289
-0.0115856
-0.0135758
-0.0109525
-0.00421687
0.00752181
0.0114965
0.0109477
0.0141952
0.0156283
0.0115918
0.00260565
-0.0217938
-0.0224597
-0.0212455
-0.0333795
-0.0295547
-0.0188554
-0.00175601
-0.00267144
0.0174901
0.0236891
0.00658428
0.0160095
0.0259742
0.0134834
0.0110182
-0.0022958
-0.0162433
-0.0191497
-0.0315942
-0.0375948
-0.0191455
-0.00518632
-0.000337156
-0.00143025
-0.00105393
-0.00167128
0.0237422
0.0181519
-0.0217683
-0.0298644
-0.0171267
-0.0394834
-0.0369456
-0.0322552
-0.0205751
-0.0146839
-0.0081603
-0.00217782
-0.0134985
-0.0121498
0.00339468
0.019241
0.0266257
0.00286737
-0.0235453
-0.00860456
-0.0233352
-0.0443284
-0.045638
-0.0314149
-0.000532827
-0.00511863
-0.00179633
-0.0147412
-0.022521
-0.0211841
-0.00454225
0.00506371
0.00604449
-0.00718708
-0.0249939
-0.0266752
-0.0345292
-0.037887
-0.0400041
-0.0352088
-0.0239859
-0.0123946
-0.0103737
-0.024083
-0.0237442
-0.0233295
-0.0203265
-0.0271671
-0.00828548
-0.0280753
-0.0345245
-0.0283129
-0.0291343
-0.0261223
0.00138403
-0.0101847
-0.0148696
-0.0107134
-0.0165053
-0.0230522
-0.0253072
-0.0280495
-0.00992057
-0.00934382
-0.00276908
-0.0223661
-0.0253392
-0.00742724
0.000988779
-0.0099742
-0.00545402
-0.00827518
-0.00988838
-0.015636
-0.00762735
-0.00645666
-0.0232354
-0.0324069
-0.00953581
0.0035714
-0.0215199
-0.0299383
-0.022375
-0.0154379
-0.00477208
0.00786372
0.00188934
-0.0102428
-0.0227874
0.00403965
0.022245
0.019567
-0.0185917
-0.0153629
0.00126443
0.00251432
-0.00504675
-0.035394
-0.0329259
-0.0143514
-0.0191776
-0.0237318
-0.0103779
-0.0190069
-0.01151
0.0110852
0.0206377
0.0188116
0.0080393
0.0210005
0.0234779
0.0105248
-0.015244
-0.0332411
-0.0362916
-0.0133596
-0.0363522
-0.0443728
-0.0398552
-0.0451229
-0.0391197
-0.0202033
-0.0342293
-0.00788962
0.00583256
-0.00247372
-0.00756575
-0.01417
0.0670838
0.0459719
0.0196662
0.0287504
0.051402
0.0751326
0.0821878
0.0842717
0.0795436
0.056358
0.0423312
0.01532
0.0187934
0.0364581
0.0359439
0.038268
0.0386224
0.0161543
0.00574254
0.000171369
0.00290515
0.0170292
0.0185767
0.0240362
0.0118623
-0.00259373
-0.00252032
0.00220739
0.0114653
0.023487
0.0352609
0.0497319
0.059235
0.0409735
0.0448486
0.0342169
-0.00641283
-0.0226506
-0.0271876
-0.056585
-0.0622848
-0.0393862
-0.0023473
0.014789
0.0254263
0.0299555
0.0497958
0.0773628
0.056035
0.0444837
0.0341116
0.0209735
0.0135413
-9.13218e-05
-0.00639007
-0.0395599
-0.048588
-0.0403725
0.0018632
0.0351371
0.0585411
0.0574862
0.0561171
0.0807837
0.0315502
0.0174853
0.00163527
0.00850105
0.0485957
0.0437133
0.00797609
-0.00633515
0.0164003
0.0403841
0.0411622
0.0311658
0.0262598
0.0222628
0.00874724
0.0222028
0.0301696
0.0350492
0.0502606
0.0590545
0.0700677
0.0643302
0.0374044
0.0325562
0.0507415
0.0493614
0.0423539
0.0185995
0.0245511
0.0231121
0.0304001
0.0419158
0.0399111
0.0387092
0.058092
0.0568714
0.0466055
0.0411958
0.0334484
0.0223336
0.0186365
0.0108452
0.00841257
-0.00765862
-0.00782981
0.000875127
0.022519
0.0518801
0.0359658
0.0175429
0.0301784
0.0294411
0.0250857
0.0161231
0.0044295
0.0249339
0.0253746
0.0031711
-0.00714043
-0.00457857
-0.00726889
0.00155667
0.0153886
0.0278776
0.0195175
-0.0106536
0.00406152
0.0112483
-0.00359178
0.00211965
0.00863047
0.0034245
0.0101614
0.0146255
-0.00308393
-0.00681548
-0.0175724
-0.0141051
-0.0117172
0.00700001
0.00522799
-0.0224842
-0.00763746
-0.0124191
-0.0316498
0.000870389
0.0147922
0.00963894
0.0199371
0.027784
0.0113853
0.0326033
0.0242875
0.00294977
0.00083459
0.0220532
0.0323658
0.0180126
0.0216427
0.0110392
-0.0127363
-0.00717195
0.00419369
0.0247865
0.0278172
0.0230205
0.0211823
0.0187982
0.00989132
-0.000391472
-0.00426664
0.0107414
0.0327151
0.0200795
0.0244687
-0.00587378
-0.0231883
0.00199338
0.0190361
0.0137231
0.0123151
0.0100667
0.0104524
-0.0241656
-0.0225567
-0.0130347
0.0117784
0.0227061
0.0376377
0.0154409
-0.00395259
-0.0184256
-0.0265292
-0.0101205
0.0164342
0.00183436
-0.0227516
-0.00501709
0.003209
-0.0280008
-0.0355312
-0.00533429
-0.00131805
0.00871753
0.0322535
0.0130131
0.00528536
-0.00614096
-0.0457119
-0.0214093
0.0151529
0.0059567
-0.019437
-0.00468647
-0.0125741
-0.0239403
-0.0305348
-0.000276868
0.0331655
0.0385995
0.023597
0.013507
0.0156602
0.00943825
-0.0372096
-0.0377937
-0.0193625
-0.0197757
-0.0118776
-0.003138
0.00653927
-0.00708765
-0.0142324
-0.000196927
0.0272906
0.0411512
0.00774061
-0.0181515
-0.0147407
-0.00625165
-0.027682
-0.0180743
-0.00981
-0.0170708
-0.0137152
-0.0062494
-0.00974389
-0.0220191
-0.0272414
-0.0164018
0.00136253
0.0264184
-0.0024294
-0.0105719
-0.025059
-0.0159086
-0.0324474
-0.0317992
-0.00722123
-0.00626865
-0.00545527
0.00597869
0.0123928
-0.00789719
-0.0209104
-0.000770346
0.0196758
0.0261616
0.00634224
0.00173455
-0.0174275
-0.0281846
-0.0171623
-0.0160454
-0.0021069
0.0108272
0.0139013
0.0117477
0.0123508
0.00226264
0.00185622
-0.00234061
-0.00829107
0.00499605
0.0162459
0.000720473
0.010139
0.00380675
-0.0159992
-0.0276027
-0.0118177
-0.0110746
-0.000466386
-0.012714
-0.00135366
-0.00209468
-0.00761365
0.00615638
0.0250856
0.0182749
0.0431299
0.0405539
0.0178979
-0.0100625
-0.0253942
-0.0298588
-0.0296415
-0.0327272
-0.020349
-0.010219
0.00352907
-0.0163769
-0.0173505
0.00927838
0.0202757
0.0289867
0.040908
0.013633
-0.0405529
-0.0431422
-0.016438
-0.0372618
-0.0385043
-0.031394
-0.00543052
-0.00310939
-0.00791261
-0.0127974
-0.022187
-0.00564103
0.00708614
0.0488836
0.0390637
0.0105745
-0.0228569
-0.045264
-0.0216154
-0.00772909
-0.00802982
0.00383779
0.0191326
-0.00620084
0.00181753
-0.012383
-0.0236092
-0.00713693
0.00949153
0.0386896
0.0478792
0.0316396
-0.000782694
-0.010986
0.0115582
0.0171051
0.00896084
0.0123742
0.00640304
-0.0290167
-0.0297955
-0.0282169
-0.0174259
-0.000495451
0.0118573
0.0293636
0.0384923
0.0277317
0.0151415
-0.00855875
-0.0144222
-0.026504
-0.0182494
-0.0196069
-0.0173554
-0.0194177
-0.0161697
-0.00503831
-0.0127697
0.000467178
0.0159504
0.0246777
0.03112
0.0201079
-0.0131842
-0.0483494
-0.067403
-0.0744653
-0.0494317
-0.0435994
-0.0350537
-0.0139271
-0.0129041
-0.00864649
-0.00695095
0.0068344
0.0252184
0.0383312
0.0257908
0.0203451
0.0154933
-0.0087422
-0.0566193
-0.0574536
-0.0332141
-0.030323
-0.00358424
0.00237742
-0.0196589
-0.0365828
-0.0159026
0.00717208
0.0199431
0.0360876
0.0481015
0.0246604
0.0259413
0.0116986
-0.0197341
-0.0133911
-0.0334547
-0.0322765
-0.0101464
-9.12115e-05
-0.0222712
-0.021172
-0.00851035
0.00701827
0.0177245
0.0179435
0.0274782
0.00876235
0.0147294
0.00931685
-0.00176359
0.00413098
0.00586832
-0.00436657
-0.0121063
-0.00570709
-0.00921929
-0.00714555
-0.00939351
0.0210419
0.0373975
0.038012
0.0303276
0.0182678
0.0200152
0.0179519
0.0208076
0.0145911
0.00918657
-0.0164814
-0.0263092
-0.0150787
-0.00946005
0.00131103
-0.00175691
0.0146357
0.0424899
0.0617318
0.0515249
0.0413129
0.0332111
0.0216602
0.0188637
0.0209866
0.0147658
0.00220393
0.00467235
0.0170134
0.0153383
0.0111925
0.00327843
0.0222268
0.0277743
0.0285897
0.0466151
0.0189229
0.00821606
0.00922484
0.00890071
0.00925309
0.00128682
0.000626526
0.0154538
0.0252564
0.0270367
0.0300603
0.0249427
0.0367273
0.0316014
0.0336575
0.0125263
-0.0191947
-0.0225493
-0.0219441
-0.0304527
-0.03813
-0.0418597
-0.0298596
-0.0094101
0.000524901
0.00117428
0.010607
0.00645782
0.0034823
0.0057757
0.0211464
0.0170195
0.0174726
0.00391467
0.00633185
0.00550078
0.02816
0.0324731
0.0532555
0.0576377
0.0591137
0.0406484
0.0360376
0.0379222
0.0498965
0.0410644
0.0394069
-0.0254511
-0.0136864
-0.0135773
-0.0328758
-0.0401342
-0.0384989
-0.0380142
-0.0129067
-0.0091292
-0.0038062
-0.00641706
0.0128097
0.0014561
-0.00476629
0.004809
0.0115917
0.00710635
0.0271806
0.0340058
0.01687
-0.00403204
-0.0236845
-0.0465752
-0.0546636
-0.0478572
-0.0433812
-0.0254948
-0.00778446
-0.00435797
0.0143147
0.0187837
0.0402597
0.0100821
0.0194101
0.0188596
0.0260422
0.0180648
0.00761251
-0.0346266
-0.0407793
-0.0420178
-0.0476717
-0.0287283
-0.00135409
0.013806
0.0335082
0.0340362
0.0527348
-0.00716691
-0.0148871
-0.0217737
-0.0098685
-0.00720074
0.000954995
-0.00883415
-0.000466569
-0.00245553
-0.00232404
0.00216309
-2.14191e-05
-0.015786
-0.0127505
0.00293643
-0.000267796
5.01094e-05
-0.000342108
-0.00873835
-0.00830637
0.00174313
0.0163685
0.0187818
0.0195749
0.0116093
0.00533836
0.013379
0.0260649
0.0171901
0.00907246
0.0146775
0.00308911
0.00374056
-0.0050401
-0.0178344
-0.0120183
0.000965642
0.0127826
0.0213605
0.01494
-0.0104737
-0.0045553
0.000658383
0.0148693
0.0120302
0.00136808
0.0101216
0.0111
0.0153696
0.00380104
-0.002304
0.00726544
0.0260374
0.0211438
0.0180151
0.0270333
0.0210863
0.027078
0.0196273
0.0171474
-0.00388282
-0.00542192
0.00168813
-0.0111036
-0.0140129
-0.0213032
-0.0118137
0.00958009
0.0292213
0.0279863
0.0214915
0.0209165
0.0265026
0.0355195
0.0218152
0.00310385
-0.02303
-0.0218161
-0.0231767
-0.0297558
-0.024815
-0.0427238
-0.028543
-0.0113995
0.00218613
0.0211646
0.0252046
0.0095911
0.0218236
0.0167328
0.0164812
0.0255557
0.00125472
-0.0148799
-0.0240864
-0.0119341
-0.0203628
-0.00581397
-0.00696024
-0.0162926
-0.0141672
-0.000506699
0.00306656
0.00680087
0.02717
0.0253947
0.0249338
0.0172965
-0.0108034
-0.0103284
-0.0139013
-0.0109258
-0.0124948
-0.00408958
-0.0126498
-0.0288971
-0.0304035
-0.0150277
0.00370756
0.00885869
0.0059383
0.00712885
-0.00645174
-0.0212952
-0.0311704
-0.0148534
-0.0133227
-0.00406434
-0.01287
-0.0168079
-0.0239615
-0.0358193
-0.0316315
-0.00964119
0.00930532
3.95804e-05
-0.00790092
-0.000573072
-0.00763424
-0.0207513
-0.0230252
0.00261116
-0.00464501
-0.00514891
-0.0126496
-0.00101034
-0.0114929
-0.0239056
-0.0282315
0.00510749
0.0170226
0.0043538
0.000296295
0.0121308
0.00650024
-0.00909454
-0.0215998
0.012784
0.0203206
0.01589
-0.0129614
-0.00544032
-0.0225304
-0.0314457
-0.0297087
-0.0100177
-0.00660181
-0.00438822
-0.00146242
0.00146847
-0.0040467
-0.0118757
-0.0247357
-0.00502218
-0.00934757
0.00118364
-0.0151503
-0.0194791
-0.0310385
-0.0389366
-0.0236012
0.00593738
0.0128829
0.00874737
0.00571197
0.013669
-0.00152461
-0.019468
-0.0168809
-0.0221894
-0.0297249
-0.0155656
-0.0145129
-0.00350877
-0.0155128
-0.0120404
-0.0193181
-0.00499593
0.00872485
0.015034
0.0104931
0.00996872
-0.00472852
-0.0205308
-0.0303774
-0.0118804
-0.00761549
-0.00462705
-0.0149621
-0.00802191
-0.0214495
-0.0201983
-0.010546
0.00592057
0.0130087
0.0176603
0.00806784
0.00124921
-0.0105477
-0.0218882
-0.0197772
-0.0118233
-0.00954406
-0.0131337
-0.0157509
-0.0180127
-0.0202069
-0.0233707
-0.0112723
-0.0105842
-0.00343854
0.000105618
-0.00753685
-0.00694572
-0.0332935
-0.0388229
-0.0233781
-0.00849129
0.00658302
-0.000442963
0.00598588
0.00351015
-0.0197221
-0.0391705
-0.0190701
-0.00255141
-0.00439598
-0.00457549
-0.0200657
-0.0169038
-0.0303822
-0.0363477
-0.0310264
-0.0136517
-0.0195014
-0.00935291
-0.00416172
-0.0172694
-0.0390631
-0.0422031
-0.0182133
-0.0143542
-0.027094
-0.032589
-0.0321919
-0.0217201
-0.0182891
-0.0345633
-0.0290531
-0.017977
-0.0134238
-0.00318871
-0.002232
-0.000169847
-0.0239754
-0.0371927
-0.0174848
-0.0144938
-0.00845525
-0.0072123
-0.0166811
-0.0193708
-0.0214299
-0.0409104
-0.0406803
-0.00332805
0.00025783
0.00159988
0.016149
0.016473
-0.00527894
-0.0106772
0.00302673
0.0113048
0.00832513
0.0120605
-0.0121738
-0.0381176
-0.0364648
-0.0440026
-0.029138
0.0091364
-0.0104025
-0.00918695
0.00300655
-0.00534555
-0.000657166
-0.0128576
-0.0169252
-0.00805329
-0.00121948
-0.00826878
-0.0174194
-0.0263506
-0.0352267
-0.0356206
-0.0390129
-0.0268932
0.00552479
0.00118095
-0.00663158
-0.0108742
-0.0141792
-0.0282124
-0.0367994
-0.0317966
-0.0136059
-0.0258159
-0.0272296
-0.0326382
-0.0453661
-0.0392025
-0.0413947
-0.0230424
0.00194242
0.00478902
0.00191764
0.00409317
-0.00462479
-0.027851
-0.0355141
-0.0308714
-0.0148889
-0.0183755
-0.0196368
-0.027039
-0.0566757
-0.0512983
-0.0336813
-0.00991993
0.00816662
0.0129882
0.00933334
0.00904583
0.00990358
0.00287378
-0.00181891
0.0062451
0.0026436
-0.0265248
-0.0279623
-0.0371332
-0.0440065
-0.0412969
-0.027564
-0.0139769
0.00130633
0.000145501
0.000464171
0.00234796
-0.00191555
0.00255109
0.00169997
0.00452151
-0.00680044
-0.0194665
-0.0273304
-0.0256652
-0.0369538
-0.0385688
-0.0201512
0.00958937
0.022956
0.0138954
0.0084047
0.0162157
0.0192792
0.0167252
0.0148861
0.00841515
-0.00020098
-0.0128412
-0.0199644
-0.023956
-0.0268856
-0.0119542
-0.0140229
0.0107151
0.0229746
0.0270195
0.0277346
0.0340132
0.0286656
0.0190786
0.0127951
0.0121304
0.0056463
0.00427444
0.00668998
0.00376054
-0.000773264
0.00940247
0.00747147
0.011462
0.0204501
0.0245071
0.0189527
0.0173917
0.0129285
0.015194
0.0160129
0.0127878
0.0066896
0.00635136
0.0238538
0.0239786
0.0114678
0.00920404
0.013004
0.0171235
0.0146028
0.0210562
-0.0113422
-0.00908187
-0.00837645
-0.000952893
0.0154084
0.0128145
0.0199524
0.00893876
-0.00097749
-0.00286465
-0.0112764
-0.00517883
0.000814611
0.00672187
0.00699131
0.0149275
0.0259479
0.00577291
0.00813966
0.00460309
0.00824577
-0.016276
0.0197008
0.0550948
0.065728
0.0751994
0.0602316
0.0733206
0.0485813
0.0369271
0.0245387
0.0168611
0.00440034
0.00599721
0.00557186
-0.0321549
-0.0254732
-0.045655
-0.0325679
0.00933905
0.0324536
0.0346997
0.036541
0.0453025
0.031539
-0.00296886
-0.0132018
0.00414531
0.00912154
0.0100251
0.00767227
-0.0111796
-0.00773402
-0.024465
-0.0364291
-0.0476925
-0.00818585
-0.0212032
-0.00329455
0.0135757
-0.00814031
0.00377803
2.9844e-05
0.0213049
0.00963168
-0.011548
-0.00989796
0.00262675
-0.000800096
-0.00492536
-0.0246459
-0.0209344
0.0197638
0.0172065
0.0142212
0.0122748
-0.0215618
-0.00724551
-0.00926835
0.0281395
0.00374541
-0.0196569
-0.0135355
0.00212559
-0.000787218
0.016547
0.0157868
0.00930175
0.00451084
0.021468
0.032936
0.0308302
-0.0121809
-0.031879
-0.00638863
0.0177264
-0.00538235
-0.00395878
-0.00129826
-0.00328718
0.0203296
0.0310268
0.0301894
0.0300119
0.000852295
0.0275032
0.0498073
0.0648087
0.0634225
0.0446311
0.0276315
0.0288668
0.00996044
-0.00759157
-0.0258612
-0.0188888
0.0136776
0.0335801
0.0418517
0.0427315
0.0155383
0.0285508
0.0510179
0.0688024
0.0743952
0.0649453
0.049346
0.0428579
0.00859763
0.0157139
-0.00546576
0.000408773
0.0239858
0.0289966
0.030895
0.0412964
0.0369039
0.03857
0.0633258
0.0598447
0.0572247
0.0537673
0.0492564
0.0433151
0.00356032
0.00627942
0.00561649
0.0128864
0.0418254
0.040103
0.0131853
0.0144878
0.0258088
0.0364652
0.037214
0.0370633
0.0250493
0.0330316
0.0406241
0.0488406
0.0364226
-0.00246538
-0.0108803
-0.00971563
0.0129936
0.0259093
0.0192756
-0.00127601
0.0123361
0.0134717
0.0135931
0.0213099
0.0277257
0.0381501
0.0532374
0.0386037
0.0515445
0.0347738
0.0241697
-0.0224387
-0.0200978
-0.00516116
-0.00146925
0.00035757
0.0145356
0.00481578
0.0110735
0.0266396
0.0221797
0.0301881
0.0441124
0.054832
0.0461599
0.0270035
0.0133226
-0.0201861
-0.0175977
-0.00260369
0.00313805
0.00585721
0.000543669
0.000159387
-0.0151966
0.0111284
0.0198745
0.028815
0.0506662
0.0670604
0.035839
0.0224091
0.0115374
-0.000805075
0.00957835
0.0243275
0.00129132
0.00111459
0.00862163
0.0257828
0.00347737
0.0101559
0.0258149
0.0426282
0.0539709
0.0676914
0.0365697
0.0348211
0.01839
-0.000151893
-0.0104248
0.010607
0.00113668
-0.0144631
-0.00142459
0.014516
0.0168986
0.0228597
0.0227872
0.0336779
0.0414926
0.0657798
0.0443095
0.0434245
-0.0084555
-0.0135411
-0.0358109
-0.0180524
-0.00820061
0.00516386
-0.00392772
-0.00155073
-0.000286791
0.0219164
0.0204465
0.0190152
0.0217952
0.0477498
0.047756
0.0566097
0.0226199
-0.0109537
-0.0246823
-0.00673326
0.0102384
0.0119708
-0.000232433
0.00866715
0.000358823
0.0179871
0.0277086
0.0197542
0.0167555
0.0266339
0.044916
0.0520818
0.0423287
0.0260321
-0.00536114
0.0101239
0.00586131
0.0136371
0.016774
0.0180602
0.00532472
0.0170722
0.0111708
0.0261871
0.0350785
0.0357125
0.0371846
0.0481894
0.0334115
0.0312044
0.0253416
0.0314521
0.0250555
0.0134451
0.00548095
0.00380512
-0.00341721
0.0105219
0.014139
0.025435
0.0476837
0.0540285
0.0220152
0.0182694
0.00604637
0.0262696
0.0353338
0.0342966
0.045715
0.0267853
0.00721074
0.0161697
-0.0288996
-0.00535377
0.0134469
0.0272179
0.0319085
0.0423075
0.0227667
0.0249464
-0.00239135
0.00156572
0.0243963
0.0300178
0.0282628
0.0399148
0.025587
0.0145104
-0.0172289
0.00442247
0.0239923
0.0137527
0.0161533
0.0252454
0.0123176
0.00457386
-0.0197414
-0.00360273
0.0234637
0.0330877
0.0137753
0.0122966
0.0132915
0.0205898
0.0166989
-0.000321307
0.0183404
0.0163814
0.0293453
0.0390929
0.0248145
0.0206302
0.0126816
0.0187175
0.0332862
0.0314445
0.0180854
0.00394891
0.0114765
0.027014
0.0102342
0.00321238
0.0164977
0.0329417
0.0307204
0.0504548
0.0328355
0.0233794
0.0274776
0.0338296
0.0364319
0.032882
0.0261026
0.00384591
0.00261497
0.00840026
0.0125362
0.0207756
0.02912
0.0414014
0.0229604
0.0255172
0.008872
-0.0026453
0.0215285
0.0133157
0.00143926
0.0145555
0.0193573
0.00167979
0.00335032
0.00165133
0.00739995
0.0171591
0.0141623
0.0234119
0.0200051
0.017771
-0.00137444
-0.00139182
0.015412
0.00287282
-0.0067546
-0.00376422
-0.00176985
-0.00762142
-0.00340181
-0.00502605
-0.00295248
0.0224561
-0.00225993
0.0110617
0.0162277
0.0181844
0.00830733
0.0194477
0.0232305
-0.00223843
0.00754509
-0.00144215
-7.55067e-06
0.0127122
0.00880411
0.00843328
0.0118902
0.0173822
0.00533387
0.000806116
0.00886836
0.0315921
0.010663
0.00688435
0.0148211
0.0180095
0.0326295
0.0211982
0.0193907
0.0142023
-0.00212599
-0.0211193
-0.00170016
0.00736564
0.012213
0.00764349
0.0180508
0.0263544
0.00370395
-0.00238683
-5.35309e-05
0.00128684
0.00937654
0.0126545
0.0258147
0.014586
-0.00234337
0.00596139
-0.001758
0.00405159
0.0167665
0.0224782
0.0333471
0.0485767
-0.0102193
-0.00184419
0.00558446
0.0113794
0.00890994
0.0311263
0.0296701
0.00750538
0.0097451
0.0146007
0.011706
0.028052
0.0191539
0.0221944
0.034876
0.0439643
0.0200555
0.0261014
0.0113013
0.0134571
0.014683
0.0300176
0.0303714
0.0247001
0.0287993
0.0405015
0.0335859
0.0345808
0.0248091
0.0232858
0.0342279
0.0340728
0.0164735
0.035565
0.0372478
0.029621
0.0073431
0.00814534
0.0128397
0.026278
0.0298383
0.0304972
0.0179924
0.0180286
0.0239581
0.0170044
0.0217262
0.0290969
0.000130078
0.0262408
0.0195221
0.0196625
0.0294159
0.0138748
0.018646
0.0120103
0.00786716
0.0107562
0.00762147
-0.00522013
-0.00943435
0.000354488
-0.00132659
0.00398577
-0.00722885
-0.00827742
-0.00607585
0.000775419
-0.00395801
-0.0273
0.000100644
0.0063864
0.0250942
0.044762
0.0266127
0.0352635
0.0340735
0.024718
0.0160903
0.00858157
-0.0160804
-0.00619048
-0.00987993
-0.0238286
-0.0254094
-0.0238345
-0.0295149
-0.0107391
0.0143766
0.0343934
0.0270321
0.0252719
0.0290802
0.00865339
-0.00574403
-0.000652996
-0.0117982
-0.0137974
-0.0155141
-0.0329062
-0.0355882
-0.035104
-0.0346774
-0.0231187
-0.00596375
-0.0132902
-0.0012228
-0.00267029
-0.0080585
0.00806882
0.00294824
0.0308472
-0.00486611
-0.0172505
-0.0157841
-0.0130454
-0.0154322
-0.019471
-0.00947884
-0.00677541
0.00202834
0.00486504
0.000106719
-0.0213022
-0.03108
-0.0228994
-0.0185622
0.0194123
-0.0122557
-0.0222363
-0.0261109
-0.0129595
-0.0143111
-0.0145442
0.00136668
-0.00356295
-0.0149328
-0.00397386
-0.00124715
-0.0161664
-0.0405622
-0.0474737
-0.0249408
-0.00226905
-0.0256391
-0.021188
-0.0223813
-0.0236691
-0.0105988
-0.00824917
-0.00930792
-0.00662085
-0.0050915
0.00191045
0.00612542
0.010742
0.00721341
-0.00860099
-0.0130163
-0.00479757
-0.0357292
-0.0322901
-0.0383742
-0.028687
-0.00973714
0.00267314
0.00931389
0.0179427
0.0193884
0.0247676
0.0331716
0.0288643
0.0411957
0.0389287
0.0187654
0.0175748
-0.0179495
-0.0146931
-0.0201562
-0.00941352
0.00389423
0.0127542
0.00960304
0.0127395
0.0167526
0.0238326
0.0476347
0.0449832
0.039813
0.0437881
0.0405114
0.0245694
-0.0103535
-0.0123686
-0.00717332
0.014885
0.0433444
0.0349048
0.00654699
0.0105237
0.0156129
0.0141023
0.032769
0.0339943
0.0136808
0.0207098
0.0419929
0.0373289
0.0162747
-0.0151877
-0.0122356
0.00429336
0.0240283
0.0211206
0.00535714
-0.00275141
-0.00172769
-0.00884501
0.004394
0.00974914
0.00604882
0.0139978
0.0386023
0.04202
0.00648609
-0.0130431
-0.00705403
-0.0139919
-0.00460902
0.00379661
-0.0068738
-0.0182524
-0.0127918
-0.0165493
-0.0127458
-0.00714375
0.00650668
0.00961224
0.0300229
0.0495517
0.00528273
-0.0185094
-0.0192684
-0.0103657
0.00181359
0.0104903
0.00300233
-0.0109734
-0.0136964
-0.00074028
-0.0149792
0.00104558
0.0275685
0.0205086
0.0247916
0.0431758
-0.000873572
-0.00256115
-0.0144445
-0.0150463
0.010188
0.0235714
0.00283352
-0.0149272
-0.00638122
0.0165488
0.0111284
0.0150598
0.0317594
0.0265442
0.0169687
0.0261064
0.0161639
-0.00198015
-0.0162355
-0.0178929
-0.00927833
0.0177877
0.0252901
-0.00123678
-0.000189627
0.0133662
0.0170313
0.0201217
0.0191255
0.011135
0.019157
0.0334287
0.0241627
0.0172431
-0.0136993
-0.0243776
-0.0298919
-0.00135452
0.0171465
0.0112329
0.00550146
-0.00511073
0.0112408
0.0237979
0.0313632
0.0100714
-0.000967813
0.0271544
0.0137808
0.0224184
0.00698976
-0.0118499
-0.0150584
-0.00517921
0.00947319
0.00889866
-0.00229754
-0.0068558
0.000426385
0.0106343
0.0289273
0.0162751
-0.00868532
0.00742945
0.000857388
0.0120114
0.0277214
0.0138515
-0.012889
-0.00448237
-0.0170079
-0.00693216
0.000430115
0.00375548
-0.00183744
0.00305308
0.0143265
0.0217659
0.00898764
0.0185055
0.00336309
0.00423518
0.0065095
0.0113312
0.00305367
0.0116577
0.0011925
-0.0161326
-0.020372
-0.00199759
0.00340762
0.00866039
0.0036622
0.0112229
0.0230591
0.0205759
-0.000743343
-0.0105167
-0.023042
-0.00227518
0.00634434
0.0122866
0.0138009
0.00707743
-0.00605996
0.0092207
-0.00230889
0.00286002
-0.00306645
0.00433419
0.0158248
0.00652596
-0.00602347
-0.00226367
-0.0263276
-0.018754
0.00706397
0.0179061
0.012722
0.0200326
0.0155892
0.00832902
0.00472574
0.00369274
0.00546187
-0.00231487
0.00509508
-0.00217982
-0.0163849
-0.00663744
-0.0216192
-0.00802567
0.00151852
0.020018
0.0063298
0.00459061
0.0154452
0.0226503
0.0254206
0.01689
0.011269
0.0106299
0.0146274
0.00692003
-0.0152507
-0.00870197
-0.00748654
-0.00162374
0.0117325
0.0172123
0.00709797
-0.00923066
0.00844872
0.0209258
0.0268646
0.0188244
0.0126869
0.00277885
-0.00470216
0.0166979
-0.015717
-0.00823043
0.00449033
0.0124767
0.0110522
0.00514338
0.00986971
-0.0117568
-0.00768342
0.0136012
0.0120524
0.0263901
0.0313493
0.0126243
-0.00912642
-0.00165593
-0.0180158
-0.0219537
0.00114261
-0.0044948
-0.00775694
-0.00439991
-0.00441477
-0.0198837
-0.00584
0.00064134
0.00522618
0.0269928
0.0256247
0.0217524
-0.00643499
0.00107677
-0.0252229
-0.0118843
-0.00102781
0.00530662
-0.00665518
-0.020503
-0.00809945
0.00260874
-0.0052077
-0.00762346
-0.000176556
0.0214265
0.0265287
0.0232885
-0.00793243
-0.00750953
-0.0231493
0.00886396
0.0160103
-0.00204641
0.000324162
-0.00133302
-0.00586462
0.0179973
-0.000787049
-0.0016952
0.0107058
0.0259789
0.0287844
0.0249249
-0.00499735
0.00049326
-0.0321378
-0.01591
-0.00368942
-0.00286457
0.0148523
0.0171972
0.00935483
0.00224517
-0.011098
-0.00916851
0.00236146
0.000770812
0.011555
0.0206959
0.00282764
0.000381243
-0.016056
-0.018812
-0.021099
-0.0104016
-0.00608727
0.0140259
0.0170138
0.00871751
-0.00402321
0.00205035
0.00373541
-0.00461851
0.000769086
0.0027428
-0.00218298
-0.00258284
-0.00049177
0.0019743
-0.0207638
-0.0191268
-0.0133588
0.0047265
0.0130366
0.0149174
0.00931753
0.014332
0.0190104
0.0127027
0.00441404
0.0033953
-0.00191668
-0.00192731
-0.00171355
0.0191628
-0.0118825
-0.00895057
-0.00964712
-0.00115733
0.0136398
0.0183892
0.0221684
0.0230362
0.0325873
0.0133277
0.00269175
-0.00104301
0.00897823
0.0038318
-0.00489128
0.0200064
0.0170838
-0.00606497
-0.0164362
-0.0103088
-0.000708143
0.00761021
0.00315438
0.00227208
0.0170466
0.00828338
0.00455622
-0.000820282
0.00124256
0.00778069
-0.00805304
0.000479641
-0.0122074
-0.0160599
-0.017665
-0.0131423
-0.00643629
-0.00601758
-0.011201
-0.00634158
-0.0101329
-0.018936
-0.0128919
-0.0166236
-0.0227539
-0.0247763
-0.0065379
0.0170701
0.0117008
0.030604
0.0265549
-0.00232005
0.010792
0.00298227
0.00486373
0.0294001
0.0217955
0.00692178
0.0169274
0.0201442
0.0179649
0.0091805
-0.00601747
0.0130068
0.00214834
-0.00621299
0.00254556
-0.00890826
-0.0292921
-0.0110058
0.0105764
0.0295349
0.0349644
0.0254271
0.0222995
0.0188181
0.00908726
0.0109631
-0.0120342
0.00997514
-0.00877474
-0.0175791
-0.00812279
-0.0175538
-0.0267363
-0.00781725
0.0173649
0.0187926
0.0213412
0.00215735
0.00682896
0.00583223
0.0101345
0.0217382
-0.0128835
-0.00937465
-0.0176888
-0.00101118
-0.00267685
-0.00835056
-0.00444228
0.00413722
0.0144669
0.0165035
0.0192905
-0.00450977
-0.00958873
-0.0021971
0.00210725
0.00873877
-0.0255181
-0.0141748
-0.0307077
-0.00650533
-0.0149761
-0.0147871
-0.0075013
-0.00166719
-0.00108535
-0.000164342
-0.00151864
-0.00516652
-0.0175259
-0.0102792
-0.00775706
0.0013646
-0.0312039
-0.014816
-0.0232845
-0.0195803
-0.00897774
-0.0101776
-0.0156309
-0.0118383
-0.00743143
0.00391064
-0.00492608
-0.000804851
-0.00677003
-0.0111479
-0.00573986
-0.000924035
-0.0403765
-0.0167652
-0.0287732
-0.025704
-0.0105835
0.00286759
-0.00253769
-0.00438214
0.00360529
0.0217915
0.0149938
-0.000756238
0.0205093
0.0212266
0.00442009
0.0156051
-0.0252384
0.00287229
-0.0111893
-0.00766655
0.0121266
0.012229
0.00214292
-5.77535e-05
0.00390255
0.017437
0.0268187
0.0114285
0.0241418
0.0460513
0.0423151
0.0260457
-0.0163026
0.00925633
0.00392512
0.0112154
0.0365215
0.0320842
0.0146597
0.0101368
0.0135471
0.00752423
0.0235936
0.0286974
0.0323359
0.038854
0.0495637
0.0404188
-0.0106482
-0.00443343
-0.00714551
0.0022924
0.0266415
0.0200733
-0.00279734
0.00499597
0.00109388
0.00266491
0.0107806
0.0143728
0.0116023
0.0123143
0.045439
0.0561865
-0.0171576
-0.0108892
-0.01112
-0.0160372
-0.00344035
0.00120438
-0.00533889
-0.00409957
-0.000204176
0.00258088
-0.00283626
0.00271139
0.0104394
0.00652075
0.0248735
0.0620449
-0.0130474
-0.010754
-0.0174119
-0.00434548
0.00814665
0.00323571
-0.00584241
-0.00464516
0.00365967
0.0164175
0.00545388
0.0094906
0.0364617
0.0177461
0.0173707
0.0439021
-0.0142877
0.0081991
-0.00476728
-0.00248136
0.00895449
-0.00156217
-0.00288588
-0.00618994
0.00352695
0.0281026
0.0105507
0.0134726
0.038041
0.011575
0.00131228
0.0239961
0.00739395
0.0146298
0.00713012
0.00470651
-0.00338347
0.00370277
0.00721049
0.00122217
0.00393718
0.0202386
0.0223924
0.0291857
0.0385399
0.0211684
0.00817167
0.0159007
0.0130086
0.0307718
0.00326269
0.000444568
-0.00774658
-0.00894013
0.00808092
0.00193701
-0.00585339
0.00738408
0.0149198
0.0223157
0.0521042
0.0309456
0.0120773
0.0319362
-0.00120364
0.0195214
0.0139159
0.00576661
6.28794e-05
-0.00552018
0.0114851
-0.00114692
-0.00328682
0.00553026
0.0142616
0.0211792
0.046469
0.0404218
0.0207466
0.0194209
-0.000145283
0.0130317
0.0207568
0.00940991
-0.00672633
-0.015803
-0.00986091
-0.0105541
-0.00853999
0.00475544
0.0073893
0.00807929
0.0355763
0.0533431
0.0207588
0.0225921
0.0111124
0.0129184
0.0104385
0.012413
0.00994051
0.00342578
0.0141478
-0.010984
-0.0222434
0.00627906
0.0126839
0.0243886
0.0270771
0.0333984
0.0266339
0.0170326
-0.0154414
-0.0100073
-0.00815235
-0.00112327
0.00676958
0.00765717
0.0189758
0.0186063
0.00390019
0.0248018
0.0104361
0.0135865
0.00396379
0.021202
0.0247314
-0.000628883
-0.024271
-0.0115887
-0.0143548
0.00287939
0.0143889
0.0227616
0.0276498
0.0260202
0.0319612
0.0277024
0.0200463
0.0162739
0.0212405
0.018059
0.0215978
0.0104887
-0.0247744
-0.00415906
-0.00526288
0.00754356
0.0143755
0.0279295
0.0234631
0.014938
0.0365829
0.0347781
0.0323688
0.0291851
0.0345463
0.0359629
0.0327274
0.0132545
-0.0303329
-0.00318226
0.000721224
0.00566601
0.00815861
0.0149562
0.0200478
0.00498419
0.0172267
0.0309738
0.0363924
0.0312879
0.0348349
0.0329528
0.0215482
0.0114313
-0.0332298
-0.0119489
-0.00153892
0.00800426
-2.90714e-05
0.00559836
0.0184926
0.00783358
0.0181789
0.0431726
0.0341017
0.0343012
0.0393209
0.0325204
0.0187754
0.00414333
-0.0310713
-0.00762604
0.0110891
0.00656131
-0.00645311
0.0031584
0.0125761
0.00632776
0.0178281
0.0351149
0.0244095
0.0241768
0.034516
0.0412765
0.00900793
0.00862538
-0.0309595
-0.00157697
0.00722172
0.0103811
0.00337016
0.00853097
0.0120684
0.0130109
0.0145617
0.0157194
0.0260366
0.0201528
0.0328387
0.0378365
0.0178583
0.00840995
-0.0250095
-0.0116247
0.000587277
0.0135374
0.0111966
0.00919201
0.00639011
0.0240243
0.0181483
0.0192173
0.0266703
0.0215461
0.0304114
0.0325209
0.0130492
0.0147008
-0.0304149
-0.0166127
0.000289619
-0.00228491
0.0114319
0.00371577
0.0115485
0.00849276
0.00683188
0.00769059
0.0197849
0.00859093
0.0144902
0.0325042
0.00729416
0.0181732
-0.012188
-0.00789146
-0.0160147
-0.0107125
0.00709633
0.0201577
0.0253978
0.0131723
0.00834202
0.0181573
0.0269617
0.0113778
0.00994065
0.0226544
0.0055277
0.00270542
0.0033712
0.0121897
-0.0126994
-0.0051695
-0.000679475
0.0135598
0.0284698
0.0207452
0.0271697
0.0265377
0.0211972
0.012623
0.00167325
0.0180536
-0.00248723
-0.0189447
-0.012963
0.0174321
-0.0133049
-0.00798929
-0.00996894
0.000327035
0.0183234
0.0227144
0.0278044
0.020435
0.0318071
0.0188477
0.00851632
0.0214689
0.0149657
-0.0160703
-0.0153438
0.0119557
0.00569536
-0.0145381
-0.0277488
-0.0149601
0.0071929
0.00861275
0.00684276
-8.39649e-05
0.00832319
0.0128986
0.000995927
0.00851025
0.00816374
-0.00780889
-0.0168218
0.00281909
-0.0131825
-0.0204344
-0.0189031
-0.0117039
-0.0133883
-0.0130035
0.00641793
-0.00561591
-0.0120791
-0.00397854
-0.00861376
-0.00234229
0.00492683
-0.00754738
-0.0194111
-0.010098
-0.0139348
0.00375635
0.0027067
-0.0176447
-0.0239513
-0.0216839
-0.0262455
-0.0170725
-0.0264718
-0.0239079
-0.0111721
-0.00969161
-0.00344435
-0.0136277
-0.0185581
-0.0137476
-0.016254
-0.00322257
0.00276274
-0.0047496
-0.021849
-0.0166863
-0.0137767
-0.00121556
-0.011475
-0.0194783
-0.0106098
-0.0142947
-0.0092573
-0.0216891
